nep4 5 C N H Pb I 
cutoff 8 4 115 19
n_max 8 8
basis_size 12 12
l_max 8 2 1
ANN 60 0
 -6.5407336e-01
  7.0829535e-01
  2.6831397e-01
 -1.9452301e-01
 -6.1809361e-01
  2.0848811e-01
 -2.6671487e-01
  6.8961698e-01
  2.2325909e-01
  4.7216612e-01
  7.1277194e-02
 -5.0397462e-01
 -4.5163989e-01
  4.4325355e-01
  1.2463702e-01
 -2.9572308e-01
 -7.4180669e-01
  5.0452564e-02
  8.7008834e-01
  5.0123000e-01
 -2.8986057e-02
 -2.3517101e-01
  6.2586123e-01
 -8.1399709e-01
 -6.0368520e-01
  3.0647588e-01
  2.6239583e-01
  2.9912210e-01
  1.0076483e+00
 -2.7769083e-01
 -5.4162599e-02
  7.4045278e-02
  2.2985740e-01
 -2.5723147e-01
 -2.1521375e-01
  6.9033360e-01
 -5.0443327e-01
 -3.9322248e-01
 -2.0613734e-01
 -1.3558911e-01
  1.4599534e+00
 -6.6094226e-01
  1.8607278e-01
  8.4996462e-01
  1.6610433e-01
 -1.6638566e-02
  1.6987967e-01
  1.7205785e-01
 -4.4880608e-01
  2.4001454e-01
  4.6957469e-01
 -5.0806649e-02
 -1.0101516e+00
 -2.1051431e-01
  3.3255580e-01
 -4.2707536e-01
  8.0666542e-01
 -2.6997873e-01
 -2.2314868e+00
 -1.0913909e-01
 -2.2958812e-01
 -8.4481977e-02
  5.6429911e-02
 -4.6319950e-02
  1.2422711e-01
  3.1498879e-01
  1.0139779e+00
 -5.6309108e-02
  1.3672510e-01
 -4.6600372e-01
 -6.7239091e-02
  2.1101534e-01
 -6.0646850e-01
 -1.1730767e-01
  4.6684736e-01
 -7.3472840e-01
 -1.9305393e-01
 -1.5748425e-01
  3.4739485e-01
  4.0704441e-01
  5.6457031e-01
 -6.4799184e-01
 -1.9633809e-01
  1.6189393e-01
 -3.1738478e-01
 -1.1014117e-01
  5.2810007e-01
 -6.4820057e-01
 -1.3841087e-01
 -5.2473390e-01
  2.3856539e-01
 -4.7175506e-01
  3.1644192e+00
 -7.5202537e-01
  9.8430502e-01
 -1.1828274e-01
 -1.7413940e-01
 -5.5962944e-01
 -5.3737807e-01
  8.2149483e-02
  1.4809537e-01
 -2.1946067e-01
  2.7724743e-01
  5.5108154e-01
  8.0490680e-03
 -5.3351307e-01
 -2.3063643e+00
 -1.2378891e+00
 -2.8020817e-01
  1.6022632e-01
 -4.5100763e-01
 -7.9770887e-01
 -2.6807025e-01
  1.2088599e+00
  6.6945516e-02
  7.4441648e-01
 -3.7289935e-01
 -7.8426361e-01
 -1.4096060e-01
 -6.5346748e-02
 -1.0141543e-01
  4.9377590e-01
 -4.4954532e-01
  3.1046721e-01
  1.8452810e+00
  5.1421445e-02
 -7.2371036e-01
  6.3304323e-01
 -1.0761259e-01
  4.9449828e-01
  4.6988949e-01
 -8.7180063e-02
  1.9002654e-01
 -1.1194419e+00
  2.8851637e-01
  3.1211078e-01
  9.7453274e-02
 -2.0111473e-01
  2.5505295e-01
  4.0318537e-01
 -4.1451555e-02
  2.5630413e-04
  4.3649107e-01
 -1.0372749e-01
  8.9080870e-02
  5.8868742e-01
  3.1248575e-01
 -3.0717781e-01
  9.8479420e-01
 -7.8650421e-01
  1.8741760e-01
 -6.1747158e-01
 -4.8560375e-01
  5.8006889e-01
 -5.7452327e-01
 -1.0362356e-02
 -3.8268191e-01
 -1.6069321e-01
 -1.1017968e-01
 -1.8464385e-01
 -7.0362276e-01
  2.4646413e-01
  5.9152347e-01
 -2.0159447e-01
 -1.1728457e-01
 -1.6435170e-01
 -4.5553103e-01
  9.4765806e-01
  8.9590602e-02
 -1.8885174e-01
  3.0772674e-01
  9.2778206e-02
 -5.3016353e-01
  1.5037118e-01
 -8.1869408e-02
  4.5647908e-02
 -6.8391949e-01
  5.2760446e-01
  9.5840204e-01
  2.7451149e-01
  7.5252742e-01
 -2.8095596e-02
 -3.8894154e-02
 -2.6842880e-01
 -2.5107376e-02
  2.3652075e-01
 -9.7362119e-01
  6.3827671e-02
  1.4078654e-01
  5.9801424e-01
 -1.7366187e-01
 -4.6566153e-01
  5.6423128e-01
 -2.7413172e-01
 -8.7516600e-01
  2.7449238e-01
 -8.8064432e-02
 -4.8997390e-01
  5.7417005e-02
  2.6757896e-01
 -2.6405671e-01
 -1.6441737e-01
 -1.7615116e-01
  1.9520792e-01
  7.3468262e-01
 -1.6959037e-01
  3.7973210e-01
  2.6733372e-02
 -2.2549655e-01
 -4.2608342e-01
  4.1969711e-01
  1.4905588e-01
 -7.5878784e-02
 -1.2092876e-01
 -3.4743166e-01
  6.5696120e-01
  5.4961240e-01
  7.5264853e-01
  1.6739365e-02
 -1.3207667e-01
 -8.0658042e-01
 -5.3994983e-01
 -8.7939960e-01
 -1.0210147e-01
  6.2267049e-03
  4.4589293e-01
  4.8964089e-03
  1.7585632e-01
 -4.4918960e-01
 -2.6229620e-02
  1.6567926e-01
  5.8817911e-01
 -2.2464295e-01
 -7.3911153e-02
  1.6939852e-01
 -4.2180073e-01
  1.7627634e-01
 -6.4827882e-02
  2.2308031e-01
 -3.8884783e-01
 -2.6074227e-02
  2.0254281e+00
  8.3698973e-02
 -5.9225565e-01
  6.8909127e-01
  9.3343943e-02
  7.3722506e-01
  2.9119849e-01
 -3.2926571e-02
  7.8585130e-01
  7.7659185e-03
 -2.1984650e-01
 -5.3082007e-01
 -3.7457216e-01
  3.3344692e-01
 -1.2399979e-01
 -3.1353191e-01
 -1.4086775e-01
 -4.6890624e-02
  4.1958746e-01
 -9.9906884e-02
  1.2964970e-01
 -5.2420485e-01
 -5.3378254e-01
 -6.5560438e-02
  5.3363866e-01
  8.0209887e-01
 -9.6722960e-02
 -9.7329390e-01
 -3.2048330e-02
  1.6322356e-02
  7.5636163e-02
 -4.9141631e-02
 -4.0605929e-01
 -1.6118152e-02
 -7.1084005e-01
  3.2656068e-01
 -7.4450672e-02
 -3.2203306e-02
  3.5717177e-01
 -2.7101907e-01
 -2.5178272e-01
 -4.0880371e-02
  7.9354256e-01
  4.5696282e-01
 -4.3559375e-01
 -9.6021809e-02
 -3.2560561e-02
  4.4673026e-02
  8.6738300e-03
  9.8627536e-03
 -5.8546152e-02
  6.3500339e-01
  1.7102998e-01
 -4.8865712e-01
 -2.4014695e-01
 -1.1196277e-01
  8.0316998e-02
  4.6516180e-01
 -2.5502852e-01
 -4.3916825e-02
  1.4803002e+00
 -1.1800307e-01
  1.2298250e+00
  4.6737742e-01
 -4.6028519e-01
 -1.5165250e-01
  1.2089726e-01
  5.0646503e-02
 -3.5729151e-02
 -2.4671768e-01
 -1.6763745e-01
 -1.2486628e-01
  2.6624787e-01
 -2.8865933e-01
 -2.6146746e-01
 -1.1815331e-01
 -4.2120776e-01
 -1.0514300e-01
 -8.4222329e-01
 -1.1240684e-01
 -4.6765292e-01
 -4.4144779e-02
 -1.3444923e+00
 -3.6219910e-01
  3.2840326e-01
 -2.3328466e-03
  3.0429173e+00
  1.3341213e+00
  6.5873492e-01
  5.9593135e-01
  1.5216562e-01
  2.0442362e-01
  5.0742966e-01
 -3.6406606e-01
  1.2010766e+00
 -1.2791816e+00
  4.2854431e-01
 -1.9768162e-01
 -4.0314719e-01
 -1.4164889e-01
 -2.5383803e-01
  8.3891702e-01
 -4.7863525e-01
 -1.3953881e-01
 -1.5288603e+00
 -3.6812693e-02
 -9.0181708e-01
  8.9083046e-02
 -3.7138197e-01
  2.5448375e+00
 -7.7440329e-02
  3.1375647e-01
 -5.0124317e-02
  2.3113194e-01
 -4.2158705e-01
  1.9009614e-01
 -3.5861742e-01
 -4.1382623e-01
  6.4028896e-02
  5.0232172e-02
 -4.9061814e-01
  1.5378238e-01
  6.5197802e-01
  5.9277570e-01
 -1.9746256e-01
  2.5456595e-01
  1.8750739e-01
  2.7241245e-01
  2.4563942e-02
  4.7799882e-01
  6.5410726e-02
  1.8509957e-01
  6.6605681e-01
 -1.0004637e+00
  5.9496723e-02
 -4.3410131e-01
  6.8649459e-01
  3.1641494e-02
 -3.8889924e-01
  2.9797122e-01
  6.0186420e-02
  8.4450448e-01
 -4.2922363e-02
 -1.8009149e-01
 -5.3895575e-01
  2.2598824e-01
  1.2861185e-01
 -2.1338606e-01
  6.9150972e-01
  1.0258170e+00
 -8.7187290e-02
  6.0861069e-01
 -3.1436828e-01
 -4.9372548e-01
 -2.7978748e-01
 -1.1544480e+00
 -4.6449324e-01
  7.3339993e-01
  2.3836888e-01
  1.4099054e-01
  4.9485898e-01
 -3.4332970e-01
 -1.2055900e-02
 -7.2832614e-01
 -9.3655980e-01
  1.9025579e-01
  8.3667122e-02
  4.1752648e-01
  2.9346260e-01
  4.4544850e-02
 -1.2445824e-02
  1.6311832e-01
  6.3033424e-02
  8.1675559e-02
  2.7923203e-01
  5.7207662e-01
  6.8043374e-02
  2.7568033e-01
  3.8522100e-01
 -4.7869349e-01
  1.7291922e-02
 -2.0039497e-01
 -1.0655984e-01
 -2.7233076e-01
 -1.1407596e-01
 -7.7423304e-02
  1.0784622e-01
 -5.0554490e-01
 -2.5800234e-01
 -7.5713933e-01
  1.4827159e-02
 -6.3100822e-02
  5.6300473e-01
  4.3229955e-01
  3.2089993e-02
  1.2276370e-01
 -6.1726767e-01
 -1.6724695e-01
 -3.2773626e-01
  9.0646785e-01
  2.2628041e-01
  5.9837675e-01
 -2.1915567e-01
 -1.3267651e-01
 -2.7597541e-01
  3.7043971e-01
  4.6946522e-02
  9.0094835e-01
  8.3371347e-01
  4.3602440e-01
  1.2848120e+00
  5.4010516e-01
 -2.5519609e-01
 -1.1926335e+00
 -1.6591492e-03
 -5.0231421e-01
 -6.4181679e-01
 -6.5290880e-01
 -4.7087035e-01
 -9.7373702e-02
 -2.1415247e-01
  7.9181188e-01
 -1.6088740e+00
 -9.8320223e-02
 -3.7142399e-01
 -3.0620870e-01
 -2.7843547e-01
  7.2175540e-02
 -2.0812251e-01
  1.1339130e-01
  4.2667460e-01
  6.9577701e-02
 -7.1395777e-02
 -5.9203599e-02
  2.5243267e-01
 -2.0461576e-01
 -1.3017470e+00
  1.5405490e-01
 -5.5097878e-01
  1.5257148e+00
  1.5240808e-01
 -2.2597334e-01
  2.7549595e-01
 -4.2215409e-03
  4.6393427e-01
  4.2077947e-02
 -9.6042186e-01
  3.9219910e-01
  5.8092493e-01
  5.1221494e-02
 -1.6666088e-01
  1.9592513e-01
 -1.4638023e-01
 -2.1705411e-01
 -3.3815405e-01
  3.9427444e-01
  1.9998832e-01
  5.5948075e-02
  2.6102200e-01
 -5.7785040e-01
  1.3787799e-01
 -3.8608894e-01
 -5.4160595e-01
 -5.8868092e-01
 -8.9455706e-01
 -3.5714844e-01
 -1.0309691e+00
  1.7149228e+00
  4.4604868e-01
 -2.6702199e+00
  9.3478692e-01
 -2.0876243e+00
 -2.0986338e+00
 -1.0758935e+00
  2.3703818e+00
  2.5650749e+00
 -1.8807828e-01
 -1.2272439e+00
 -1.1280335e+00
 -1.1180758e-01
  7.3609775e-01
 -2.7469015e+00
 -1.6470014e+00
  8.0362177e-01
  3.6563736e-01
 -1.2610044e+00
  6.8083256e-01
  1.3694834e+00
  2.4507737e+00
  1.4058744e+00
 -3.3743641e-01
 -2.7984941e+00
 -9.2282760e-01
  1.2431930e+00
 -5.3674972e-01
 -1.5074692e+00
  6.6468632e-01
 -7.4721289e-01
 -1.8332688e+00
 -6.2857038e-01
  4.3058205e-01
 -1.1601589e+00
  6.3895720e-01
 -3.9185220e-01
 -1.7840472e-01
  3.5155407e-01
 -1.3910531e+00
 -1.7145592e+00
 -2.9267639e-02
  3.3745342e-01
 -7.3613566e-01
 -7.9362094e-01
 -7.9109126e-01
  1.3901227e+00
  2.3111267e+00
 -1.1492023e+00
 -8.3883142e-01
  3.1096237e-02
  5.4574722e-01
  1.0121422e+00
 -1.2130592e+00
 -4.9082201e-02
  4.0257439e-01
  4.5060334e-01
 -4.6980236e-02
  6.4059359e-01
  1.7828329e-01
 -2.1960036e-01
  1.5809101e-01
 -7.2212616e-04
  3.0943400e-01
  2.4049196e-01
  1.9805379e-01
  1.6401037e+00
 -8.3695406e-01
  2.0939931e-01
  3.1243199e-03
 -4.2958376e-01
  3.1558545e+00
 -1.0275482e+00
 -4.7164783e-02
 -2.8022417e-01
  3.8816223e-01
 -5.0923973e-01
  1.0206282e+00
 -1.0584556e-01
  5.0154954e-01
 -1.4251038e-01
 -7.1044278e-01
 -3.4774542e-01
  4.4392124e-01
  1.6882215e-03
 -3.9522929e-04
 -9.4693542e-01
 -2.7629268e-01
 -1.8091717e-01
  1.5338258e-01
 -1.5829773e-01
 -4.3238690e-01
  3.0252597e-01
  4.5075113e-01
 -5.4505128e-01
 -1.2360765e-01
  9.6310079e-02
  1.6530021e-01
 -1.1629441e+00
  1.2688772e-01
  3.4757406e-01
  3.1279293e-01
 -1.1060538e+00
  3.1980556e-01
 -3.5502961e-01
  9.5065340e-02
  6.4244467e-01
  2.0533101e-01
  3.3681732e-01
  9.5209172e-03
  3.3428117e-03
 -2.8942814e-02
 -9.3586557e-02
 -8.3099085e-01
 -9.0416437e-01
  3.4342721e-01
  1.0278985e-01
  2.1999764e-01
  6.1737949e-01
  3.5926476e-01
 -5.8744627e-01
  1.0075529e+00
 -3.0049416e-01
  8.1560367e-01
 -3.5262758e-01
 -3.4496117e-02
 -1.4015649e-01
 -5.6884593e-01
 -1.5703964e-01
 -2.3892589e-01
 -6.9739379e-02
 -2.2903511e-01
  2.8140879e-01
 -5.7267606e-01
 -1.3921953e+00
  2.0925923e-01
  2.4564938e-01
  5.9629220e-01
  4.0379557e-01
 -1.1393619e+00
 -2.0852519e-02
  1.0128394e+00
 -2.1460369e-01
 -7.8734010e-02
 -2.6097525e-02
  3.5728025e-01
  4.6915617e-02
 -2.7415776e-01
 -2.1904846e-01
  3.1305093e-01
 -5.6203794e-01
 -2.9867675e-02
  7.0833594e-01
 -4.3506959e-01
  1.3480228e-01
  3.0597290e-01
 -4.6762723e-01
  1.1238440e+00
  1.7979971e-01
 -5.4121149e-01
 -9.4626240e-02
  6.7295533e-01
 -9.6085347e-02
  5.3645873e-01
  4.1502947e-01
 -7.0655417e-01
  3.1621259e-01
  2.4628425e-01
 -2.9039150e-01
  2.9452497e-02
  6.0417408e-01
  5.3546375e-01
  2.2511290e-01
 -1.3768570e-01
 -1.7363233e-02
  8.2520239e-02
 -1.9643116e-01
 -9.1008139e-01
 -1.2023040e-01
 -5.4298699e-01
 -5.0388998e-01
  1.1236252e-01
 -1.3900983e-01
 -1.3372804e-02
 -1.7819883e-01
  3.4277284e-01
  2.8787777e-01
  6.9988154e-02
 -3.6950529e-01
  7.0704222e-01
 -5.8468882e-02
 -5.8422774e-01
 -1.1816483e-01
  7.8078896e-01
  3.4797382e-02
  4.5238382e-01
 -1.7330764e-01
 -1.4951438e-01
 -9.1212553e-01
 -4.9113303e-02
  5.5410600e-01
  3.7879463e-02
  4.4623157e-01
 -2.2583516e-01
 -5.8503933e-02
  4.7156709e-01
 -1.9049090e-01
  1.3997246e-01
  1.7231752e-01
  6.2053565e-02
  9.8271191e-01
 -6.8029982e-01
  5.3296083e-01
  3.5661852e-01
 -4.9167540e-02
  1.2431405e-01
 -9.1849610e-02
  4.6382853e-01
 -7.4338414e-02
 -1.3408473e+00
 -3.5099459e-01
  1.1933531e+00
 -1.1630796e-01
  3.1221172e-01
  6.6778183e-01
  2.9875499e-01
  1.2362687e-01
  6.8371370e-02
  1.3069919e-01
 -7.3986602e-01
 -1.5301189e-01
 -3.3744240e-01
  7.3450875e-01
  2.4622723e-02
  4.5226520e-01
  1.5198104e-01
  2.5628740e-01
  4.2252466e-01
  1.1184005e-01
 -4.8821405e-01
 -2.8085023e-01
 -1.0598001e-01
 -2.1958317e-01
 -2.6348546e-02
  2.5498250e-01
 -3.6633781e-01
  1.3039424e-01
 -3.0147657e-01
 -1.9349442e-01
 -2.1712586e-02
 -2.8534195e-01
  7.0666474e-01
 -4.1059473e-01
 -7.5843072e-01
 -7.9151131e-02
  3.9215869e-01
 -4.0829056e-03
 -3.3486107e-01
 -1.8408601e-01
  5.1425904e-02
 -1.3895030e-02
 -9.3163274e-02
  4.8040888e-01
 -2.1588925e-01
  8.2367510e-01
  8.0944352e-02
 -1.9039198e+00
 -1.6776571e+00
 -2.4270591e-01
 -3.5629678e-01
  5.4842663e-01
  2.4351205e-01
 -1.6625321e-01
 -6.9569850e-01
  4.9798197e-01
  5.7949239e-01
  3.9033215e+00
  4.6935934e-01
  1.0828695e-01
 -7.5019620e-02
 -3.4109119e-01
  4.2369106e-01
 -3.3336878e-02
  2.0367205e-01
  1.6388649e-01
 -3.0226915e+00
  3.3331919e-01
  6.4563239e-01
  4.3631777e-01
 -3.6907458e-01
 -4.1810948e-01
 -9.2255723e-01
  1.3941025e+00
  9.9464637e-01
  5.4299229e-01
 -1.1773204e-01
  2.2017562e+00
  2.3459721e-01
  7.5838935e-01
 -4.5994899e-01
  8.9752448e-01
  1.5104467e-01
  2.7286661e-01
 -6.2705851e-01
 -2.8333330e-01
 -6.8656489e-02
  5.4058343e-01
 -2.2913919e-01
  1.5512072e-01
  1.8277188e-01
  1.3281755e-01
  1.8030602e-01
 -4.2710814e-01
 -1.6608378e-01
  1.5382200e-01
 -1.8850387e+00
  5.0039750e-02
 -5.1170498e-01
 -9.8582700e-02
  3.3426005e-01
  1.1568474e+00
  2.8394163e-01
  1.2030363e+00
 -1.1394907e-02
 -3.1765163e-01
 -3.2233334e-01
 -2.2551867e-01
  8.4107053e-01
  1.0487883e-01
  9.1534394e-01
 -3.0630767e-02
  1.4286770e+00
 -2.1354506e-02
  2.9175198e-01
  6.9054747e-01
  2.3275129e-01
  6.6631413e-01
  2.8536959e-02
 -1.8472272e-01
 -6.0482837e-02
  5.2754313e-02
 -1.1388749e+00
 -1.6766572e-01
  3.0177104e-01
  8.4313601e-01
  4.3001053e-01
 -1.6896294e-02
 -4.0327051e-01
  2.7230364e-01
 -1.8231612e-02
  1.0508166e-01
 -1.0959160e-01
 -2.7885002e-01
 -3.7670944e-02
  1.0983939e-01
  3.0849323e-01
  1.4848484e-01
 -2.4234682e-01
  6.9721401e-01
 -5.7624903e-02
 -1.3029099e-01
  3.1428769e-01
  3.8974386e-02
 -1.5589571e+00
 -2.9179612e-01
 -1.9430906e-02
 -3.7207136e-01
  5.7866156e-01
  1.2493913e-02
 -3.9196607e-01
 -8.6293918e-01
  1.5889007e-01
  4.4302729e-01
 -1.6871798e-01
 -1.2505244e+00
  1.9879107e-01
 -7.2035873e-01
 -5.0268799e-02
  4.0234348e-01
 -4.5778674e-01
 -4.0418816e-01
  4.5717284e-01
 -1.5385036e-02
  9.8901820e-01
 -7.9733692e-02
  7.3603630e-01
  4.9809866e-02
 -4.8387003e-01
  8.3249444e-01
 -7.5606537e-01
 -8.6801338e-01
 -2.6542343e-02
  4.8990652e-02
 -2.7639502e-01
 -7.1834642e-01
 -1.5201031e-01
  3.4562744e-02
  3.5076788e-01
 -2.0817116e-01
 -2.5773907e-02
  5.0568897e-01
  1.8227179e-01
 -4.3284464e-01
 -1.9638503e-01
 -2.4236166e-01
  1.1985326e-01
 -1.0199676e-01
  2.0442754e-01
 -1.1437531e+00
  6.0541187e-03
 -6.1106443e-01
  8.6132355e-02
  3.5458114e-02
  2.5218532e+00
 -3.3100003e-01
 -2.5249366e-02
  6.8779534e-01
 -5.6374651e-01
 -2.2832143e-01
 -2.0611286e-01
 -7.5283998e-01
 -4.4722497e-01
  2.7965233e-02
  1.1728819e-01
  1.4105549e-01
  1.7441909e-01
 -9.7186744e-01
  3.5377692e-02
 -2.9089779e-01
  5.2637845e-02
  1.2195085e+00
 -6.8280816e-02
 -4.6107414e-01
  3.4743551e-02
  5.1866561e-01
 -1.5135996e-01
  1.0987289e+00
  1.8737486e-01
  6.7412156e-01
 -2.2529866e-01
 -2.4969877e-01
 -2.1435194e-01
 -3.2028642e-01
 -3.4044614e-01
 -5.1595730e-01
  3.6712542e-01
 -7.9776758e-01
  2.8946993e-01
 -7.8276947e-02
  8.2811999e-01
 -3.9884880e-01
 -1.9531286e-01
 -1.0668209e-01
 -5.0669456e-01
 -2.7777681e-01
  4.1174665e-01
 -6.6697650e-02
 -3.7633669e-01
  2.4513946e-01
  5.1484108e-01
 -2.6893270e-01
  1.1468352e-01
  3.8457325e-01
 -3.4914029e-01
  3.6963683e-02
 -1.2188411e+00
  1.1404885e+00
  5.2094483e-01
  6.1622065e-01
  2.2661488e-01
 -1.0136008e-01
  5.6456214e-01
  3.0025727e-01
 -1.4951694e-02
  4.6939425e-02
 -7.7734955e-02
 -1.7832993e-01
 -3.2856017e-01
 -3.0245823e-01
 -8.4359311e-02
 -3.7166037e-02
 -3.6367139e-01
  1.0071617e+00
  2.6026341e-01
  1.7933093e-01
 -4.9306184e-01
  4.5630887e-02
 -2.0078700e-02
  3.2715839e-01
  2.0199759e-01
 -1.0739698e-01
  7.4540339e-02
  2.6167756e-01
 -1.6138630e-01
  1.5626839e-01
  1.3676524e+00
 -2.3933892e-01
  6.8191499e-01
  9.5051050e-02
 -3.5287923e-01
 -1.7515936e-01
  5.0736457e-01
  8.9821585e-02
 -2.9665571e-01
 -1.0542419e-02
  2.4295405e-01
 -1.7073466e-01
 -7.1804486e-02
 -2.4000017e-01
  2.2493853e-01
  6.3659780e-02
 -2.9489028e+00
 -1.4348128e+00
  8.4304023e-01
  3.7626471e-02
  1.2504816e+00
 -4.8345974e-01
  4.4092619e-01
  4.1870706e-02
 -3.4973606e-02
  1.3462375e-01
 -1.6321889e-01
  4.2772818e-02
 -2.0551206e-01
 -4.3722105e-01
  2.9445675e-01
  3.6482021e-01
  1.8588857e-01
  4.0214917e-01
 -4.4845241e-01
  1.0621458e-01
  9.0511680e-02
 -3.4699297e-01
 -4.6491650e-01
 -9.9543191e-02
 -4.5581393e-02
  6.1643678e-01
  1.1974224e-02
  7.2711315e-03
  7.1391428e-01
  3.0679300e-02
  1.2133051e-01
 -2.8189644e-01
 -2.5984993e-02
  5.8055741e-01
 -9.2899211e-02
 -7.3165677e-02
 -2.5736210e-01
 -1.1064626e+00
  5.0326818e-01
  6.6886133e-01
 -2.2668648e-01
  7.3537791e-01
 -6.4544433e-01
  8.5922837e-01
  5.7205550e-02
 -9.3420672e-01
  1.2016602e-01
 -3.7840697e-01
  7.2221443e-02
  2.1860264e-02
 -9.5236528e-01
  1.6667880e-01
 -5.6098688e-01
 -4.2518967e-01
  1.5474422e-02
 -2.0687614e-01
 -2.3317535e-01
  6.5544075e-01
  3.8201004e-02
 -1.0069862e-01
  3.8897723e-01
  4.0273315e-01
 -6.7151284e-01
  1.6560039e-01
  3.2291958e-01
 -3.3331600e-01
 -8.6474828e-02
  3.4483966e-01
 -1.0582081e+00
 -4.1948014e-01
 -1.9558245e-01
  2.7240237e-02
 -3.1176615e-01
  6.0916871e-02
  4.0955529e-01
 -9.4294387e-01
 -2.7217787e-02
 -4.8283070e-01
  3.1653583e-01
  5.5721015e-01
 -1.2369429e-01
  1.4543909e-02
  5.7431448e-01
 -1.1555714e-01
 -3.7546435e-01
 -8.4593808e-03
 -9.2241801e-02
 -2.5538519e-01
 -2.4547724e-01
  1.0343316e-01
 -7.5925767e-01
  2.0616530e-01
 -1.5556429e-01
  4.6801651e-01
 -9.8293155e-02
  5.2256775e-01
  1.3017151e-01
 -5.1936877e-01
  5.4196370e-01
  1.2171038e-01
  1.3109572e-01
 -6.3961208e-01
 -9.2666566e-01
  3.8553607e-01
  1.0503477e-01
  7.8466102e-02
  2.1495377e-01
  8.2456339e-03
 -4.0686730e-01
 -8.6456295e-03
 -6.7678797e-01
  4.6304646e-01
  7.9494566e-01
  6.4488488e-01
  4.5322734e-01
  3.0929884e-01
 -1.4115746e+00
  9.2188418e-02
  5.8507752e-02
 -5.6403565e-01
 -4.4701964e-02
 -1.1362425e-01
  6.8904310e-02
  2.4498257e-01
 -7.8100860e-01
 -3.8457346e-01
  2.2194415e-01
  2.6934671e-01
  5.4840440e-01
 -3.7797284e-01
  2.8668138e-01
  3.1684247e-01
  5.2491659e-01
 -1.8968102e-01
 -5.4188573e-01
  9.0387595e-01
 -1.0544136e+00
  6.6127934e-02
  6.4936829e-01
  3.8971710e-01
  4.2461255e-01
 -2.4936078e-01
  1.2514313e-01
 -3.3373281e-01
 -3.1149605e-01
 -2.5152698e-01
  1.7276275e-01
 -2.9036107e-02
  1.2552546e-01
  9.1466270e-02
 -4.1218270e-02
 -1.2299990e-01
 -8.7539941e-02
  3.2586733e-01
  2.2461110e-01
 -4.0604517e-01
  5.1507699e-01
 -6.4088893e-01
  1.0620658e-01
 -3.3905283e-01
  1.9429725e-01
 -3.0941814e-01
 -1.9445637e-01
  2.4550576e-03
  2.1335714e-01
 -2.8014028e-01
 -7.2205949e-01
  4.9421743e-01
  2.5352675e-01
  5.5050217e-02
  1.0876080e+00
  2.3944588e-01
  3.1811476e-01
  6.3196760e-01
 -9.0507329e-02
  1.6889943e-01
  1.5511125e+00
  1.3190871e-01
  3.0285496e-01
  6.7622733e-01
  1.7742385e+00
 -7.0878005e-01
  6.5956026e-02
 -3.2595441e-01
  1.4928705e-01
  2.5836372e-01
  1.0654720e-01
  5.0264949e-01
  2.3002550e-01
  1.8438733e-01
  3.1057420e-01
  1.5138780e-01
 -1.1028242e-01
  6.6536534e-01
 -2.0196077e-01
  3.2753967e-02
 -3.4399933e-01
  4.4203684e-02
 -3.6664903e-01
 -4.5067546e-01
 -3.0901325e-01
 -4.0813389e-01
  2.3148252e-01
 -7.8406163e-02
 -2.8091407e-01
  5.7548285e-01
  5.4956359e-01
  1.0857737e+00
 -1.6723539e-01
  1.8656802e-01
  3.5989577e-01
 -2.2135520e-02
 -1.0216658e+00
  2.0667414e-01
  2.6232764e-01
  1.7686656e-01
 -7.7900380e-01
 -2.5741965e-01
  1.2782054e-01
 -2.9543892e-01
 -2.5629303e-01
  4.8211053e-01
  4.6253827e-01
  7.9412407e-01
  2.4055453e-01
  6.1384296e-01
  2.1678926e-02
  6.7536861e-01
  8.8650221e-01
  1.5786985e-01
 -7.4754447e-02
 -6.5519947e-01
  1.1796600e-03
  4.0432951e-01
  5.4329133e-01
  3.2168406e-01
 -4.8289102e-01
 -2.1043560e-01
 -1.3009323e-01
  3.1639138e-01
 -1.4780976e-01
 -2.7784842e-01
  1.8064162e-01
 -9.0307981e-01
  6.6119790e-01
  3.9466006e-01
  3.7840139e-02
 -1.1738326e-01
  1.4079876e-02
  2.6451316e-02
 -1.2424684e+00
 -1.1928309e-01
 -2.8764442e-01
  2.8980446e-01
 -6.5783799e-01
  1.7389543e-01
  1.5787262e-01
 -2.4693619e-02
 -8.9430898e-01
  2.4885707e-01
  1.8002566e-02
 -8.6996078e-01
  4.2522937e-02
 -2.3414855e-01
  2.9620773e-01
  1.9452117e-02
  3.8811572e-02
 -7.8628045e-01
  2.0020202e-01
  4.5480374e-01
 -7.1042281e-01
  2.3641758e-02
  3.4480486e-02
  4.1058013e-01
  4.4014430e-01
  3.7828229e-02
 -2.3713842e-01
 -4.2043713e-01
 -4.7004044e-02
  3.9496329e-01
 -2.7230710e-01
 -5.6280541e-01
  1.0386459e+00
 -2.3471744e-01
 -5.8911973e-01
  6.1722934e-01
  7.5707901e-01
 -5.2719158e-01
 -2.2818358e-01
 -7.5515807e-02
  6.0736847e-01
 -1.6892232e-02
 -5.2103645e-01
  1.5187016e-01
 -1.1933759e-02
  3.0595031e-01
  1.9393902e-01
 -1.8733020e-01
 -5.8893796e-02
 -3.6658663e-01
 -3.3120561e-01
 -4.1883722e-01
  2.1791209e-01
 -2.0302780e-02
  5.2335787e-01
  1.4932954e-01
 -1.0761646e+00
 -1.3860847e+00
 -6.8670768e-01
  8.7282844e-02
  1.2399622e+00
  1.2129227e-01
 -2.1423285e-01
 -2.2136077e-01
  1.2224758e+00
 -6.4615417e-01
 -2.6523063e-01
 -3.8113147e-03
  2.4925318e-01
  1.0393269e+00
 -8.7270960e-02
  2.0588456e-01
  7.2682649e-01
  2.4951217e-01
 -8.2320511e-02
 -2.1567933e-01
  4.8424840e-01
 -9.1836685e-03
 -7.2252876e-01
 -1.7046778e-01
  4.6224201e-01
 -1.1157446e-01
 -4.0531215e-01
 -2.6631275e-01
  8.1036764e-01
 -4.7811091e-01
 -4.3512294e-01
  4.7732660e-01
  1.2993833e-01
 -1.4421269e-01
 -3.1283431e-02
 -4.2707455e-01
  6.2947404e-01
  2.1918638e-01
 -2.4273822e-01
 -1.9828096e-01
  2.2127499e-01
 -2.5548872e-01
  2.3493262e-01
 -3.4921396e-01
  6.5141305e-02
  1.6092519e-01
  2.5639564e-01
  2.4371833e-01
  1.2243652e-01
  9.2247200e-01
 -2.0559059e-01
 -6.8670385e-02
  4.2938435e-01
 -6.1674488e-01
 -5.5043068e-02
 -3.0061170e-01
  3.6420596e-01
 -1.9141312e+00
 -3.3879872e-02
 -2.4563704e+00
  2.9647179e-02
  4.5861331e-01
  2.8936887e-01
 -5.3283786e-03
  7.6638564e-02
 -1.3541900e-01
  1.2651931e-01
  5.3697175e-01
  2.5024715e-01
 -2.4130428e-01
 -1.6612779e-01
  1.1971276e-01
 -3.2355029e-02
 -2.4154733e-01
  1.1216595e+00
 -9.7909488e-02
  5.0931698e-01
 -1.9112626e-02
 -1.0807111e-01
  1.8735030e-01
 -4.6547243e-01
  4.3063408e-01
 -1.8387204e-01
 -2.5828868e-01
 -1.2296538e+00
  5.3930926e-01
  4.8544988e-01
 -1.1224805e-01
 -2.5187808e-01
  5.7826817e-01
  3.3666188e-01
 -4.0878290e-01
 -2.8211924e-01
  5.0808120e-01
 -3.4128860e-01
  8.2259132e-03
 -1.9921178e-01
 -9.6475881e-01
 -2.4978528e-02
  2.6147202e-01
 -1.0733072e-01
 -3.6070433e-01
 -3.1709290e-01
  6.4524673e-02
  4.9265340e-02
 -1.4710671e-01
  7.9020697e-01
 -6.6719018e-03
  2.4062848e-01
 -6.0467255e-01
 -1.1509722e+00
 -4.1358405e-01
 -4.5278752e-01
 -3.0549186e-01
 -8.5673696e-01
  3.5903865e-01
 -1.1153562e-01
  1.4095743e-01
  3.1161946e-01
 -4.0694425e-01
  8.8407105e-01
  3.4922537e-01
 -4.5733732e-01
 -1.4958110e-01
 -8.0401134e-01
  3.7324804e-01
  2.7704182e-01
  9.3622798e-01
 -6.3934839e-01
  3.3179503e-02
  3.9641148e-01
 -3.9274248e-01
 -1.1326979e+00
 -4.1584801e-02
 -4.5940506e-01
  3.9448535e-01
  9.1021746e-01
  3.9034885e-01
  5.8365208e-01
  6.7619276e-01
  3.3906141e-01
  1.7815042e-01
  2.7834365e-01
  4.8909351e-01
  2.4815001e-01
  4.3224865e-03
 -1.0877951e-01
 -4.9561226e-01
  6.3133943e-01
  3.5505730e-01
 -7.0286387e-01
 -4.9301934e-01
  5.3131394e-04
  5.6731200e-01
  3.0816886e-01
  6.7242253e-01
  4.9480626e-01
  8.8197827e-02
 -3.7683281e-01
 -3.8166848e-01
 -1.4485561e+00
  1.6139509e-01
 -3.3361831e-01
 -5.7369743e-02
 -6.7429864e-01
  2.2522055e-01
 -7.2187752e-01
  3.6716950e-01
 -1.1456912e-01
 -2.6472613e-01
  7.0029169e-01
 -2.4684677e-01
  1.2236498e-01
 -8.6727284e-02
  1.4425901e-01
  2.6096544e-01
  7.7260894e-01
 -8.3923876e-02
 -7.8057379e-01
 -5.2204263e-01
 -1.8270691e-01
 -2.5556043e-01
  3.5811536e-02
  6.2220323e-01
  9.6769804e-01
 -6.4092889e-02
 -2.6455393e-01
 -1.9080952e-01
 -6.8768010e-02
  2.0095457e-01
  1.0256356e+00
 -9.8901778e-02
  2.0032950e-01
 -2.4279177e-02
  1.1304953e-01
 -6.1790848e-01
  7.2568858e-01
 -2.9011658e-01
  2.2619842e-01
 -3.8514245e-01
  6.2966686e-01
 -4.5553356e-01
 -5.0540197e-01
 -4.6997216e-01
  8.0270714e-01
 -3.4859341e-02
  1.9701342e-01
  3.3559996e-01
 -1.4221601e-01
 -8.4471399e-01
 -4.2058565e-02
 -6.7796385e-01
  4.5521471e-01
 -2.1449119e-01
 -1.6257912e+00
  3.0637723e-01
 -2.5206599e-01
  1.6042618e-01
  2.2283232e-01
 -3.8128560e-03
 -1.2318213e+00
  3.5673064e-01
  7.2201020e-01
  3.6155075e-01
 -3.1970951e-01
 -1.1298307e-01
  3.3312592e-01
 -7.0725006e-01
  9.0192370e-02
  3.1220326e-01
 -7.7223472e-02
 -1.3308470e-01
 -3.2746416e-01
 -5.6817746e-01
  2.8938638e-02
  2.1793082e-01
 -5.0343001e-01
 -8.3407357e-02
  9.4642776e-01
  2.4543613e-01
 -2.5323325e-01
  1.7540812e-01
 -4.7505295e-01
 -3.9682403e-01
 -2.1897188e-01
  3.7178054e-02
  7.3152846e-01
 -5.8551276e-01
 -3.4069386e-01
  3.3495066e-01
  1.0358658e+00
 -6.9066399e-01
 -4.3234605e-01
  1.3917147e-01
  2.5757716e+00
 -8.2996541e-01
  1.5632743e-01
  5.0355303e-01
 -5.7230297e-02
 -4.7856811e-01
 -4.3094268e-01
 -8.6265582e-01
 -3.4944063e-01
  7.9804528e-01
  1.6318353e-01
  7.9539403e-02
  1.5090056e-01
 -5.4637086e-01
  1.8598144e+00
  4.6178770e-01
 -1.5869218e-01
  1.8689521e-01
 -2.9449785e-01
  5.6124473e-01
  3.1404412e-01
  1.2326927e-01
 -1.0939240e-01
  7.2698605e-01
  8.3584744e-01
 -1.0874560e+00
 -1.6293418e-01
 -1.3158572e-01
 -4.5253418e-02
 -6.2051201e-01
 -1.9186457e+00
  6.2695152e-01
  5.5869520e-02
  5.7767991e-02
  1.7219752e-01
 -6.7231619e-01
  1.0701713e-02
  4.0821785e-01
 -1.0241622e-01
  2.6024339e-01
  6.7010969e-02
  1.2213597e+00
  2.7240142e-01
  2.9525164e-01
  1.1455026e-02
  5.3867023e-02
 -3.5537148e-01
 -2.1141255e-02
 -5.2747097e-02
 -4.8542179e-02
 -6.2142152e-02
 -1.6145508e-01
 -1.0360741e-01
  4.7521764e-01
  9.9420883e-02
  3.4131169e-01
 -7.7252048e-01
 -1.9886800e+00
 -2.8565821e-01
  2.2214843e-01
 -5.6274998e-01
 -3.8557932e-01
  3.3211979e-01
  6.3144445e-02
 -2.6205766e-01
  9.3822873e-01
  1.4520785e-01
  2.1235147e-02
  1.3364714e-01
 -1.9513549e+00
  3.3177126e-02
 -2.8806755e-01
 -3.1882775e-01
  2.5139275e-01
  3.0224073e-01
  6.9188559e-01
 -1.3621262e-01
  4.5367837e-02
  1.8849795e-01
  1.7021993e-01
  3.0265957e-02
 -1.6119982e-01
  2.3390909e-01
  1.8714681e-01
 -2.0507309e-01
 -2.1869448e-01
 -5.5959076e-01
  2.9369661e-01
 -7.8129321e-03
 -3.2989627e-01
 -4.7080282e-02
  1.5626030e-01
 -1.4584023e-01
 -7.4701428e-02
 -7.7088213e-01
 -3.0783759e-02
 -1.3984171e-01
  3.1346664e-01
 -6.2199786e-02
 -3.2916352e-01
 -2.5299957e-01
 -1.1036406e-01
 -5.7654524e-01
  2.5758931e-01
  2.8061253e-01
 -2.1275006e-01
  4.7951621e-01
  4.3309787e-01
  2.0781729e-01
  4.4541162e-02
 -2.7777991e-01
 -1.2810777e-01
  1.1093213e-01
 -3.6161759e-01
  4.5934424e-01
 -2.4381001e-01
  2.2634314e-01
 -1.9265424e+00
 -8.8418700e-02
 -1.2425447e-01
 -3.3190089e-01
  1.0107968e+00
 -7.6867449e-01
 -2.7589992e-01
  9.5423304e-02
 -4.9653713e-02
 -3.2246542e-01
 -1.2169422e+00
  2.0337559e-02
 -1.8977587e-01
 -1.2285179e-01
  1.2154800e-01
 -2.4060315e-01
  6.3461566e-01
  3.5610682e-01
  1.2616943e+00
  1.0356903e+00
  4.9164245e-01
 -3.4755129e-01
 -1.2866144e+00
  1.8187349e+00
 -2.9222034e-02
 -4.3081555e-01
 -3.7366283e-01
 -4.5306641e-01
  6.0770267e-01
  5.2108532e-01
 -4.3113902e-01
 -1.9466153e-01
  4.0985370e-01
  3.5314250e-01
  1.5300548e-01
 -1.1216813e+00
  2.2280605e-01
  6.5841264e-01
  2.9981464e-01
 -7.4701183e-02
 -1.4977272e-01
  1.5310122e-01
  4.9447915e-01
  6.9113904e-01
  1.3628083e-01
  9.6330300e-02
  8.1845224e-02
 -4.9989499e-02
 -3.6524057e-01
  2.4646871e-01
 -1.1412591e-02
  9.8781294e-01
  6.2555432e-02
  2.7100129e-02
 -6.1013693e-01
 -4.7532175e-02
 -1.9720314e-01
 -3.9576945e-01
  3.7689579e-01
 -7.8714900e-02
 -5.1849514e-01
  7.4401975e-01
 -1.5396528e-01
 -6.0387161e-02
  7.1208394e-01
  1.4965090e-01
 -8.7488431e-01
  3.0728480e-01
 -2.2473405e-01
  3.2432464e-01
  9.4666034e-03
  5.6901139e-01
 -3.4879050e-01
  3.4906939e-02
 -5.6426030e-01
  5.4847848e-01
  8.0312043e-02
  2.2025685e-01
 -2.1552706e+00
 -1.8241714e-01
 -2.7933309e-02
 -1.6074844e-01
 -2.5524618e-02
  2.2189359e-01
  1.7435978e-01
 -6.7564309e-02
 -8.0622542e-01
 -7.4023575e-02
  3.2623824e-01
 -1.0400116e+00
 -6.4048564e-01
  2.0133212e-01
 -1.6305055e-01
 -4.4521281e-01
  1.1773973e+00
  6.9612175e-01
 -2.3179124e-01
  7.2911847e-01
 -4.6026808e-01
 -1.3324770e-01
  6.7866182e-01
  7.9430175e-01
 -3.6806965e-01
  9.8229760e-01
  8.2728148e-01
  7.7943015e-01
 -2.8873034e+00
 -2.1440213e+00
 -3.3046652e-02
 -6.7235303e-01
  8.3227909e-01
  6.4411461e-01
 -1.2632833e-01
  5.3292459e-01
  1.3639263e+00
  8.8879842e-01
 -2.7639266e-02
  6.8273056e-01
  1.7385398e-01
 -1.4194964e+00
 -3.5057545e+00
  4.0546465e-01
 -1.0195850e+00
 -3.0998313e+00
 -1.2903290e+00
  2.0552404e+00
  7.9966360e-01
 -8.8628697e-01
  3.5680449e-01
  6.2900883e-01
 -2.5421551e-01
  2.8480843e-01
  2.4808514e+00
  9.9651188e-01
 -5.3744966e-01
 -2.4713966e-01
 -1.2747014e-01
 -3.3405733e-01
  3.9178738e-01
  2.2608978e-01
  6.7740554e-01
  1.1564901e+00
 -9.5994331e-02
 -1.4903333e+00
  9.4195426e-01
  9.3517709e-01
 -1.2355928e+00
  2.6188245e-01
  1.7704817e+00
 -1.9972077e-01
  5.4153901e-01
 -6.5884608e-01
 -5.9346962e-01
 -4.5929406e-02
  3.4704524e-01
  1.2914306e-01
  2.5628006e+00
  1.0824744e+00
 -1.6460769e-02
  1.3939603e-01
 -3.3480185e-01
 -6.0974587e-02
  1.7738350e-01
 -4.3440077e-01
 -5.9274954e-01
  9.7342974e-01
  5.9960312e-01
 -1.8528618e-01
 -1.2662812e-01
 -5.5649608e-01
 -1.0045358e+00
 -2.6699036e-01
 -1.2877995e-01
  1.9590491e-01
 -1.1908033e-01
 -6.5697014e-01
 -2.4750331e-02
  2.4783617e-01
  4.2714939e-01
 -1.1873049e-01
 -3.2278213e-01
  1.5981618e-01
  9.7721808e-02
  2.3019673e-01
 -2.8805751e-01
  3.0264411e+00
  1.4854521e-01
 -1.5832258e+00
  3.5701326e-01
  3.9920110e-02
 -1.4275136e-02
  3.8992217e-01
 -5.2264971e-01
 -4.0532032e-01
  9.9995635e-02
 -5.9885812e-01
 -3.2335475e-01
 -3.0084299e-02
 -5.2050408e-02
 -5.4413623e-01
  6.2098688e-01
  1.2169799e-01
  5.6361700e-03
  1.6523118e-01
  1.6891022e-01
 -3.8523144e-01
  6.3249898e-01
 -1.0817776e-01
  1.8703692e-01
  1.6602266e-01
  8.2139403e-01
  2.5439683e-01
  4.0357903e-01
  6.3081756e-02
 -4.3717638e-01
 -1.8635628e-01
 -4.6112347e-01
 -6.1471230e-01
 -1.5834905e-01
 -1.7335291e-01
  2.8961739e-01
  4.0631283e-02
  3.2124302e+00
  1.1440845e-01
 -1.4134528e-01
  5.5739588e-01
  3.3014694e-01
 -7.6601994e-01
  1.1101861e-01
  7.0157661e-03
 -6.7992407e-01
 -3.7858200e-01
 -1.1253843e-01
 -1.9366559e-01
  1.4209934e-01
  4.0939736e-01
  7.3241836e-01
 -3.4520110e-01
  5.7067811e-01
 -5.8698970e-01
 -2.3601507e-01
 -1.4193131e+00
 -4.4367445e-01
  2.0888798e-01
  3.8753173e-01
  2.5046635e-01
  8.4432346e-01
  9.4230503e-01
  1.5192717e+00
  9.6645094e-02
 -5.2895185e-02
  2.5974581e-02
  1.3235299e-01
 -1.6728359e-01
 -2.0340611e-01
  1.4939364e-02
  2.0945939e-01
 -9.1550338e-01
  2.2672178e-01
 -2.1206073e-01
 -2.5644153e-02
  8.2468057e-01
  6.1997408e-01
 -6.0063559e-01
  1.4002801e+00
  3.8687259e-01
  7.0606828e-02
  2.8513196e-01
  3.0441281e-01
 -4.0526548e-01
 -3.2580951e-01
  2.3490900e-01
  2.9423642e-01
  8.5991436e-01
 -1.2534763e-01
 -9.7541191e-02
 -4.3638834e-01
 -5.2439481e-01
 -1.1102358e-01
  7.9198433e-03
 -2.7514172e-01
 -4.6499419e-01
 -1.4628805e-01
 -4.0028489e-01
  9.9448812e-01
  2.2084062e-01
 -6.1013180e-01
  1.8892080e-02
  2.8639730e-02
  2.9109150e-01
 -1.6114411e-01
  1.7373244e-01
 -8.1579369e-01
  7.8605628e-01
  7.8391701e-02
  3.3076515e+00
  6.5839088e-01
  7.1725154e-01
 -3.6538232e-02
  9.5954102e-01
 -2.9240785e+00
  7.2005659e-01
  5.7836187e-01
  3.5821594e-02
 -2.3644882e-01
 -1.9693397e-01
  1.5175687e+00
 -4.1540089e+00
  1.9219140e+00
  6.8978512e-01
 -3.4566808e-01
  2.5519821e-01
  8.4126067e-01
 -4.1040792e+00
  8.5507613e-01
  3.0501208e-01
  1.5427004e-01
 -2.9328840e-02
 -2.9448600e-04
 -7.3300219e-01
 -4.9105115e+00
  1.5884418e+00
 -1.0859134e+00
  3.1521842e-01
  5.2795535e-01
  1.3314691e-01
 -1.4900368e+00
 -5.1984030e-01
 -7.4187952e-01
 -4.8951787e-01
 -9.3339443e-01
 -1.9207232e+00
  1.2628399e-01
 -1.2931253e-01
  9.7494066e-01
  2.0284380e-01
 -1.6737229e+00
  2.3420650e-01
 -1.6452503e+00
  1.3928029e-01
 -2.3256184e-03
 -6.3147146e-01
  1.3894777e-01
  1.0779824e+00
  2.5269765e-01
 -2.0906012e-01
  7.8483754e-01
 -3.9468172e-01
 -4.7924325e-01
  3.0610994e-01
 -6.4328998e-01
  1.0612262e+00
 -1.9072520e-02
 -2.3186658e-01
 -5.0089294e-01
  4.0461305e-01
 -4.6978655e-01
 -6.6604324e-02
  5.2015936e-01
  3.8729172e-02
  6.5707073e-02
 -2.3835297e-01
 -1.1848480e-01
  4.5485836e-01
 -5.2240461e-01
  6.1955905e-01
  2.9871055e-01
 -4.3596587e+00
 -4.1528897e+00
 -4.8020214e-01
  2.2134066e+00
 -3.2130164e-01
  6.2429422e-01
 -1.6236715e-01
 -5.5694962e-01
  7.0782804e-01
 -3.1264219e-01
  8.6155504e-01
  1.8025436e-01
 -7.5800127e-01
 -8.7760949e-01
 -2.8283909e-01
 -3.9435121e-01
  1.4930990e+00
  2.7165943e-01
  2.6656586e-01
  1.0843737e-01
  3.1211919e-03
 -1.6387866e-01
 -4.5004439e-01
 -4.2714328e-02
 -1.7877504e-01
 -4.5773646e-01
 -6.2162983e-01
 -2.6285103e-01
  3.1826997e-01
 -5.0889910e-03
  5.8277285e-01
 -2.7764130e-01
  8.6497277e-01
 -3.9213637e-01
 -4.5636049e-01
 -1.9636312e+00
 -2.0811990e-01
 -2.7603883e-02
  1.0378787e-01
 -5.7362407e-01
  4.6776626e-02
 -9.5638013e-01
  3.8004252e-01
  3.0072749e-01
  9.8713404e-03
 -3.7016667e-02
 -1.6312213e-01
  2.5383044e-02
  2.3649891e-01
 -4.3004027e-01
  3.9741921e-01
 -9.7842830e-01
  1.2247326e+00
  7.6838189e-01
 -6.1192381e-01
 -1.2467184e-01
  4.5556843e-01
  2.6847866e-01
  2.9529446e-01
 -9.5661186e-02
 -2.8916457e-01
 -3.1860769e-02
 -1.0751503e+00
  1.0346255e-02
  1.1944231e+00
 -8.5651940e-01
 -5.2943015e-01
  3.8630223e-01
 -3.4117091e-01
 -8.0135927e-02
 -8.5633624e-01
  3.8824342e-02
  1.2067062e-01
  3.2685429e-01
 -2.1877596e-01
  2.6758832e-01
 -4.1619811e-02
  1.9397883e-01
 -7.0279562e-01
  3.1895128e-01
  1.3351142e+00
  4.9774073e-02
  1.6662808e-01
 -3.3723253e-01
  1.5049804e+00
 -1.5023398e+00
 -1.5112635e-01
  7.1741241e-01
  4.3622073e-02
  5.4867971e-01
 -9.2953050e-01
 -9.4952546e-02
 -2.2762112e-01
 -3.9629987e-01
  1.5723328e-01
  2.4447921e-01
 -2.7291352e-01
  1.8280530e-01
 -3.8883597e-02
  5.1572007e-01
 -1.5492022e-01
 -2.8286580e-02
  3.9117724e-01
  3.7152854e-01
  2.6686651e-01
  3.6991405e-01
  3.7162131e-01
 -1.5706167e-01
 -2.9096365e-01
  1.6277012e+00
 -1.2050758e-01
 -7.4463449e-02
  5.3132498e-01
  1.9005924e-01
  3.3754975e-02
  3.8224533e-03
  4.0275607e-01
 -2.5156039e-01
  7.5699097e-01
  5.9129905e-02
 -1.2556847e-02
 -4.6866968e-01
  1.1450728e-01
 -3.8697505e-01
 -5.0439823e-01
  3.7843920e-02
  1.2452811e-02
  2.5927387e-02
  7.9939872e-01
  1.2969867e+00
 -1.0144161e-02
 -7.4509555e-01
  1.1013938e+00
 -4.6318477e-01
  2.4771582e-01
 -2.3418961e-01
  4.9255091e-01
  1.8798331e-02
  5.4623890e-01
 -5.4827411e-02
 -9.2839457e-02
 -5.8944643e-01
  5.3449023e-01
  2.0258318e-01
 -1.4833191e-01
 -1.9189690e-01
  3.4288608e-02
 -8.1923121e-04
  2.3480234e-01
 -3.5023755e-01
 -1.3995735e-01
 -1.8250115e-01
  8.8239568e-01
 -3.0484310e-01
 -2.3851636e-01
 -2.3121127e-01
 -4.0298864e-01
 -2.3645194e-01
 -1.0059322e-01
 -6.6019160e-01
 -4.9124401e-02
 -6.4753480e-02
  2.7828765e-01
  3.9007887e-01
 -1.3509490e+00
  2.3397377e-01
 -1.5001358e-02
 -2.6106339e-02
 -2.7247924e-01
  9.4323017e-02
 -8.1786019e-01
 -4.2805120e-02
 -2.0127590e+00
 -3.0119580e-01
  2.8303671e-01
  2.3564968e-02
 -2.2661732e-01
  1.3003708e-01
  1.4372762e-01
  5.2181119e-01
 -2.7867872e-01
 -4.3639848e-03
  2.0642175e-01
  6.8043806e-02
  2.6695775e-02
 -4.0767896e-01
 -4.3202278e-01
  1.7645688e-01
 -4.1731790e-01
 -3.4142554e-02
 -1.9668624e-01
 -1.2998862e+00
  3.7387300e-01
  1.0495348e-01
 -2.0916992e-01
  3.4157789e-01
 -4.5396024e-01
  1.2222386e-01
 -3.1661877e-01
  3.6811911e-02
  1.6656780e-01
 -3.0370212e-01
  3.4217677e-01
  1.4030808e-01
 -2.4434708e-01
 -5.1479566e-01
 -4.3771836e-01
  3.8499475e-01
  2.8041409e-02
 -1.6491719e-01
  7.6360846e-01
  1.1557859e-01
  3.4936336e-01
 -1.9689693e-01
 -9.1637433e-01
 -4.3376303e-01
  2.2046903e-01
 -2.9364020e-01
  4.0692210e-01
 -2.4164128e-01
 -2.5534427e-01
  3.3632609e-01
  2.3995513e-01
  1.1048081e-01
 -6.7048453e-02
 -4.1435122e-01
  2.5318611e-02
 -3.2774925e-02
  1.3030721e+00
  8.1635052e-01
 -2.5028872e-01
  5.6028378e-01
  9.3969357e-01
  7.1087211e-01
 -1.6810325e-01
 -7.4792467e-02
  5.7081211e-01
 -6.7753652e-03
  9.4157808e-02
  2.3990259e-02
  7.4135727e-01
 -1.9179642e-02
 -1.1187125e+00
 -2.1922088e-01
 -2.7433005e-01
 -2.1680894e-01
 -2.4463299e-01
 -5.8695006e-01
 -3.7351450e-01
  7.7304654e-02
 -1.2936606e-01
 -1.1365803e-02
  1.1047709e+00
 -9.6865639e-02
  5.4172028e-02
  1.4359359e-01
 -1.0295794e+00
  4.3561269e-02
 -4.5599371e-01
 -4.3645422e-03
  1.5254174e+00
  1.0140209e-01
  5.6877589e-01
  1.7973694e-01
  9.4437569e-02
  3.2028982e-01
  6.6198669e-02
 -7.4152518e-03
 -1.2814589e-01
 -1.5501175e+00
 -1.0571616e+00
  1.3815300e-01
 -1.1799364e-01
 -7.2370507e-02
 -4.9364939e-02
  1.5613674e-01
  3.6541823e-01
  2.0774918e-02
  5.3893036e-01
  1.8600168e+00
  1.4784016e-01
  7.2022267e-02
  1.0931759e+00
  3.5811117e-01
 -5.2781399e-02
 -9.2495598e-02
 -6.3364655e-01
  4.3804418e-02
 -7.4013096e-01
 -1.0374904e+00
  6.2385153e-02
  3.1551135e-01
 -5.1602817e-01
 -7.7585019e-02
 -2.0179023e-01
 -1.3360296e-01
  3.7521404e-01
 -4.3182704e-01
 -8.4903854e-01
 -3.7286451e-01
 -1.3164675e-01
 -3.5314250e-01
 -1.6678584e-01
 -7.3391354e-01
 -1.7550139e+00
  6.7416865e-01
 -9.3316877e-01
  1.7727606e-01
  7.0775574e-01
 -1.8169919e-02
  4.7945842e-02
  8.6924672e-02
 -4.2653146e-01
  3.3076420e+00
  3.1934771e-01
 -2.6223895e-01
 -9.0015715e-01
 -8.6501315e-02
 -4.2393470e-01
 -3.3378106e-02
  3.3056423e-01
 -2.4710999e-01
 -4.6203771e-01
 -3.0469853e-01
 -1.4815721e-01
  5.5158520e-01
 -6.7690754e-01
 -4.6312088e-01
 -1.3699768e-01
  8.0121040e-02
 -6.1093334e-02
 -1.2539016e+00
  1.1842527e-01
  5.2350383e-02
  9.5924675e-01
 -2.9147550e-02
  2.9615647e-01
 -3.1724676e-01
 -8.9101419e-03
 -1.0561927e-01
  6.7780584e-01
  2.6695448e-01
  7.8820497e-01
  5.3356297e-02
 -2.9318371e-01
 -2.9362343e-02
 -1.8271710e-01
 -1.3194382e-03
  3.0143647e+00
 -2.4489117e+00
  4.1593418e-01
  1.0696740e+00
  4.3008330e-01
  2.5154147e-01
  2.1890797e-02
  3.6908746e-01
  1.3221920e-01
  5.3870064e-01
 -1.4543897e-01
 -1.7005160e-01
 -1.4436267e-01
 -8.1627816e-01
 -1.5499319e-01
 -9.0169378e-02
 -1.0456098e-01
 -6.0026360e-01
  7.4049807e-01
 -2.6795158e-01
 -1.3151466e+00
  1.5754353e-01
 -5.8708709e-01
  1.5215847e-01
  1.0289108e-01
  1.1647140e-01
  1.7102545e+00
 -8.7528682e-01
  9.4965607e-01
 -3.3919427e-03
  8.3718538e-02
 -2.8659505e-01
 -2.3663020e-01
  8.4426242e-01
 -8.6203977e-02
  2.5782272e-01
  8.7047853e-02
  1.0013501e-01
 -8.7835491e-01
 -9.4580239e-01
 -7.9706711e-01
 -2.0093434e-01
 -2.7580586e-01
  2.5303859e-01
  3.5162073e-02
 -9.0274805e-01
  3.1242669e-01
 -6.0459197e-02
  4.7048971e-01
  1.8370098e-01
  1.3814880e+00
 -3.7538180e-01
 -2.0898049e-01
 -2.5312757e-01
 -6.8616286e-02
  6.6505170e-01
  7.6133591e-01
 -2.2719404e-01
  4.1229859e-01
 -5.6419581e-01
  4.6817574e-01
 -8.2259841e-02
 -2.6943767e-01
  1.1374580e+00
 -2.3087002e-01
  1.1870801e+00
  2.3588037e-01
  3.0746275e-01
  3.6779123e-03
  9.2474081e-02
 -6.6283190e-01
  9.9300437e-02
 -5.8701962e-01
  9.0884840e-01
 -1.1063020e+00
 -4.5361209e+00
  1.4254989e-01
 -7.4614316e-02
  1.4959584e-01
 -8.9118451e-02
 -4.5911339e-01
 -9.3780142e-01
 -2.0975421e-01
 -7.4414700e-02
  1.8198663e+00
  1.1472331e+00
  1.0957892e-01
 -7.9933301e-02
  7.5220042e-01
  3.2680038e-02
 -1.8036461e-01
  3.8509706e-01
  6.9409184e-02
 -5.2081448e-01
  2.7267286e-01
  1.8413743e-01
 -5.8508998e-01
  3.0237783e-02
 -1.3751291e-01
 -1.6766938e+00
 -6.9945771e-01
  3.0322042e-01
 -1.0843273e+00
 -1.6855837e-01
  1.3555299e-01
 -2.9870268e-02
  1.6750972e-01
 -4.8659608e-01
 -2.3419853e-01
  4.1823003e-01
  1.3836353e+00
  9.3553953e-02
 -2.6602304e-01
 -4.4819635e-01
 -2.2044794e-01
  5.2876770e-01
  4.4106084e-01
 -4.8142546e-01
 -7.9704261e-01
 -1.1353843e-01
  7.3651165e-02
  1.5762658e-01
 -1.5961961e-01
 -3.7385109e-01
 -1.5242684e-01
  5.4326677e-01
 -9.6177274e-01
  2.8598633e-01
  1.5355915e-01
 -4.1861552e-01
  7.1464732e-02
  6.7222804e-02
  8.9972246e-01
  1.7509270e-01
  2.0349054e-01
 -1.6686539e-01
  5.9667505e-02
 -4.4760236e-01
  7.8428581e-02
  5.7719577e-02
  6.1079130e-02
 -4.3109444e-01
  4.2590708e-02
  1.8902785e-01
  1.0318717e-01
 -4.3803930e-01
 -2.2996566e-01
  2.9052699e-01
 -4.7268671e-01
  4.7938624e-01
  4.0061924e-01
  2.0860948e-01
 -3.4204507e-01
  4.4735894e-01
  1.7611367e+00
 -2.9971245e-01
  1.1749847e+00
  4.4640926e-01
 -3.5765791e-01
 -4.2131850e-01
  1.1865811e-01
 -7.8585252e-02
  6.0108483e-01
 -1.6465779e-01
 -1.5777110e-01
 -3.9070763e-02
 -1.2838197e-01
  5.8965042e-02
 -8.3124465e-01
 -3.9803991e-01
 -2.8909391e-01
 -4.7091585e-01
 -8.4899738e-02
  1.5886627e-01
  4.6901017e-01
 -1.8494698e-01
  8.3380085e-01
  1.3083577e-01
  1.3366297e-01
 -9.4800606e-02
  1.0297840e-01
  4.3019250e-02
  4.4876835e-01
  2.0226933e-02
  4.8222572e-02
 -2.2492771e-01
 -3.0335367e-02
 -1.8196126e+00
 -1.9409768e-02
  2.7513599e-01
  1.5863117e-02
 -6.4049833e-02
  3.6886999e-01
 -3.5379845e-01
 -2.4291706e-01
 -2.6083955e-01
 -8.1489372e-01
  7.7591556e-01
 -1.2756691e+00
 -2.9591221e-02
  1.1854073e+00
 -1.1662602e-01
  2.6940953e-02
 -3.0941000e-02
  1.2074447e-01
  7.0127314e-01
  3.3458203e-01
  2.2533065e-02
 -6.1879140e-01
  9.6183550e-01
  1.9148560e-01
 -5.9906137e-01
  2.5289705e-01
  1.5067075e-01
  1.5015204e-01
 -5.3292322e-01
  1.1245809e-01
 -2.1357182e-01
 -4.0575451e-01
 -2.7154136e-01
 -1.2628965e-01
  8.7317467e-02
  8.7142952e-02
  5.2100146e-01
  1.1720783e-01
 -2.9900533e-01
  4.2335266e-01
 -3.3412370e-01
 -2.5885549e-01
  1.7135338e-01
 -1.4235139e-03
 -2.3484680e-01
 -9.6596323e-02
 -3.3958384e-01
  2.8422421e-01
  5.2585006e-02
 -2.4115190e-01
  2.8595766e-01
 -1.8210857e-01
  2.0439063e-01
 -1.4441678e-01
 -1.6849208e-01
  4.9178579e-01
  1.0273921e-02
  2.2454495e-02
 -1.1637483e+00
  6.3875270e-01
 -3.4410089e-02
 -2.6665032e-01
  3.2137567e-01
  3.9703894e-01
  3.6513016e-01
  1.4149340e+00
 -4.1887712e-01
 -1.5345562e-01
  1.3424425e-01
  3.7739992e-01
 -1.3471669e+00
 -2.1239693e-01
 -2.6582995e-01
 -6.1468041e-01
  8.2247174e-01
 -5.6291595e-02
  3.1705647e+00
  1.1890753e-01
 -1.5865469e-01
 -5.1916933e-01
 -1.0225235e-02
  1.1345083e+00
  4.9310219e-01
  1.3814534e-01
  1.6205284e-01
  4.5246817e-02
 -3.3361849e-01
  2.9664576e+00
 -2.5608790e-01
 -1.4326744e-01
 -4.7563073e-01
 -1.3095011e-01
  1.0378870e-01
  1.7154106e-01
  2.0483382e-01
  5.8782393e-01
 -9.1633856e-02
  5.9184875e-02
 -1.7081961e-02
 -1.2763983e-01
  2.8692064e-01
  3.2522436e-02
  2.7219972e-01
 -1.4465289e-01
 -1.5540932e-01
  2.3699844e-02
 -7.8132039e-01
  2.6559454e-01
 -1.4984412e-01
  1.9748610e-01
 -7.0901608e-01
 -1.6967243e-01
 -4.3173421e-02
 -5.9779338e-03
  3.1706989e-01
 -3.7576766e-03
 -3.9566685e-02
 -1.0502237e-01
  6.3646090e-01
  1.3783233e-01
  9.1020904e-02
  3.5867846e-01
 -7.7347392e-01
 -6.4515722e-01
 -1.4321189e-01
 -4.8852545e-01
 -1.4273793e+00
  3.1503201e-01
 -5.7589567e-01
  2.8706497e-01
 -1.8649146e-01
 -1.1664794e-01
  1.1263262e-01
  3.4230429e-01
 -2.2735095e-01
 -4.3091796e-02
  8.0448842e-01
 -9.6242964e-01
  6.5891677e-01
  4.8474714e-02
  1.6859940e-01
 -2.6151258e-02
 -2.2304282e-01
 -3.3704963e-01
  3.3605346e-01
  1.0831312e-01
 -2.7304801e-01
  2.7795824e-01
 -4.3981415e-01
  9.1261595e-02
  3.9180514e-01
  5.3066862e-01
 -7.6255089e-01
  1.4098015e+00
  1.5775475e-01
  2.5715102e-02
  1.6589206e-01
  1.9471195e-01
  4.5223379e-01
  2.6671958e-01
  1.7099810e-01
 -8.0763817e-02
  2.6872939e-01
  2.7432954e-01
 -3.0437437e-01
 -1.8678133e-01
  4.0634379e-01
  8.9513916e-01
  4.9455854e-01
 -4.1239446e-01
  1.7913488e-01
 -9.2030704e-01
  5.3749412e-01
  7.9207754e-01
 -7.4245149e-01
 -1.1142606e+00
  5.8678138e-01
 -3.4870681e-01
  1.7885505e-01
  4.7056475e-03
  1.5559269e+00
 -1.7195750e+00
  1.7972859e+00
  1.5545586e-02
  1.6613068e-02
 -3.8777003e-01
  7.5711094e-02
  2.9937118e-01
  8.6395872e-01
 -8.7627023e-01
 -3.1823578e-01
 -5.8556569e-01
 -4.2401767e-01
 -1.1818095e-01
 -1.7676584e-01
 -4.6716285e-01
 -1.7031553e-01
 -2.2041993e-01
 -4.5581069e-02
 -1.3749671e+00
 -4.1316473e-01
  4.6808902e-02
  2.0672716e-01
 -8.5277802e-01
 -6.0116905e-01
  1.0241054e-01
 -2.4222647e-01
 -3.3718828e-02
  7.6282418e-01
 -1.4283995e-01
  3.2077891e-01
 -1.9621700e-01
 -1.6125341e-01
 -3.2372433e-01
  2.9601821e-01
  6.4496952e-01
 -1.8359567e-03
 -3.9121541e-01
  1.9211842e+00
 -2.3957664e-01
 -1.1896277e-01
 -4.5393550e-01
  5.3453606e-01
  4.8808813e-01
  5.0222170e-01
 -4.4140056e-01
 -1.3115980e-01
 -3.4381554e-01
  4.5907637e-01
  6.7162253e-02
 -6.9049239e-01
  4.5978248e-02
  8.8665351e-02
  4.6994749e-02
 -5.0471473e-01
 -1.0682861e-01
  1.0593046e-01
  3.2622186e-03
  1.9076290e-02
 -1.9023429e-01
  5.6825608e-01
 -3.7623546e-01
 -1.8788537e-01
 -6.9091231e-01
 -2.8683475e-01
 -1.4002439e-01
 -1.4509087e+00
 -1.0615856e-01
 -1.5987922e+00
  4.7836384e-01
 -1.0501514e-01
  5.1131677e-02
 -8.6509264e-01
  1.4644161e+00
 -1.0872712e+00
  4.2227492e-01
 -4.4018120e-01
 -3.9690110e-01
  3.8017264e-01
 -3.3033180e-01
  5.8513254e-02
 -4.0043524e-01
 -4.6190046e-02
 -5.1238116e-02
 -7.2525173e-01
 -5.3494582e-03
 -2.7326253e-01
 -8.1342065e-01
  1.3449213e-02
  5.3748876e-01
 -1.1193247e+00
  1.5069058e+00
 -4.0283898e-01
 -7.9526871e-02
  2.9392332e-01
 -1.4602709e-02
  4.7462534e-02
 -3.3257911e-01
 -1.6476996e-01
  6.6565549e-01
 -1.1851684e-01
 -2.4946384e-01
 -4.3728191e-01
  3.1790234e-02
  4.9437664e-02
  1.3704355e+00
 -2.4570595e-01
  5.0172943e-01
  2.8732073e-01
 -4.3919858e-02
  1.1005498e+00
 -6.6232616e-01
 -1.7193845e-01
  9.8136199e-01
 -2.3196565e-01
  4.7461161e-01
  2.0176660e-01
  3.6731020e-03
 -2.9183826e-01
  2.1976286e-01
 -3.1593654e-01
 -4.1295043e-03
 -2.4107839e-01
  4.4147065e-01
 -9.4533134e-01
  7.6992005e-01
 -2.1472390e-01
 -3.6249179e-01
  5.1769364e-01
  7.1618712e-01
 -4.4851428e-01
  2.2061580e-01
 -1.7136832e-01
  8.7998480e-01
  1.4003567e-01
  1.2320627e-01
  8.5414344e-01
 -1.1560581e-01
  1.8690901e-01
 -6.9272470e-01
  1.8716274e-01
  5.6336564e-01
  4.7864523e-02
  1.1974853e-01
 -2.0021917e-01
  6.2065147e-02
  4.5035550e-01
 -7.1218187e-01
 -7.9263054e-02
 -1.6932720e-02
  6.6144750e-02
  2.0885126e-01
  9.2603618e-01
  3.0374059e-01
 -2.5157085e-01
  2.6280599e-02
  2.1125216e-02
  1.7290927e-01
  1.0016531e+00
  2.3873474e-01
 -1.4491247e-01
  9.6330279e-03
  6.6044754e-01
 -1.2743466e-01
  2.0984641e-01
  2.4825138e-01
  4.5388755e-01
  2.5842801e-01
 -3.0580920e-01
  1.7134495e-01
 -1.9691072e-02
 -4.1186830e-01
 -4.9990970e-01
 -5.3357128e-02
 -7.2142772e-02
 -6.7450523e-01
 -2.5302097e-01
 -3.1411743e-01
 -2.6310144e-02
  1.9119498e-01
 -1.0088389e-01
 -6.2348717e-01
  5.8905745e-01
 -6.1965859e-01
  9.6109486e-01
 -1.0418420e-01
  1.9557093e-01
 -3.8653821e-02
 -1.9709484e-01
  2.2672249e-02
 -1.8412372e-02
  7.6441400e-02
  2.6644415e-01
 -1.4419624e-01
 -6.6712874e-01
 -3.7137371e-01
 -9.0634590e-01
  4.9088484e-01
 -2.4523616e-01
  8.3969301e-01
  4.3041384e-01
 -2.4218541e-02
 -1.8385177e+00
  3.9582220e-01
  2.1052332e-01
  5.8332223e-01
  3.8485354e-01
  3.6342913e-01
  3.6153257e-01
  1.4561774e-01
 -4.1935933e-01
  6.3347109e-02
  3.6042118e-01
 -5.5821866e-01
 -3.1451020e-01
 -2.8554812e-01
 -2.7167749e-01
  1.4163649e-01
  3.7740612e-01
  2.8969353e-01
  4.0127754e-01
 -4.4895020e-01
 -2.8007177e-01
 -6.4802527e-02
 -3.3059552e-02
 -4.2529905e-01
 -6.7771292e-01
 -1.9510973e-02
  1.3971467e-01
 -7.1492779e-01
  7.3992573e-02
 -2.1721745e-01
 -7.6439685e-01
  2.1460032e-01
  3.9758471e-01
  2.2702165e-01
  2.6214746e-01
  1.6270027e-02
  2.6588306e-01
 -8.7003905e-01
  3.0697662e-01
  5.2202308e-01
 -6.4849621e-01
 -6.1362300e-02
  1.2477232e+00
  7.5219965e-01
  1.8581508e-01
 -3.0781177e-01
  6.1554238e-02
 -3.4528717e-01
  1.1172258e-01
  1.3883319e-01
  5.7112503e-01
 -4.4488138e-01
  3.9766483e-02
  1.6866615e-02
  4.5054030e-02
 -1.3982676e+00
  1.1468620e+00
 -1.4965728e-01
  2.8514177e-01
 -4.3018568e-01
 -4.0183298e-02
  1.2806545e-01
 -4.2524293e-02
 -2.8753912e-01
  2.5373688e-01
 -6.4389706e-01
 -1.0571917e-02
  2.0971106e-01
 -1.8888777e-01
  9.2851734e-01
 -2.6532626e-01
  2.7748734e-01
 -2.7795479e-01
  5.5704534e-02
 -3.2054779e-01
 -4.0717331e-01
 -6.0633665e-01
 -4.5371968e-01
 -4.0645275e-01
 -1.6683549e-01
 -1.5629435e-01
  5.0302821e-01
 -1.0874476e-01
  8.5853469e-01
 -3.4960005e-01
  2.2108570e-01
 -1.0238740e+00
  2.0541619e-01
  4.8054999e-01
  1.7737614e-03
  2.9050988e-01
 -1.1186674e+00
 -8.7284690e-01
 -1.7594214e-01
 -3.9916626e-01
  1.4863190e-01
  6.6857606e-01
  7.6304823e-01
 -1.1404855e-01
  2.9571112e-02
  7.6704079e-01
  5.8885115e-01
  1.8637694e-02
 -2.8252661e-01
 -2.9368756e-02
  3.9565012e-01
  3.3678535e-01
  3.0194369e-01
 -3.0980369e-01
  1.6206129e-01
 -1.4519933e-01
  5.9927493e-01
 -3.7670016e-01
  9.6573776e-01
  1.0908172e-01
  7.0759094e-01
  2.5278273e-01
  1.8467645e-01
 -3.0271318e-02
  7.4240708e-01
 -1.6248135e-01
 -3.4327485e-02
 -5.5043250e-01
  2.0683238e-01
 -1.5488149e-01
 -7.0740587e-01
 -1.9540700e-01
  4.0301882e-02
  6.6612595e-01
  1.3845674e+00
  8.3603382e-01
 -3.3103123e-01
  4.7305706e-01
  2.3177195e-01
  6.0444671e-01
  4.4044718e-01
  1.7820741e-01
  1.1108261e-01
 -2.5928053e-01
  3.0504411e-01
 -2.4225868e-01
  4.7499966e-02
  1.1494800e-02
  7.8803976e-04
 -1.5234397e-01
  6.5142709e-01
 -9.9744636e-01
  1.1725558e-01
  2.2895126e-01
  1.5779369e-01
 -3.1054452e-01
  2.1963313e-01
  2.4418552e-01
 -3.9119571e-02
  1.4760143e-01
 -7.3492622e-01
  2.0077421e-01
  2.3836622e-01
 -2.3710002e-01
  8.9920275e-03
  2.0542662e-01
  4.9850515e-01
  2.3364654e-01
  4.3211389e-01
  2.6253971e-01
 -9.4671763e-02
  1.4562105e+00
  3.1982724e-02
  2.3097268e-01
  6.4199913e-01
 -9.1953641e-01
  5.3987688e-01
 -1.3567834e-01
 -1.4318627e-01
  1.2578781e-01
 -6.3846672e-01
 -3.4439612e-02
 -1.3437930e-01
  7.8498043e-02
 -2.0385264e-01
  1.0968395e+00
 -6.7273778e-01
  1.8593197e-01
  2.3441374e-01
 -8.3938986e-02
 -4.0213838e-02
 -2.8917971e-01
 -3.8340700e-01
  3.2156596e+00
  6.5433271e-02
 -5.1067257e-01
 -5.9121066e-01
 -1.7679439e-01
 -5.8961058e-01
 -4.4368878e-02
  2.4653342e-01
 -2.6619416e-01
  5.0829566e-01
  8.5454875e-01
 -1.6228763e-02
 -5.0494516e-01
  9.3509358e-01
 -4.5466870e-01
 -1.6204087e-01
 -2.3388378e-01
 -1.0239790e-01
 -1.5644009e+00
 -4.0043125e-01
  6.2584151e-03
 -2.2732437e-01
 -6.8155513e-03
 -3.4944656e-01
 -1.8191021e-02
  5.4933831e-02
 -2.7423877e-02
  4.8400527e-01
 -2.1951067e-01
  1.3218626e-01
  5.6221807e-01
 -1.2331491e+00
 -9.0223856e-02
  2.4519101e-02
  2.7520416e-02
 -3.7071982e-01
  1.6735651e-01
  1.0667273e+00
 -6.1094761e-01
  5.6212020e-01
 -4.5188624e-01
  9.7750619e-02
  1.5027645e-01
 -3.6719021e-01
 -2.2256269e-01
 -5.3117786e-02
 -1.0827132e-01
 -7.2707832e-01
  4.5159999e-02
  1.5700874e-01
  3.5084978e-01
  2.3842651e-01
 -3.4766248e-01
  3.9940003e-01
  4.1045740e-01
  3.1659654e-01
  4.9416171e-03
 -6.1037678e-01
  2.6214266e-01
  8.9564031e-01
  1.8506107e-01
  2.7272117e-01
 -6.4111942e-01
  1.7869599e-02
  2.3322481e-01
 -2.4873509e-01
 -3.7740737e-01
  1.2416122e-01
  1.9570009e-03
 -6.2056589e-01
 -1.2361614e-01
  1.0293026e-01
 -4.3208953e-02
  8.5493870e-02
  1.0954380e+00
 -2.5337109e-01
 -1.4664547e-03
  5.5356318e-01
 -6.9599032e-01
 -2.3341347e-01
 -2.7956450e-01
 -2.9228878e-01
 -1.3051295e-01
 -2.7991796e-01
 -8.9357382e-01
  1.2194947e-01
  4.1899604e-01
 -3.4773687e-01
 -5.1808607e-02
 -1.8918609e-02
 -1.1294473e-01
  2.0940265e-01
 -2.8936921e-02
  3.3051074e-02
 -1.0593148e-01
  3.9555284e-01
  1.2688003e+00
 -2.0690654e-01
  9.5542103e-02
 -4.7489187e-01
 -8.2154316e-01
 -2.9960603e-01
  1.3571610e-01
  3.2249379e-01
 -9.2479360e-01
  2.3285334e-01
 -2.8729159e-01
 -5.5282408e-01
 -1.7143460e-01
  3.3440536e-01
  4.2060658e-02
 -7.5362843e-01
 -6.0229409e-01
  9.6593075e-02
 -1.2590599e+00
 -2.1495506e-01
  3.7097192e-01
 -2.2785740e-01
 -1.1418014e-01
  6.4140427e-01
  5.1893133e-01
  4.8422563e-01
 -3.4483013e-01
 -1.5715705e-02
 -2.5666967e-01
  1.6295176e-02
  1.0297766e+00
  9.6702272e-01
  1.5099624e-01
 -5.2896217e-02
  8.3114862e-01
 -1.2428611e-01
  8.2005642e-02
  7.5318716e-02
  2.1331026e-01
 -1.0928571e+00
 -1.1646070e-01
  4.1704584e-02
  3.0850819e-01
 -2.5829503e-01
 -2.3230673e-01
 -1.7447215e-01
 -2.9507512e-01
  1.5863490e+00
 -7.0486259e-01
  5.3975368e-01
  7.9985082e-01
  7.2844386e-01
  3.0991092e-01
 -9.5324725e-02
  2.0670536e-01
  1.7643259e-01
  6.6935861e-01
 -2.6401846e-02
  6.7952457e-03
  4.1865367e-01
  2.4408203e-01
 -1.9053520e-01
  2.6834643e-01
 -3.9835793e-01
 -4.8600847e-01
 -4.8056489e-01
 -4.7024485e-01
  1.1830828e+00
 -1.9683492e-01
  1.2250156e-01
  1.8449065e-01
 -3.1410611e-01
  2.1900985e+00
  4.0853154e-02
  3.6251831e-01
 -7.6494610e-01
  4.3144897e-01
  4.9022597e-01
 -1.0218997e-01
  3.0097890e-01
  2.7353549e-01
  8.0416971e-01
  3.7977949e-02
  6.4173514e-01
  2.3546696e-01
 -2.1051461e-01
  6.1292744e-01
  2.9918483e-01
 -5.9708390e-02
  9.3524396e-02
 -1.8070292e-01
  3.9377978e-01
  3.7404588e-01
 -8.4636545e-01
 -4.9499187e-01
 -3.7750646e-01
  3.4572473e-01
  4.8234576e-01
 -1.9294767e-01
  1.4486268e-01
  8.3604807e-01
 -1.3461004e-01
  4.0416688e-01
  1.1664603e+00
 -1.5994005e-02
  4.0586543e-01
  7.3410884e-02
 -3.0647695e-01
  3.3038834e-01
 -5.2465878e-02
  3.0002847e-02
 -6.0425479e-02
 -7.4998252e-03
  5.5879980e-01
  3.2698435e-01
 -2.6896653e-01
  7.2085720e-01
 -6.7020595e-02
  1.2405876e+00
 -9.9346109e-02
 -5.1539153e-01
  4.3788027e-02
 -5.1096052e-02
 -8.5657723e-02
 -2.2787693e-01
 -1.7471291e-01
 -3.3606756e-01
 -1.8223725e-02
 -2.6389521e-01
  1.3081346e-01
 -2.1569262e-01
 -6.8641430e-01
  1.1913878e-02
 -2.0874640e-02
 -2.3686452e-01
 -9.0103263e-01
  3.9099777e-01
  2.4015783e-01
  3.9563406e-01
  2.7063331e-01
 -3.0874529e-01
  2.4749938e-01
 -3.5194647e-01
  5.0007695e-01
 -2.1598314e-01
 -8.0914304e-02
 -7.2510803e-01
 -2.2006789e-01
 -5.4222888e-01
  4.8112503e-01
 -2.8688312e-01
 -3.3262305e-02
 -2.4254009e-01
 -6.8662179e-01
  2.2427459e-01
  1.2615895e-01
 -6.9345665e-01
  2.0132169e-02
  1.7038487e-01
  7.2176635e-01
  3.9557284e-01
  7.7991664e-01
  9.8032862e-01
  1.6983953e+00
  2.7678785e-01
  3.7866694e-01
 -2.7034070e-02
 -8.4217513e-01
 -4.4140399e-01
  3.6615893e-01
 -4.6966082e-01
 -3.8555298e-02
  3.6865041e-01
  8.4132767e-01
  8.1310920e-02
 -7.0248741e-01
 -1.1472327e-01
 -6.9497299e-01
  1.7235735e-01
  6.6350645e-01
 -5.4186964e-01
 -2.6650256e-01
 -9.6191257e-02
 -2.9576601e-02
 -2.9645494e-01
  6.1066991e-01
  3.3345711e-01
  3.0680906e-02
 -1.1069115e-01
  1.7665964e-01
 -8.3939815e-01
 -2.5130859e-01
 -3.3514224e-02
 -3.4890020e-01
 -8.3249354e-01
  2.1687537e-01
 -1.4222597e-02
 -5.6946385e-01
  1.1740229e-01
 -1.2582186e-01
  1.5514296e-01
  3.7265822e-01
 -1.5754313e+00
  1.4051032e-01
  3.7177381e-01
 -1.4214870e-01
  3.9154032e-01
  1.0946437e+00
  6.8371827e-03
 -5.6230754e-01
 -1.6830994e-01
 -9.1778082e-01
  2.6443687e-01
  3.6975238e-01
  3.4338292e-01
  4.4540960e-02
  1.1814762e-01
 -6.7916058e-02
  1.2324368e-01
  9.1376051e-02
  5.9925234e-01
  6.0283417e-01
  2.7272064e-02
  2.6159230e-01
  2.1224593e-01
 -5.0356039e-03
  1.9148301e-01
 -3.2297203e-03
 -1.4855336e-01
 -2.3002437e-01
 -5.3474867e-01
  2.8866133e-01
  1.8106625e+00
  1.5127844e-01
  2.2521263e-02
 -9.3812251e-01
  3.4087378e-01
 -1.1780007e-01
  1.0192156e+00
  6.6061848e-01
  1.1250339e+00
 -3.0869451e-01
  2.8614369e-01
  3.7996158e-01
  3.8073009e-01
  2.9275247e-01
  2.4523488e-01
  9.1368752e-03
 -1.8610567e-01
  7.7082381e-02
 -1.7515889e-01
 -1.7799690e-01
 -3.1827989e-01
  2.2507051e-01
 -3.0475484e-02
  2.7873802e-01
  3.2315910e-01
  2.0198446e-02
  3.4137893e-01
 -6.2663175e-02
  1.7571236e-01
 -2.1966265e-01
 -1.7628720e-02
 -3.7910503e-01
 -6.7886955e-01
  3.4767076e-01
  2.7869615e-01
 -9.8022297e-02
 -3.3184323e-01
  2.8587145e-01
  1.3927544e+00
  1.0905292e-01
 -3.6881474e-01
  1.3014863e-01
 -1.9224697e-01
  1.7568954e+00
  5.1899421e-01
 -1.0579737e-01
  5.1307356e-01
  2.9572260e-01
 -3.4512496e-01
  2.9103968e-01
 -6.9253606e-01
  1.8550752e-01
  5.7746142e-01
 -2.2946100e-01
 -1.5478169e+00
 -8.3645308e-01
 -1.1293240e-01
 -4.8144389e-02
  8.3113328e-04
  3.4066010e-02
  1.0723121e-01
  3.3135352e-01
 -3.3847654e-01
  1.8326136e+00
 -1.8823488e-01
  1.6192789e-01
  4.7626919e-01
 -9.6434242e-01
  3.8598627e-02
  1.7570086e+00
 -7.3988117e-02
 -6.0129255e-01
  5.3104782e-01
 -6.3763964e-01
 -8.2964927e-02
 -7.2871459e-01
  5.1697902e-02
 -8.2160991e-01
 -1.0889687e-01
 -5.5584395e-01
  3.6532491e-01
 -2.3167906e-02
 -2.9299164e-01
 -2.5323921e-01
 -9.8187977e-01
 -1.2242559e-01
  1.0185646e-01
 -2.4225967e-01
  2.1998762e-01
  2.5396633e-01
 -1.3103238e-01
  2.2738540e-04
  1.0028273e-01
 -2.2082035e-01
  1.8941870e-01
  1.1062396e-01
 -1.2725489e-01
  2.6285749e-02
 -1.5012214e-01
  2.0396534e-01
  4.9564354e-02
  1.1089423e-01
 -5.8374354e-03
 -1.0949535e-01
 -5.7572778e-02
 -8.9179754e-02
 -9.1455972e-01
  4.7060603e-01
  3.0604252e-01
 -3.3036831e-01
 -2.6714222e+00
  3.9581409e-01
 -1.6082208e-01
  3.7487039e-01
 -2.6946625e-01
  9.0376866e-01
 -1.4399801e-02
 -4.9967310e-01
 -4.5030010e-01
 -7.5095460e-02
  5.5530232e-01
  2.7510014e-01
  3.5892898e-01
 -2.7019093e-02
 -3.5720336e-01
  3.0490825e-01
  2.7818057e-01
 -3.1297868e-01
 -8.8453509e-02
  8.4313279e-01
 -1.9102101e-01
 -4.2214957e-01
 -7.8287989e-02
  7.9638565e-01
 -3.9160085e-01
 -4.5764394e-02
  7.2044909e-02
 -3.2250996e+00
 -4.6777618e-01
 -8.0569953e-02
 -3.8972670e-01
 -2.7690213e+00
  3.4881506e-02
  1.1032039e+00
  3.6562148e-01
  4.8291668e-02
 -1.4393613e-01
  5.9809897e-02
 -2.2588065e-03
 -5.6576163e-01
 -2.2446328e-01
  1.4909068e-01
 -2.1279233e+00
 -7.2349131e-02
 -6.2895441e-01
 -1.7178160e-01
 -5.4113770e-01
 -5.2023399e-01
  9.1623561e-04
  3.8261381e-01
 -3.3496264e-01
 -4.2018315e-01
 -1.5477377e-01
 -2.3818265e-01
  1.2011370e-01
  4.2713981e-02
 -3.4110129e-01
  3.4251264e-01
  6.1446214e-01
 -7.0611209e-02
  2.3833277e-02
  5.0655770e-04
 -4.0949258e-01
 -1.0541695e+00
 -1.2202578e+00
 -6.6320354e-01
 -5.6056613e-01
 -8.9212365e-02
  8.4100372e-01
 -3.9894587e-01
 -3.7377626e-02
 -7.0068175e-01
  6.9896835e-01
 -1.9629473e-02
  5.9139597e-01
  4.1304952e-01
  1.2283003e+00
  7.5746030e-01
 -5.9933215e-01
  5.8859122e-01
 -1.1759470e+00
 -1.8995138e-02
 -6.1273873e-01
  2.3990321e-01
 -2.1314652e-01
 -2.0347442e-01
  2.5732818e-01
  2.5663689e-01
 -2.5987171e-02
  5.7026640e-02
  7.2024053e-01
  2.3618273e-01
 -7.5906394e-03
 -9.6674405e-02
  2.7248603e-01
  8.1000096e-01
 -1.4758794e+00
  1.2921268e-01
 -1.0627660e-01
 -4.4108769e-01
  6.9102788e-01
 -2.2560629e-01
 -2.3567820e-01
  1.2945355e-01
 -9.3938702e-01
  1.1974438e+00
  7.7585965e-02
 -6.0232455e-01
 -4.9687731e-01
 -1.3891307e-01
  2.8218549e-02
  7.3348838e-01
  3.4327087e-01
  4.3892360e-01
  2.8408977e-01
 -2.6989415e-01
  4.5687714e-01
 -3.4457481e-01
 -6.4778030e-01
  5.8085245e-01
  7.2738361e-01
  1.0178146e-01
  5.1675951e-01
 -3.3910975e-01
  1.2544403e+00
  1.3343295e-02
 -2.2566041e-01
  1.5825132e-01
  5.0219208e-01
  7.3565894e-01
 -6.4116967e-01
  5.3422172e-02
 -2.9847285e-01
  2.1648672e-01
 -5.0133216e-01
 -4.4881639e-01
 -2.5439003e-01
 -1.9704045e-01
  6.7023509e-03
 -3.4269667e-01
 -2.2126198e-01
 -2.8350489e+00
  1.1859450e-01
  1.2833316e+00
  2.7530926e-01
  3.3950317e-01
  2.4324334e-01
  6.3986272e-01
  6.9630998e-01
 -4.6723622e-01
 -8.7619424e-01
 -2.4523297e-01
 -4.0913814e-01
 -8.9341784e-03
  3.7700245e-01
  6.1851654e-02
 -3.1761169e-01
 -2.1344979e+00
  3.4293362e-01
  4.0610990e-01
 -9.7302847e-02
 -8.7171537e-01
  7.6867044e-01
 -1.9251338e-01
  5.0331420e-01
 -6.6697992e-02
  4.7877985e-01
 -1.1201990e-01
  5.5977470e-01
  9.5415956e-01
  6.7113620e-01
  3.4513941e-01
 -1.0629543e-01
  5.1286906e-01
 -1.6314502e-01
 -6.5230720e-02
 -9.9334851e-02
  2.7670717e-01
 -4.4445869e-01
  3.3138683e-01
 -2.8723565e-01
 -2.8621122e-01
  1.6578335e-01
  8.2540077e-01
 -1.6102089e-01
 -6.4233594e-02
 -6.8327570e-01
 -7.6914084e-01
  2.3920767e-01
  1.3715981e-01
  3.8750514e-01
  4.1791323e-01
 -2.9842320e-01
 -4.1547331e-01
  1.8875176e-01
  7.5788617e-01
 -3.1569397e-01
  3.7411961e-01
  8.0787875e-02
  2.3716915e-01
  2.4291496e-01
 -8.7507941e-02
 -1.3339224e-01
  2.8445411e-01
 -7.4488562e-01
 -6.5034583e-02
  4.7998503e-01
 -6.2719703e-01
  1.7398053e-01
  8.7451018e-02
 -5.2781898e-01
 -7.0631170e-01
 -4.0754628e-01
 -6.4880866e-01
 -7.5204588e-02
 -2.8089957e-02
 -4.4587541e-01
 -2.1460858e-01
 -9.7329032e-01
  3.0130714e-01
 -2.9830587e-01
 -5.2747154e-01
 -5.6445384e-01
 -8.2431711e-02
 -7.3766631e-01
  3.8306212e-01
  2.0689843e+00
 -4.7842696e-01
 -5.7779472e-02
  6.1150843e-01
 -2.4198233e-01
 -7.5431854e-01
  9.6642196e-02
  7.5424328e-02
 -1.4264378e-01
  1.8347858e-01
 -3.1738031e-01
 -3.2507606e-02
 -2.2441718e-01
  1.2611717e-01
  7.9530263e-01
 -5.5174863e-01
 -7.2408050e-01
  5.6231451e-01
 -4.3723157e-01
  4.2686722e-01
 -9.3407631e-02
  6.3461453e-02
  8.0400693e-01
  2.2996362e-01
  2.8686559e-01
  7.2476661e-01
 -9.0514094e-02
 -1.6395573e-01
 -2.6353860e-01
  4.4328624e-01
  2.1745877e-01
 -3.5931326e-02
  3.7591347e-01
  4.7856215e-01
 -1.3478529e-01
  5.3531963e-01
 -1.1952275e-01
 -6.4910364e-01
 -1.0631131e+00
  2.5152760e-02
  1.1264221e-01
  6.6993946e-01
  3.3658891e+00
 -3.4971529e-01
  5.2280780e-02
 -7.0072412e-01
  4.0280876e-01
 -1.1446310e+00
  3.3121490e-01
  3.5670048e-01
 -2.0367004e-01
  3.7355262e-01
 -9.7530022e-02
  1.2389543e-01
 -9.7365025e-03
  2.6006415e-01
  3.3826348e-01
  1.1801031e+00
 -7.8575903e-01
  2.5249073e-01
  2.1285659e-01
  1.9519365e-01
 -4.7663552e-01
  8.7077904e-01
 -1.2924132e-01
 -4.0038869e-01
 -2.9999813e-02
 -3.9600211e-01
 -1.7987436e+00
 -8.5661449e-02
  8.9453095e-01
  2.8312850e-01
 -1.4733980e+00
 -3.1527039e-01
  7.1496207e-01
  4.5249552e-01
 -2.6922140e-01
  5.7640487e-01
  8.6600482e-01
  1.0124624e-01
 -1.7757353e-01
  1.5677789e-02
  2.1640413e+00
  6.2157249e-01
  3.6751416e-01
  1.2878703e-01
  1.8397249e-02
  6.1506569e-02
  2.3206775e-03
 -4.2685494e-02
 -3.4899223e-01
  1.7705092e-02
  3.6349988e-01
 -2.7490762e-01
 -1.0547920e+00
  8.4316897e-01
 -2.5963745e-01
  2.6056671e-01
 -4.6035403e-01
  1.7530942e-01
  3.7173098e-01
  1.1143027e-01
  5.5440742e-01
 -4.0006879e-01
  7.9753113e-01
  1.2777109e+00
  2.8880617e-01
 -9.4388694e-02
 -8.2680619e-01
  9.0900892e-01
 -5.7544029e-01
  4.6182829e-01
  1.9783013e-02
 -5.8738607e-01
  5.9637541e-01
 -4.5544490e-01
  1.3405308e-01
  9.9456471e-01
  6.7738704e-02
 -2.5386998e-01
 -1.1453778e-01
 -7.8806505e-02
  2.6767007e-01
  5.9724087e-01
 -2.9454377e-01
 -1.3720952e-02
  8.7356067e-01
  6.4367789e-01
 -1.4321038e-01
 -1.2094779e+00
  5.0963014e-01
  5.2583534e-01
  1.6486921e+00
  1.8593208e-01
 -1.1741867e-01
 -1.5743686e-01
 -2.6070940e-01
 -8.0178344e-01
  1.1272941e+00
  3.5147914e-01
 -6.2723690e-01
  1.3343401e-01
 -9.2974299e-01
 -1.3176234e-01
 -1.2650156e-01
 -7.6853655e-02
 -1.5981698e-01
  8.2531124e-01
  1.4343452e-02
 -5.3247906e-02
  4.0857413e-01
  4.7145858e-01
 -1.7739154e-01
 -1.0258161e-01
 -1.6806626e-01
 -5.3384441e-01
  6.1432678e-01
  1.5115929e-01
  1.7021620e-01
 -9.0199925e-02
  3.2170647e-04
 -3.3541772e-01
  3.6257911e-01
  3.3539575e-01
 -6.8635416e-01
 -1.3953695e-01
 -8.7570250e-02
 -6.9023043e-01
 -3.8092807e-02
 -6.2852222e-01
 -7.4359916e-02
 -1.6598241e-01
 -2.2900787e-01
 -1.7280793e-01
  4.6883658e-01
  3.7513807e-01
 -5.6122464e-01
 -2.9963481e-01
  5.4966435e-03
  1.6946808e-01
  3.0280986e-01
 -3.5855323e-01
  3.5932860e-01
  4.2574686e-01
  2.7926937e-01
 -5.8204371e-01
 -4.7079921e-02
  4.0171498e-01
 -8.7537639e-02
  6.3376717e-02
 -3.5631543e-01
 -5.8052456e-01
 -6.2936419e-01
  3.6107272e-01
 -6.5161668e-02
  5.6957535e-02
 -1.5391822e-01
 -5.4986876e-01
 -3.8576860e-03
  1.7232841e-01
 -7.5361741e-01
 -5.4081406e-02
  7.9417104e-01
 -6.1390556e-02
  4.5935732e-01
 -2.3555793e-01
  1.5034600e-03
  6.1569041e-01
  1.6748562e-01
  6.7668065e-02
  8.5662730e-02
 -5.3892362e-01
 -3.4833190e-01
  2.0674407e-01
  1.1036916e-01
 -1.6486781e-02
 -3.1660157e-01
  1.2356364e-01
 -6.5067303e-01
 -8.0591279e-01
  7.9055613e-01
 -5.1126158e-01
 -7.9031698e-02
  2.1846561e+00
 -8.5253716e-01
  2.0677769e-01
 -6.6272330e-01
  2.3860063e-01
 -1.3345303e-01
 -5.0835955e-01
 -3.0779645e-01
 -5.3634757e-01
  2.7784994e-01
  5.9289765e-01
 -2.9693833e-01
  7.9444516e-01
  1.4403388e-01
 -4.0041816e-01
  1.5593110e+00
 -9.6705800e-01
  3.9949074e-01
 -4.7591621e-01
  5.6911302e-01
  1.7275721e-01
 -1.0432345e-01
  1.6514236e-01
  1.5286058e-01
 -1.3353072e-01
  5.6785792e-01
 -3.9921042e-01
  2.9512766e-01
 -2.6420847e-01
 -2.6973953e-02
  1.2769546e-01
  6.3362092e-01
  5.9227124e-02
  4.4489574e-01
  1.4089876e-01
 -3.4541201e-02
  6.7908335e-01
 -7.6613396e-01
 -5.5318421e-01
 -1.3088990e+00
 -3.0311623e-01
  7.6325424e-03
 -7.8757210e-03
  1.9058076e-01
 -8.1881888e-02
 -1.0868898e-01
  1.0179253e+00
  6.4550763e-01
 -2.3813367e-01
  2.4403843e-01
  5.7501101e-01
 -5.1452172e-01
  6.2490001e-02
  9.3987927e-02
  2.8449625e-01
  2.1204711e-01
  6.0277855e-01
  2.7461281e-01
  1.7965098e-01
 -3.0392468e-01
  1.9095717e-01
 -1.8373275e+00
  1.1059053e-01
  4.9868327e-01
  4.6684403e-02
  6.7674264e-02
  1.2716901e+00
 -5.4411936e-01
 -1.3049664e+00
  2.6624052e-02
  3.5315701e-01
 -7.3482889e-01
 -2.5598025e-01
  4.7539356e-01
 -7.3708318e-02
 -1.5225083e+00
  1.1460440e-01
 -7.7611226e-01
  6.0027999e-01
 -8.9388454e-01
  2.5631538e-01
 -1.2366570e-01
  2.7314550e-01
  9.0113409e-02
 -4.4898716e-01
 -1.7716070e-01
 -3.0892577e+00
  1.7539878e-01
 -3.2078186e-01
  1.2988533e-01
 -3.1465095e-01
 -1.6853757e-01
 -6.4881259e-01
 -2.2512665e-01
  5.7028484e-01
 -6.0850286e-01
  3.7505338e-01
  4.4332603e-01
 -5.1644844e-01
 -6.7439157e-01
  2.4392387e-01
 -1.9130547e-01
 -2.3200691e-01
 -4.7769940e-01
  1.7945075e-01
  6.3924563e-01
  3.8685191e-01
 -1.0047674e-01
 -2.2810663e-03
  2.6112154e-01
 -8.5266471e-02
 -3.8703972e-01
 -3.2895482e-01
 -1.7590547e-01
 -1.4309950e-01
 -7.2736764e-01
 -2.8676477e-01
  2.0165478e-01
 -7.5229287e-01
  6.7253077e-01
 -1.3566726e-01
 -3.6694953e-01
 -3.7126538e-01
 -6.7865735e-01
 -1.3433139e+00
  1.7158090e-01
 -3.1240484e-02
  3.4790009e-01
  1.1643619e-01
 -1.0208224e+00
  4.8773459e-01
 -4.5652637e-01
 -1.1600039e-01
 -5.7944249e-02
 -2.0034397e-01
 -6.8751103e-01
 -7.0855743e-01
 -3.2529324e-01
 -3.4262255e-01
 -7.2264576e-01
 -3.2266572e-01
  5.7714260e-01
 -2.3197399e-01
 -1.8765914e-01
  3.3460957e-01
  4.8768333e-01
 -1.1980212e-02
 -9.2353839e-01
  3.6009187e-01
  7.8942651e-01
 -1.1553258e-01
  1.0562034e+00
 -5.2130189e-02
  7.9731971e-02
 -1.0017586e+00
  2.3725595e-01
  3.2418802e-01
 -2.9462230e-01
 -1.7948983e-02
  3.4239331e-01
 -5.6746936e-01
  5.0237048e-01
 -7.2626531e-01
 -2.2693984e-01
  1.5843920e-01
  2.9516184e-01
  2.4860163e-01
  1.4008518e+00
 -1.5622345e+00
  3.3318010e-01
 -2.3537876e-01
 -4.6988645e-01
  8.4352516e-02
  1.0210780e+00
  8.5938670e-02
  1.7533050e-01
 -9.7056389e-01
 -1.8658324e-01
 -1.3718864e-01
 -9.5549363e-01
 -5.1024437e-02
  1.0730351e-01
  1.4331460e-01
  5.2905083e-02
  3.7585020e-01
 -4.6325985e-02
  1.1705482e-01
  2.1738435e-01
  1.0758432e+00
  3.4814233e-01
 -1.0727426e-01
 -1.9786355e-01
 -3.4269962e-01
 -6.5884507e-01
  5.2920736e-02
  2.3741654e-01
 -1.8681639e-01
 -1.0375157e-01
  1.1711036e-01
  7.3746994e-02
  4.1766897e-01
  6.7808791e-03
 -4.8498297e-01
 -5.6899780e-01
 -1.0506854e-01
 -5.5827832e-01
  1.0273029e-01
  5.7267720e-01
 -4.2979258e-01
  1.8400568e-01
  1.2621981e+00
 -1.1361483e-02
  1.6218998e-01
 -7.5197887e-01
 -7.8907853e-01
 -3.1627488e-01
  3.8730353e-01
 -4.8799824e-02
  4.3608683e-01
 -2.0426564e-02
  6.1760843e-01
 -1.2270096e-01
 -1.1590427e-01
  4.0415779e-02
 -1.7009430e-01
  1.1888888e-02
  6.0378790e-01
 -1.5590379e-01
 -1.7467691e-01
 -1.6188879e-02
 -4.8922125e-02
 -2.4905249e-01
 -4.1501913e-02
  3.7463444e-01
  6.7532581e-01
  1.4109368e-02
 -7.6877147e-01
  3.7274912e-01
 -4.8238747e-02
 -6.3197892e-03
  1.7024238e-01
 -6.9345403e-01
 -7.3604167e-01
 -1.2832679e+00
  1.8745382e-01
 -8.3994992e-02
  5.4892123e-01
  5.6052065e-01
  3.6923283e-01
  1.4561057e-01
 -2.5905892e-01
 -6.0313720e-01
  1.6790542e-01
 -1.3477615e-01
  2.2502415e-01
 -3.2949916e-01
 -3.0644359e-02
  4.6741033e-01
  1.6534346e-01
 -8.2965858e-02
  5.9502041e-01
 -3.5654414e-01
 -1.4073075e-01
 -2.2956254e-02
 -1.7589980e-01
 -4.8668064e-02
 -3.6310264e-01
  1.6566324e-01
  3.5622889e-01
  2.3220301e-01
 -1.9458193e-01
  4.9147350e-01
  4.0612322e-01
 -3.3351174e-01
 -1.7825279e-01
 -1.0105167e-01
  1.2142883e-02
 -5.1593369e-01
  8.1059180e-02
 -3.0278455e-02
  3.2707268e-01
  1.4799786e-01
 -2.1186236e-01
  2.2646923e-01
 -5.1159795e-02
 -1.4229703e+00
 -2.8139263e-01
  5.1579618e-01
  1.1056866e-01
 -2.8898287e-01
 -4.9716902e-01
 -3.1879857e-01
  6.4972304e-02
 -6.0562644e-02
  4.7120127e-01
  5.8012642e-02
  5.3009880e-01
 -2.1388989e-02
 -7.6133507e-01
 -1.5069519e-01
 -1.6029249e-01
 -1.0154638e+00
  8.7960255e-01
  2.3599540e-01
  4.6178451e-01
  2.2960834e-01
 -4.0995914e-01
  4.9395800e-01
 -2.4608066e-02
  2.2953510e-01
 -1.3383967e-01
 -1.6415493e-01
  5.6938618e-01
 -1.6986415e-02
  8.0959499e-03
 -1.4402180e+00
 -2.5530701e+00
 -5.9389554e-02
  1.5457654e-01
 -1.0285214e-01
  9.5573723e-01
  4.2580345e-01
 -3.0478837e-03
 -5.8701467e-02
  3.0013306e-02
  3.4565254e-04
  8.6350530e-02
 -7.7079046e-01
  5.2558884e-02
 -1.3099465e-01
 -9.7708650e-02
 -2.7280492e-01
 -1.5949932e+00
  5.5242389e-01
 -2.7628565e-01
  1.5069628e+00
 -1.3820887e-01
 -5.8880287e-01
  1.1849771e-01
  1.8775342e-01
  3.2010281e-01
  1.0213538e-01
 -1.1659251e-01
  3.5829216e-02
  1.9039908e-01
 -1.0305454e-01
  1.4150476e-01
  2.3049088e-01
  1.1225037e-01
 -2.7278897e-01
  1.8615294e+00
 -6.3768655e-01
  2.5937399e-02
  3.5466155e-01
  4.8623556e-01
  1.6129139e-01
 -6.5251446e-01
  3.7748849e-01
 -1.2841037e-01
 -9.4440527e-02
 -8.4044522e-01
 -4.4822028e-01
 -3.5479078e-01
  7.0005697e-01
 -3.4117392e-01
  2.0171334e-01
 -4.6805796e-01
  5.1956803e-01
  3.1642082e-01
  1.6551390e-01
  4.2725474e-01
 -8.1647284e-02
  1.8695280e-01
  3.8725197e-01
 -1.2329082e-01
 -4.9054942e-01
 -6.2702343e-02
  1.4012344e-01
  2.8555089e-01
 -3.2096192e-01
  1.5181119e-02
  1.2230282e-01
 -6.2557894e-01
  5.8398064e-02
 -1.5244229e-01
 -4.1605301e-02
 -3.0918568e-01
 -3.2537976e-01
  1.1770444e+00
  1.3527808e-01
  4.9788290e-01
 -3.6854628e-01
 -3.1621724e-01
 -5.2062958e-01
 -2.3923640e-01
 -6.5111987e-02
  3.8005081e-01
  1.7543347e-01
  8.9518934e-01
  1.2447403e-01
 -8.7294495e-01
 -1.9171852e-01
  1.7460487e+00
 -2.9197806e-01
 -1.8870904e-01
  9.0628773e-02
 -2.4300221e-01
  2.2164099e-02
 -4.3842364e-02
  8.4826428e-01
 -1.8881723e-01
  6.1856973e-01
  4.5369181e-01
 -4.6518612e-01
 -5.9151840e-01
 -1.1842622e-02
 -1.9141050e-01
  4.8621574e-01
 -3.6728451e-01
 -4.6796210e-02
  2.9726979e-01
  7.3003240e-02
  1.8292958e-01
 -1.3647988e+00
  2.2119354e-01
 -4.9090583e-02
 -3.7247339e-01
  1.0714513e+00
  3.0228457e-01
  1.7120050e-01
  1.9111629e-01
 -2.3401721e-01
 -6.0274744e-01
 -9.3230343e-01
 -3.0350089e-02
 -2.0192392e-01
  8.7750658e-02
  2.2755280e-02
  8.2123202e-01
 -2.4088205e-01
  2.8261098e-01
  1.0319155e-02
 -4.0466702e-01
 -3.4948972e-01
  5.0167984e-01
 -2.9651500e-02
 -5.3225286e-02
  3.7467611e-01
  2.1792707e+00
  6.7894495e-01
 -1.7030288e-02
  3.2957312e-01
 -3.7341094e-01
 -8.1079818e-02
 -1.1719406e-01
  7.5987369e-01
  1.0138687e-01
 -4.1267174e-01
 -1.1597702e-01
  6.3806593e-02
 -3.1919089e-01
 -1.6352361e-01
 -6.3213736e-01
  4.1651475e-01
  4.9432850e-01
 -1.5673247e-01
 -5.9540168e-04
  8.4220475e-01
 -3.7540790e-01
 -3.0787259e-01
 -6.4183426e-01
 -4.8981801e-01
  2.0701218e-01
  1.9614309e-02
 -2.0364115e-01
  1.0514659e-01
 -6.0700965e-01
 -1.3158123e-01
  6.1292112e-02
  1.1718135e-01
  4.5760199e-01
 -2.5728452e-01
 -4.1503668e-01
 -5.9149608e-02
 -5.1851737e-01
 -3.6668169e-01
 -7.0895217e-02
  4.9148449e-01
  7.2107577e-01
  5.2160978e-01
  7.8523666e-01
  1.3299146e-01
  1.2149578e-01
 -5.3545254e-01
 -6.9446576e-01
  3.8724202e-01
 -1.3183944e-01
  1.5084320e-01
 -1.0904684e-01
 -9.3820438e-02
 -7.0957249e-01
  3.0442312e-01
 -9.2244104e-02
  1.2559448e-01
  5.8759665e-01
  1.6534416e-01
 -1.0378297e-01
 -1.0179615e+00
  1.4786085e-01
  5.8521110e-01
  1.0852459e-01
 -1.0398813e-01
 -1.0577611e-01
 -3.0118909e-01
 -4.2844310e-01
  4.1684040e-01
 -5.3652734e-02
 -1.4244059e-01
 -2.3928936e-01
  1.4268394e-01
  5.9583205e-01
  1.1861801e-02
 -3.6358887e-01
 -4.3873847e-01
 -1.1682944e-01
  1.5604597e-01
 -6.0065699e-01
 -7.1131343e-01
 -4.6821004e-01
 -4.6134159e-01
 -8.8817097e-02
 -2.3879424e-01
  1.4801663e-01
  1.1668306e-01
 -2.6367399e-01
  1.1997372e-01
 -1.5610963e-01
 -4.3053818e-01
  1.8229860e-01
 -4.7227079e-01
 -1.9207399e-01
  7.8732610e-01
 -4.8712157e-02
 -1.4791684e-03
 -6.7706525e-02
  4.2828031e-02
 -2.6248974e-01
  9.9247426e-02
  5.2931350e-01
  8.6682260e-01
 -1.1592732e-01
  2.8397314e-02
  8.1801414e-02
 -5.8674790e-02
 -4.3529712e-02
  6.3509864e-01
  8.0777556e-01
  1.0580790e+00
  2.5203079e-01
  5.6118977e-01
  8.8437295e-01
 -1.7285840e-01
 -4.7786269e-01
 -5.3733265e-01
  2.1659034e-01
  1.9076270e-01
  2.3607659e-01
  6.0887575e-01
 -5.5932004e-02
 -8.8710837e-02
  8.7278783e-02
 -3.5050738e-01
  1.7031763e-01
  2.1429850e-01
 -8.1527367e-02
  5.3198114e-02
 -2.7759784e-01
  2.9141814e-01
 -4.8421735e-01
  2.4803370e-02
 -3.5700184e-01
  5.1155716e-02
  8.1607008e-01
 -5.5523071e-02
 -2.6578286e-01
 -1.1736497e-01
  1.2778646e+00
 -4.6364287e-01
 -8.3093923e-01
 -2.9460695e-01
 -2.3910082e-03
  6.3106209e-01
 -7.0795453e-01
 -1.4605141e-01
  2.3422110e-01
  5.7966506e-01
  2.8572077e-01
 -9.0791889e-02
 -6.3842350e-01
  3.5325232e-01
  1.2315395e-01
  1.3214062e-01
  7.6703572e-01
 -4.1326514e-01
 -3.0049356e-02
  1.3023534e+00
  2.6207161e-01
  4.8772451e-01
 -1.2669761e-01
 -1.6366740e-01
 -6.8107414e-01
  5.9991044e-01
 -6.9903724e-02
 -1.9381273e-01
 -1.4022827e+00
 -3.2900432e-01
 -1.2807968e-01
 -6.7625880e-01
  2.9290345e-01
 -5.9001154e-01
  3.6155003e-01
  7.1840785e-02
  2.6233065e-01
 -7.7222899e-02
  6.5738589e-02
 -2.8012154e-01
 -3.6705372e-01
  1.3559900e-01
  1.2957695e+00
  9.6418522e-02
 -3.7923825e-01
  4.2734943e-02
 -3.0966216e-01
  4.7933114e-01
 -9.7359282e-01
 -3.1233551e-02
  9.2196710e-02
  1.3531345e-01
  1.7015411e-02
  9.9844843e-02
 -1.6377013e+00
  1.6343819e-01
  1.2803101e-02
  9.7969407e-01
  3.9467606e-01
  1.3882829e-01
  7.7265039e-02
 -7.0570344e-01
 -1.1941354e+00
 -8.7442659e-02
 -1.4592023e-01
 -5.3079136e-02
  3.6293530e-01
 -1.2563232e-01
  5.7505691e-01
 -2.7705288e-01
 -6.5441185e-01
  2.2018914e-01
 -1.0323087e+00
  1.8700138e+00
 -9.1847801e-01
 -1.2381767e-01
  8.2102913e-01
  4.7349659e-01
 -1.6367221e-02
 -6.9077238e-02
  2.7656671e-01
  7.9011872e-02
 -5.5207115e-01
  4.5959657e-01
  1.6615081e-01
  1.6041374e-01
 -1.1795647e-01
  2.8165886e-01
 -7.0968652e-01
 -1.3531805e+00
 -4.7563192e-01
 -2.1022291e+00
  1.1534106e-01
  1.7548035e-01
 -3.3034164e-01
 -2.8059717e-02
  5.0613261e-03
  9.8742418e-02
  2.6496321e-01
  3.4451905e-01
  5.1465237e-01
  1.5690619e-01
  1.3266309e-01
 -2.8754193e-01
 -1.6697364e+00
 -5.5455748e-02
 -1.7560907e-01
 -1.9566370e+00
 -3.9602760e-02
  1.2335516e-01
  3.1892832e-02
 -3.7680238e-01
 -1.1215481e+00
  2.6344535e-01
 -6.5785418e-03
 -5.2918535e-01
  4.2509720e-02
 -1.8381856e-01
  5.2416825e-01
  6.3615835e-01
  1.1354600e+00
 -1.1280460e-01
 -3.9414653e-01
  3.0729487e+00
  1.7926797e+00
 -3.4754142e-01
 -1.5782889e+00
 -6.0425544e-01
 -1.2050748e-01
 -3.0723146e-01
 -6.7178369e-01
  6.8726718e-01
  1.3903964e+00
 -4.6233639e-01
  2.3893449e+00
 -4.6732962e-01
 -4.8883933e-01
  1.6894392e+00
 -2.4951608e+00
 -1.6811093e+00
  1.6275425e+00
 -1.6136208e-01
 -1.4814728e+00
 -9.1168517e-01
 -3.2848683e-01
  1.5047671e+00
 -7.4012625e-01
 -2.0853245e+00
 -1.5922451e+00
 -3.4713945e-01
  1.0524793e+00
 -1.9593832e-01
 -5.9330244e-02
  1.6488039e-01
  5.8513111e-01
  1.1625192e+00
  3.8536471e-01
  3.8924387e-01
  1.4915701e+00
 -7.3658293e-01
 -2.3069658e+00
 -1.2824085e+00
  6.5892780e-01
 -3.3893064e-01
  1.2084002e-01
 -3.0214150e-02
  1.0725202e-01
  9.2293799e-01
 -6.5250379e-01
 -9.4187593e-01
 -4.4817400e-01
 -1.5422495e-01
 -5.4003537e-01
  3.3650115e-01
 -8.3284471e-03
 -7.3248273e-01
 -1.2828077e+00
  5.1800865e-01
 -1.5159047e+00
  8.7591273e-01
  5.7551485e-01
  1.6423682e+00
 -2.2941282e+00
 -4.5815066e-01
 -1.2489785e-01
  2.4981149e-01
  1.0332286e-01
 -2.0821923e-02
 -3.9434561e-01
 -3.0416900e-01
 -3.2922769e-01
  7.8839123e-01
 -3.7376717e-01
  8.9120024e-01
  1.0164793e+00
  1.0739180e+00
  2.7922694e-02
 -1.7615722e-01
  4.2491397e-03
  8.0759399e-02
  8.6498745e-02
 -2.6192731e-01
 -1.6406664e-01
  2.6574033e-01
 -4.6530995e-01
 -1.1921694e+00
 -2.6821190e-01
 -3.9927962e-01
  4.1763195e-01
  2.7820113e-01
 -2.5572848e-02
 -1.1456165e+00
  4.4993272e-01
  3.7943074e-01
 -7.2734877e-03
 -5.8775103e-01
 -3.3145852e-02
 -1.1436868e-01
 -1.1066542e-01
  1.7805955e-01
  4.3537804e-01
 -1.9631186e-01
 -1.1629231e-01
 -7.3942930e-01
  9.2017215e-01
  7.8827977e-01
 -9.1638577e-01
  2.4433088e-01
  2.0328358e-01
 -3.2664424e-01
  1.2604927e-01
  4.1896197e-01
  1.2694484e+00
 -8.7216385e-02
  1.8981062e-01
  9.3746734e-01
  1.3618551e-01
  1.1756454e+00
 -2.3300003e-01
 -1.0000661e-01
  1.0623136e-01
  1.1701454e+00
  3.1041160e-01
  3.9531890e-01
 -9.7824007e-02
 -8.2845213e-03
 -3.8403329e-01
  1.2752327e+00
  4.9205866e-02
 -9.9100530e-01
 -1.4815972e-02
 -2.3888227e-01
 -4.2497590e-01
  8.9397408e-02
 -5.7282656e-01
  2.8579384e-02
  4.8439452e-01
 -5.1312256e-01
 -5.3731404e-02
 -3.1227586e-01
 -1.9153507e-01
 -2.5037467e-01
  1.1921977e+00
  6.6118765e-01
 -3.5252315e-01
  8.2944566e-01
 -4.8733035e-01
  1.3295125e+00
 -9.8731190e-01
 -1.7934290e-01
  6.9086201e-02
 -2.7855247e-01
 -9.3092555e-01
  4.7300291e-01
 -8.0964141e-02
  1.1661457e+00
  6.5876621e-01
 -5.4203004e-01
 -4.9020237e-01
 -1.2727796e-01
  4.1743230e-02
 -2.8539774e-01
 -6.7674148e-01
  1.1393209e-01
  4.8382434e-01
  2.6768741e-01
 -5.4238009e-01
  8.2324639e-02
 -2.6591113e-01
  1.7022665e+00
  1.5484694e-01
  2.6029965e-01
  1.9085065e-01
 -1.2942418e-01
  2.3419284e-03
  5.9447449e-01
  8.8867396e-01
  2.1547176e-01
 -5.7133980e-02
 -1.0764582e-01
 -7.8152351e-02
 -6.8090773e-01
 -8.5807607e-02
 -4.7062841e-01
 -1.7929886e-02
  2.9135266e-01
 -4.9881867e-01
 -1.3546985e-01
  1.9798881e-01
  6.2913442e-01
  1.0740640e+00
  2.8969362e-01
 -3.2099918e-01
  7.6761061e-01
  2.5985658e-01
 -3.4655741e-01
 -4.9120646e-02
  1.2143311e-01
 -9.4085813e-02
 -6.3441023e-02
 -2.0886743e-01
  2.5029230e-01
  2.6182890e-01
  5.2562797e-01
  3.1858039e-01
  2.4777475e-01
  7.0319682e-01
 -1.4952950e-01
 -3.1611007e-01
  2.7582517e-01
  4.4925690e-01
 -2.3277454e-01
 -8.1630617e-02
 -2.7581912e-01
  1.1849605e-01
 -3.0795726e-01
 -5.2650690e-02
  4.8641029e-01
 -2.0870553e-01
  7.5919501e-02
  8.0975607e-02
 -1.1388459e-03
 -3.4752595e-01
 -6.3837314e-01
 -7.7596672e-02
 -1.1087041e+00
  5.0120008e-01
 -2.4269833e-01
 -8.7421662e-01
 -6.2212342e-01
 -3.6652526e-01
 -5.4158755e-02
 -1.6428539e-01
 -3.9150611e-02
  4.7783604e-01
  1.0766102e+00
  1.4328653e-01
 -2.7273533e-01
 -4.2578042e-01
 -4.5305908e-01
  9.3479818e-01
  5.2031600e-01
  3.4142604e-01
  3.2332015e-01
 -3.1910893e-02
 -6.9546306e-01
 -6.3364166e-01
  3.9706662e-01
 -2.6650181e-01
  2.6116261e-01
  5.2141014e-02
  2.0770726e-01
  1.6241363e-01
 -1.7064835e-01
 -1.7214833e-01
  3.4244975e-01
 -2.1390493e-01
 -4.8107359e-01
  1.1345947e-01
 -6.6162981e-02
  5.0730842e-01
 -5.1784891e-01
  1.1084371e+00
  3.7268642e-01
 -2.3665886e+00
  2.4263129e-02
  2.7813208e-01
 -3.8590100e-01
  4.5165603e-04
  3.3619475e-01
 -9.1050938e-02
 -7.9645205e-01
 -6.1827987e-02
  2.1915148e-01
 -3.4052569e-01
  7.4836791e-01
  2.6233101e-01
 -1.9079761e-01
  1.4512532e+00
  1.5051061e-01
 -6.3568830e-01
  2.7615696e-01
  1.6342209e-01
  2.0386198e-01
 -4.7933321e-02
 -2.8779158e-01
  6.6796887e-01
  2.2873709e-02
  1.1408614e-01
 -2.5224061e+00
 -1.7051193e-01
 -3.4808102e-01
 -8.1947994e-01
 -1.5838383e-01
 -4.7436514e-01
 -5.0534792e-02
  3.0109611e-01
  4.9270138e-01
  4.4767371e-01
 -3.5952178e-01
 -4.3740863e-01
  1.6454819e-01
  2.5122881e-01
  2.9937452e-01
  1.4660814e-01
 -2.5011840e-01
  4.0573376e-01
  1.3237114e+00
  2.6417119e-02
 -3.7388220e-02
 -2.9435736e-01
  6.5239936e-01
  3.1287464e-01
 -3.2183674e-01
 -3.5424066e-01
  8.5673058e-01
 -1.7482170e-01
  2.5964108e-01
  9.0581453e-01
  1.0716228e-01
  2.2222245e-01
 -9.3174887e-01
  3.4961432e-01
 -3.1847745e-01
  1.2169974e-01
 -9.4738185e-02
 -1.1217190e-01
  4.0192738e-02
  1.9394697e-01
  2.2784650e-01
 -7.1116649e-02
  4.4472378e-01
  1.2714338e-01
 -5.0357569e-02
 -4.2234412e-01
 -1.7449559e-01
  9.3048149e-01
  2.8133082e-01
  4.5968425e-01
  2.1274674e-01
  6.5380168e-01
 -5.1767606e-01
 -1.0684152e+00
  1.1136913e+00
  1.6749103e-01
 -3.4846666e-01
 -9.5589530e-01
 -3.2124317e-01
  5.6548607e-02
  2.5387283e-02
  3.7758464e-03
 -9.2603379e-01
 -3.7935245e-01
 -6.2796392e-02
 -5.7369769e-01
 -3.2438591e-01
 -2.3360014e-01
 -3.7800487e-02
 -4.0219778e-01
  8.6354889e-02
 -2.7097863e-01
  2.3142484e-01
 -1.0659606e-01
 -5.1378125e-01
 -2.0361623e-01
 -6.8386775e-01
 -4.9644130e-01
 -3.0778393e-01
  2.6785016e-01
 -2.7010974e-02
  3.8906198e-02
 -4.5921654e-01
 -2.8152975e-01
  1.4585765e-01
 -2.1456929e-01
  1.8669789e+00
 -9.0578169e-01
 -5.7516042e-02
 -4.7376630e-01
  6.0367131e-01
  8.8384815e-02
 -3.0909091e-01
 -3.8079098e-01
  3.1490576e-01
 -7.4178243e-01
 -7.1768743e-01
 -5.4529643e-01
  5.0185794e-01
  6.1375332e-01
  1.3285385e-01
  4.6965680e-01
 -6.0193658e-01
 -7.8876065e-03
 -6.6483900e-02
  6.8795398e-02
 -4.6129259e-01
 -2.9864714e-01
 -1.8617426e-01
  1.8995883e-01
  2.3202533e-01
  6.8597430e-01
 -6.9945043e-01
  1.2827249e-02
  3.5389076e-04
 -6.8320501e-01
  1.2382710e+00
  4.0701412e-02
  3.2590613e-02
  3.3516338e-01
 -2.5958246e-01
  4.6698608e-02
  4.3529195e-01
  2.8201485e-01
  8.3843932e-02
 -4.4822551e-02
  9.0323734e-01
 -3.7286204e-01
  1.1558414e-01
  9.5631219e-02
  8.4574915e-02
 -4.6957225e-01
 -8.7501794e-01
  2.3980741e-01
  3.3168742e-01
 -2.4700494e+00
 -5.9401762e-02
  6.4507693e-01
  4.7523311e-01
  3.8826463e-01
 -6.0561579e-01
  9.1665125e-01
 -1.6375268e-01
  4.5464283e-01
 -5.6519717e-01
  8.5777545e-01
 -1.3413135e+00
 -3.4237853e-01
 -3.3915207e-02
  4.0241491e-02
  4.1870881e-02
  3.3538032e-01
  2.3404175e-01
 -2.5571507e-01
 -3.2982865e-01
  1.1160620e+00
  9.8783962e-02
 -1.7188312e-01
 -2.0695481e-01
  9.7727448e-01
 -1.1250583e-01
  1.1571626e-01
  8.6712039e-01
  5.5970871e-01
 -2.8788584e-01
 -2.0112701e-01
 -7.8578389e-01
 -1.2862094e-01
 -1.4109632e-01
 -5.9671082e-02
 -4.1535994e-01
 -4.2751085e-02
 -3.1407166e-02
  1.0055102e+00
 -1.5665641e-01
 -8.6115581e-01
  1.8067847e-01
  2.4760060e+00
 -8.5879467e-02
 -1.9824596e-01
  4.3240866e-01
 -1.7786981e-01
  5.5104113e-01
  5.1158119e-02
  6.6230029e-01
  4.2422581e-03
  4.6506271e-01
  2.3560042e-02
 -1.1131533e+00
 -5.6545027e-02
 -3.1336736e-02
 -1.1669902e-01
 -6.4471729e-02
 -2.8719136e-01
 -1.4757457e-01
 -3.8009364e-02
 -5.5794537e-01
  4.1761128e-03
 -2.0138538e-01
 -1.8975205e+00
 -3.8293324e-02
  3.4326947e-01
  4.6969095e-01
 -1.7002236e-02
  4.5367888e-01
  4.5221931e-01
 -3.2966325e-01
  3.5531285e-01
  2.3786166e-01
 -4.0230787e-01
 -8.3071297e-01
  1.8461954e-02
 -3.3502707e-01
  7.8238559e-01
  3.2279667e-01
 -1.7604166e-01
 -5.2288204e-01
  9.4288096e-02
 -1.1966443e+00
  7.0727873e-01
  1.3456078e-01
 -1.2724385e-01
 -6.6160905e-01
  1.7346720e-01
  2.7631775e-01
 -5.3561568e-01
 -1.2280931e-01
 -2.6531178e-01
 -1.2155123e-01
 -1.2079078e-01
 -7.8338526e-02
  4.2152938e-01
 -7.3280448e-01
  3.5823381e-01
  1.5455715e-02
 -4.8165518e-01
 -3.6762351e-01
 -4.5592019e-01
  9.7378135e-02
 -2.1229908e-01
  4.7326916e-01
 -1.3814613e-01
  4.4998091e-02
 -2.6384589e-01
  1.5096810e-01
  6.2689322e-01
  4.0039578e-01
  4.3268469e-01
 -8.8198945e-02
 -2.7442497e-01
 -7.5498050e-01
  2.7529818e-01
 -6.2704074e-01
  2.9689157e-01
  1.2605387e+00
  4.3620389e-02
  1.5644909e+00
 -5.3256184e-01
 -1.8456738e-01
  1.2009203e-01
 -3.3462188e-01
 -6.0555011e-01
  1.0075802e+00
 -5.1152205e-01
  9.9696428e-01
 -3.9069321e-02
 -6.0662919e-01
  7.1647865e-01
  2.7405360e-01
 -3.4116313e-01
 -3.3816743e-01
 -3.6813477e-01
 -1.8703389e-01
  7.9534598e-02
  7.0119910e-02
 -1.6647452e-01
 -1.0198473e+00
  2.6376802e-01
 -9.9294204e-01
 -2.3100223e-01
  8.4689665e-01
 -2.5455308e-01
 -3.8632691e-01
 -3.9579153e-01
 -1.0658258e-01
 -3.2538405e-01
 -1.8065983e+00
  4.8774531e-01
 -1.0479327e-01
 -5.2685434e-01
 -5.6710827e-01
 -4.7944108e-01
 -1.0122458e+00
 -2.6295018e-01
  8.0270968e-02
 -6.6650905e-02
 -1.6267093e+00
  3.0975515e-01
  7.6400846e-01
 -2.1690293e-01
 -1.0739321e-01
 -1.2050678e+00
 -3.0356032e-01
 -8.2929885e-01
  3.2973355e-01
  7.1894091e-01
 -5.2430749e-01
  3.5788390e-01
  3.2169765e-01
 -5.6012052e-01
  2.8913784e-01
  1.1534879e+00
  2.7652711e-01
 -9.0890639e-02
 -7.3838264e-01
 -3.0186084e-01
  2.9183838e-01
 -1.2313332e-01
  1.3755079e-01
 -1.2819566e+00
  2.5389925e-01
  1.8320717e-02
  1.3977753e-01
  5.9091723e-01
 -8.7582678e-02
 -8.2459527e-01
  3.6763808e-01
 -2.5457829e-01
  1.7479001e-01
 -1.6016552e-01
 -4.0205723e-01
 -9.0582120e-01
  1.2138092e-01
  1.5772874e+00
  4.0774815e-02
 -3.1030655e-01
  2.5597775e-01
 -6.1485600e-01
  9.0597308e-01
 -1.5289859e-01
 -1.5478758e+00
  8.8461846e-02
 -9.5815003e-01
  8.7426317e-01
 -6.3215208e-01
 -3.5502338e-01
  2.1244544e-01
 -3.9925513e-01
  1.5591374e-01
 -4.5780754e-01
 -3.8644471e+00
  3.6330804e-01
  2.0098852e-01
 -3.2558641e-01
  2.4234554e-01
  5.6515157e-01
 -4.2612734e-01
  6.7142379e-01
  2.3067702e-01
 -6.3947874e-01
  1.6257787e-01
  1.1662742e+00
 -5.6764323e-01
  7.1883656e-02
 -6.3298136e-02
 -6.1040533e-01
  2.0038128e-01
 -7.2628647e-02
  1.5724710e-01
 -2.6155233e-01
  9.6727657e-01
  2.4969907e-01
  1.0196729e+00
 -7.3006026e-02
 -6.6275626e-01
  5.2081402e-02
  8.2541086e-02
  8.9401565e-03
  2.7293530e-01
  4.3386629e-01
  2.3979204e+00
 -5.2068031e-01
  2.3087457e-01
  3.4735495e-01
  5.7231611e-01
 -5.0973880e-01
 -3.8992885e-01
  2.2162411e-02
  1.1196253e+00
  1.0175301e-02
  6.4113355e-01
  9.1260153e-01
 -4.7023839e-01
  5.3693789e-01
 -6.7884579e-02
 -1.7404969e+00
 -1.2672921e+00
 -8.9689517e-01
  3.4606344e-01
  1.7232597e-01
 -8.8767296e-01
  1.3361087e-01
 -4.8903012e-01
  5.5041254e-01
  5.8537197e-01
 -2.9179398e-02
  1.1347195e-01
 -4.4982108e-01
  3.5471070e-01
  1.8072635e-01
 -8.1295446e-03
  8.2892030e-02
  1.0150610e-01
 -2.1946098e-01
  4.9373531e-01
  3.6015497e-03
 -8.1736624e-01
  1.1405172e+00
 -1.8592719e-02
 -1.6604707e-01
 -4.8176822e-01
 -6.1819769e-02
 -2.5364489e-03
 -1.0650395e+00
 -2.8133199e-01
  2.7192262e-01
 -2.4104764e-01
 -5.9715694e-01
  5.4887748e-01
 -9.9076647e-01
 -2.8545877e-01
 -1.3270431e+00
  2.8790739e-01
 -2.0027740e-02
  3.3680463e-01
 -4.5831057e-01
 -3.5028532e-02
 -1.4937851e-01
  4.0789619e-01
 -8.7761909e-01
  7.3013650e-03
 -1.8692760e-01
 -1.1217915e-01
  3.2324868e-01
  1.5586484e-02
  1.9070283e-01
  5.9666497e-01
  2.1509780e-01
  4.0016979e-01
 -1.9285952e-01
  8.2823592e-01
 -2.6192021e-01
 -1.4154018e-01
 -2.1958062e-01
  5.2887000e-02
 -2.3804194e-01
  4.2345336e-01
  1.3982537e-02
  2.2148008e-02
 -2.6306432e-01
 -3.6411053e-01
  9.8595954e-02
  2.5397571e-02
 -1.0884768e+00
  3.2943895e-01
 -9.0994306e-02
 -6.9523001e-01
  2.6959649e-01
  7.9554033e-01
  6.8518236e-02
  3.9241296e-01
 -2.2005518e-01
 -5.2337717e-02
  6.9518363e-01
  1.1735056e-01
  1.8598631e-02
 -8.4733777e-02
 -7.5855501e-02
 -4.9085975e-01
 -3.5820705e-01
 -1.5667928e-02
  2.0252317e-01
 -2.0387639e-01
 -3.6385238e-01
  7.0855916e-01
 -1.9413529e-01
  1.4775878e-01
  9.0777445e-01
 -1.5183089e+00
  1.1823891e-01
  3.4585634e-01
 -2.4571039e-01
 -2.5498089e-01
 -1.5458749e-01
  1.9223826e-01
  4.8344690e-02
 -5.3432679e-01
  1.2746472e+00
 -1.8479230e-01
  5.8271819e-01
 -9.6315491e-01
  9.4269073e-01
  2.1487844e-01
  3.5357618e-01
  1.3545578e+00
  1.1109817e-01
  3.6859623e-01
  1.7377307e-01
 -2.5587544e+00
 -4.1548637e-01
 -1.7525473e-01
 -4.5464772e-01
 -3.9557211e-02
  9.2016019e-02
 -2.1895622e-01
 -1.4535301e+00
 -8.8969646e-03
 -4.8708954e-01
  2.2781171e-01
 -3.0516772e-02
 -1.4342346e+00
 -5.0831920e-01
  3.2960743e-01
 -2.2899444e-01
 -7.3364520e-01
  3.3739690e-02
 -1.4368750e+00
 -4.3918455e-01
 -2.3528366e-01
 -1.8692295e-01
  9.6016489e-03
  4.1068804e-01
 -7.1706235e-01
  2.1341801e+00
  2.5110368e-02
  1.2114218e+00
 -4.4668773e-03
 -7.9916203e-01
  1.3704765e-01
  1.2023356e+00
  7.0902354e-01
  7.2849435e-01
 -2.0820003e+00
  1.1365422e+00
  7.7735972e-01
 -1.2217040e+00
 -1.9671509e-01
 -3.9018092e-01
 -8.5009748e-01
  1.1897647e+00
  8.3559394e-01
 -6.3243645e-01
  1.2170351e+00
 -7.8384304e-01
  1.4303757e-01
  4.4262198e-01
  5.4774266e-01
  5.0616336e-01
 -3.9188951e-02
  3.3106363e-01
  3.1607679e-01
  2.4997978e-01
  4.5594834e-02
 -3.7850267e-01
  4.9727023e-02
  4.8003092e-01
  1.2439181e+00
 -2.2242562e-01
 -4.4583192e-01
  6.5108180e-01
  1.2461398e+00
  8.0648571e-01
  1.0766908e+00
 -1.7200714e-01
 -3.5218003e-01
  2.6051682e-01
  2.5018957e-01
  7.2793566e-02
 -2.0494578e-02
  4.8737265e-02
 -1.7079817e-01
 -8.0967888e-02
 -1.5899208e-01
  5.9944816e-02
  9.6954626e-01
  5.6248653e-01
  6.7622997e-02
  9.7894382e-01
  6.4464718e-02
  9.4949985e-01
 -4.3262027e-02
 -3.3296266e-01
  9.1254050e-01
 -1.7937993e-01
 -4.1815495e-01
  1.2880416e-02
 -1.5135303e-01
  1.0617457e-01
 -1.4167690e-01
  3.5699639e-01
  7.1127039e-01
  4.8989099e-01
  2.6816252e-01
 -1.4320342e-02
  5.0260622e-02
 -1.9328254e-01
  3.7641174e-01
  2.8721443e-01
  1.7307596e+00
 -3.9359832e-01
 -3.0599888e-02
 -1.7782943e-01
 -6.1663389e-01
 -6.6323876e-01
 -1.6144659e-01
  2.0509262e-01
  3.9474487e-02
 -8.4357005e-01
 -2.1089454e-01
  2.6398543e-01
 -2.0037381e-01
 -4.5249254e-01
 -5.7424796e-01
  4.4729412e-02
 -2.5373626e-01
 -5.4890525e-01
  5.3982472e-01
  5.2331066e-01
 -1.8257200e+00
 -3.8331890e-01
 -6.2587571e-01
 -4.8890144e-02
  4.4136074e-01
  6.5440917e-01
  1.6217340e-02
  7.0961660e-01
  7.8006722e-03
 -1.0232482e-01
  3.0940324e-01
 -7.7525032e-01
 -7.9291865e-02
  5.7728094e-01
  1.4853469e-01
  8.2949482e-02
 -2.6775604e-01
  7.4314237e-01
 -2.4604313e-01
 -3.9737642e-01
  1.8302968e-01
 -2.9456913e-03
 -6.1403269e-01
 -2.7138779e-01
 -2.0229407e-01
  2.3513781e-01
 -4.8814151e-01
  6.3148223e-02
 -6.3780552e-01
 -3.6475515e-01
 -1.4893124e+00
 -1.7777752e+00
 -2.2055066e-01
  8.3103901e-01
 -4.1887623e-01
  5.8453691e-01
 -5.5912597e-04
 -4.9378671e-02
  9.5105994e-01
 -1.7393588e+00
  1.0346078e+00
  3.4619965e-02
  8.6968875e-01
 -2.7341384e-01
  7.1727967e-01
 -2.3374210e-01
 -4.9521020e-01
 -1.5626837e-01
 -1.4276172e-01
 -2.3650880e-01
 -5.1579791e-01
 -9.2607737e-02
 -8.5671520e-01
  5.7169718e-01
 -4.8505226e-01
 -5.0328039e-02
  5.2552402e-01
 -1.2520580e+00
  2.1027526e-01
 -7.7500767e-01
 -1.0629400e-01
  3.9000672e-01
 -2.0675211e+00
  1.4538713e-01
 -4.8328188e-01
 -1.0721172e-01
 -1.6082716e+00
  1.1302555e-01
  1.2104278e+00
 -7.2177702e-01
 -2.5848249e-01
 -8.0679454e-02
  2.6956502e-02
 -4.6805966e-01
  1.3145129e-01
  5.7160640e-01
  1.0756649e-01
 -1.5961347e+00
 -3.6485052e-01
 -1.0291591e-01
 -9.8212248e-01
 -8.4696384e-03
 -2.4729412e-02
  1.7356934e-01
  1.8740524e-01
  2.5400409e-01
  7.0689827e-02
  4.2705929e-01
  2.1313728e-01
 -7.7022004e-01
 -4.5317927e-01
  2.8743040e-02
 -1.1564409e+00
 -1.2569769e-01
  1.3219297e-01
  2.1338695e-01
  6.2971696e-02
  1.6777854e-01
 -6.6501486e-01
  2.5437289e-01
  4.1275346e-01
  4.3464220e-01
  2.7569535e-01
  3.3198965e-01
  8.2544941e-01
  3.3866346e-02
  1.5863925e-01
 -7.5434101e-01
  9.2463605e-02
 -5.1522809e-01
 -4.5732850e-01
  2.8088772e-01
 -1.4679833e-01
  4.5236444e-01
 -1.0913044e+00
  1.1558499e+00
 -6.2550658e-01
  3.6034021e-01
  2.6081654e-01
 -8.1910187e-01
 -1.5976977e+00
 -8.8843353e-02
  2.8074241e-01
  2.6118499e-01
  1.1889675e-01
  1.8312764e-01
 -3.8741675e-01
 -2.2813240e-01
  2.7479112e+00
 -3.5180965e-01
 -3.0658728e-01
 -1.1698524e-02
 -1.0716014e-01
 -1.6157936e-03
 -1.0690700e-03
  7.4322782e-02
 -3.5510826e-01
  4.1540112e-02
 -8.2397687e-01
 -2.0934996e-01
  3.6320010e-01
 -1.2571348e-01
 -2.1297288e-01
 -1.2330247e-01
 -1.2140045e-01
 -3.4408242e-01
  4.8378351e-01
 -1.7093332e+00
 -1.6809289e-01
  2.9646745e-01
  9.4278806e-01
 -1.7829672e-01
  2.1255194e-01
 -7.8489602e-02
  4.5446479e-01
  7.4021000e-01
 -2.3985958e-01
 -4.3607506e-01
 -4.5447022e-01
  5.9959587e-02
  2.4410890e-01
  4.3003978e-03
 -1.4789537e-01
 -4.7954786e-01
  1.8195057e-01
  1.4518226e-02
 -2.7771810e-01
 -6.2064028e-01
 -1.8791687e-01
 -2.2060189e-01
 -1.0072206e-01
 -4.6551546e-01
  1.0319691e-01
 -7.5081132e-02
  1.1890793e-01
 -4.4177443e-02
  4.2259995e-02
  2.2170442e-01
 -4.0037894e-01
 -8.5418713e-01
 -2.2747204e+00
 -9.5220603e-02
  2.6036599e-01
 -5.8165532e-02
  1.3535519e-01
  8.6042660e-01
 -4.8353991e-01
  1.3030278e-02
  5.9056079e-01
 -8.5782325e-01
  6.5971118e-01
  1.0524908e-01
 -4.3501660e-02
  8.9428461e-01
  5.8401793e-01
 -1.1463655e-01
 -1.7894489e-01
 -1.2814056e+00
 -2.0044021e-01
 -6.6032238e-02
  5.6351030e-01
 -3.5538030e-01
 -4.9486455e-01
 -6.1831404e-02
  1.1307447e-01
 -5.5996561e-03
  2.2706351e-01
 -7.0635265e-01
  2.7737805e-01
  1.7264122e-01
 -9.0297341e-01
 -2.2267158e-01
  2.3265192e-01
  4.6261144e-01
 -2.4937877e-01
 -1.9100668e-02
  1.1391838e-03
 -4.0217406e-01
 -2.5862387e-01
  4.8356202e-01
 -4.2855430e-02
  2.2111227e-01
 -4.2032287e-01
  2.0300812e-01
  2.2004116e-01
  9.3362463e-01
 -2.9532626e-01
 -2.1793760e-01
 -4.8633924e-01
  4.1098952e-01
 -2.7410099e-01
 -1.4173681e-01
  1.6264072e-01
  3.2543163e+00
 -4.6527550e-01
 -3.8134651e-03
  8.2371056e-02
 -2.8987482e-01
  1.4889066e-01
 -1.2146724e-01
 -8.2140639e-02
 -7.4973360e-02
  8.0567658e-01
 -7.5847286e-01
 -2.4294779e-01
 -2.9028578e-02
 -4.5917678e-01
 -8.6524630e-01
  3.7019271e-01
  8.1099361e-01
 -3.3050898e-01
 -3.9216317e-02
 -4.1114473e-01
  6.2909496e-01
 -6.7048214e-02
  1.6295241e-02
  8.0979705e-02
 -9.8858202e-01
 -9.5182407e-01
 -7.5113583e-01
  6.4693964e-01
  2.3054226e-01
 -6.7733347e-02
  3.7218890e-01
 -2.7932784e-01
 -4.4908488e-01
  8.0931950e-01
  8.5682660e-01
  1.9141652e-03
  1.0744461e+00
 -1.4778402e-01
  2.2846039e-01
  5.4421502e-01
 -7.1504122e-01
 -1.2769765e-01
 -1.8560946e-01
  1.9381733e-01
 -3.9785099e-01
  1.5511392e-01
  4.1697568e-01
 -5.1812578e-02
 -7.6290190e-02
 -7.4399579e-01
  1.9155949e-02
  6.9608235e-01
 -1.1594884e+00
  3.3365312e-01
  2.7330050e-01
 -1.2423960e+00
  3.5688278e-01
 -8.7439500e-02
 -2.1917963e-02
 -4.3500090e-01
  7.5420365e-02
 -4.4733745e-01
 -7.0122367e-01
 -6.4821923e-01
  1.2134345e+00
  1.1206594e+00
 -5.3971231e-01
  5.7959884e-02
 -4.9109001e-02
 -2.6930878e-01
 -1.6879471e-01
  2.1062045e-01
  3.1964061e-01
 -3.7624437e-01
 -4.2275209e-02
  3.6379391e-01
 -2.5633180e-01
 -4.7221813e-02
 -4.2616080e-02
 -3.5844529e-01
 -3.1025830e-01
  7.6971672e-02
 -1.5351523e-01
 -9.4573963e-01
  8.9430475e-01
  1.3473237e+00
  1.2916051e-01
  9.9849194e-02
  2.4710758e-02
 -6.2630111e-01
 -2.1270437e+00
  1.5927389e-02
  3.6849189e-01
 -8.8630833e-02
 -1.2926182e+00
  4.8784196e-01
  6.3692287e-02
 -2.1435477e-01
 -8.9269501e-01
 -3.9398035e-01
  3.3643663e-02
  7.9862285e-01
  4.0116009e-01
 -1.6310276e-02
  6.1140025e-01
 -1.6876167e-02
  4.0517846e-01
  6.1052382e-01
 -3.0486686e-02
  2.5339575e+00
  7.4011661e-02
  1.2699853e-02
  2.1941693e-02
 -2.5100482e-01
  4.5089722e-01
  1.5064465e-02
 -4.4932567e-05
  1.1631962e+00
  9.4362207e-02
  1.5453943e-02
  4.0427518e-01
  7.4363571e-01
 -6.2690161e-02
  1.0687696e-01
 -7.1019687e-02
  8.9903660e-02
  4.0082973e-01
  3.7397692e-01
  2.1547217e-02
 -1.6678648e-01
  1.7957217e-01
 -4.2977905e-01
  2.3838697e-01
  1.7912389e-01
  1.2054436e+00
 -7.5884002e-01
 -2.5389264e+00
 -7.7484834e-01
  1.8347043e-01
 -6.6284299e-02
  1.4696666e+00
  8.3402149e-02
 -1.8593024e-01
  1.2705034e+00
  2.4735183e-03
  6.5003902e-01
  1.7789979e-02
 -2.0227803e-01
  1.6628699e-01
 -2.3952192e-01
  1.9814762e-01
  1.7317125e+00
  1.1323327e-01
 -1.1448327e+00
  1.6895700e+00
 -2.4309397e-01
  2.6076645e-01
 -1.4527851e-01
 -4.8091488e+00
  2.0976679e+00
 -1.1670220e-01
 -6.8071254e-02
  9.1068053e-01
  5.9230429e-01
 -2.3187454e-01
  1.0981259e-01
  1.8566093e-01
  7.5216699e-01
  3.3930638e-01
 -6.0953252e-02
 -6.2939477e-01
 -1.5511891e-01
 -1.0508546e-01
  4.9956278e-03
 -1.6610096e-01
  1.0508192e+00
  1.4350918e-01
  4.6400818e-01
 -8.3093274e-01
  7.1784861e-02
 -6.3971895e-01
 -6.3666075e-02
 -5.6029022e-01
 -5.4756874e-01
 -4.0503743e-01
  8.5805189e-03
  3.8694179e-01
  2.5928089e-01
  4.1408962e-01
  3.5717249e-02
  2.6186350e-01
 -7.0192838e-01
 -2.0984147e+00
 -1.3522540e-01
 -1.8431351e-01
  3.1288186e-01
  4.5738471e-01
  2.2177380e-01
 -2.0011574e-02
  9.0508610e-02
 -8.2679726e-02
 -6.8826757e-02
  3.6742705e-01
  1.2702999e-01
 -6.2919772e-01
  5.6178498e-01
 -2.3374519e-01
 -2.1276332e-01
 -2.7325988e-01
  1.0817964e-01
  4.0913996e-01
  1.1697572e-01
  3.4952784e-01
  7.2163075e-02
 -1.7043464e-01
  6.2978506e-01
  2.6659393e-01
  6.8356699e-01
 -4.0942974e-02
  4.2715824e-01
 -2.8405041e-01
  3.7099773e-01
 -7.2995210e-01
 -7.3721266e-01
 -2.6753694e-01
  1.1112386e+00
  1.3925359e+00
  3.2692793e-01
 -2.2930150e-01
  1.3551144e-01
 -2.5440574e-01
 -3.7361282e-01
  7.3820657e-01
 -9.7872756e-02
  3.6584885e+00
  1.3108255e-01
 -3.9415279e-01
  5.8230806e-02
  7.6433033e-02
 -4.1036817e-01
  5.7222027e-01
  2.4390350e-01
 -7.3006278e-01
 -5.6593388e-02
  1.1395804e-01
 -2.9248542e-01
  2.7582001e-02
 -3.2380868e-03
 -2.0858784e+00
 -4.9940282e-01
 -3.2568578e-02
  1.0093940e+00
  1.1777089e+00
 -1.2961265e-01
 -4.2600999e+00
 -1.8464020e-01
 -9.8486537e-01
 -3.3854717e-01
 -2.5801520e+00
  5.0281622e-02
 -7.9735672e-01
  1.8195313e-01
  5.2156347e-01
  6.2526965e-01
  8.2175088e-01
  9.2245466e-01
 -7.8628056e-02
  2.3034820e-01
  5.1541007e-01
  1.9713759e+00
  2.0038940e-01
  6.9815928e-01
  8.7426823e-01
  8.4642518e-01
 -2.6807275e-01
  1.9386685e-02
 -1.1992596e+00
 -1.0801269e-01
 -2.0170600e+00
 -1.0920900e+00
 -1.2020793e+00
  2.0483643e-01
  6.9255006e-01
 -5.4781461e-01
 -4.4799674e-01
  1.1998475e-01
 -1.4495194e-01
  3.2751983e-01
  1.9083507e-01
  2.9226258e-01
 -8.6548042e-01
 -3.4033838e-01
 -4.5636606e-01
  1.7974813e-01
 -2.5912747e-01
 -2.7272427e-01
  2.8634423e-01
  6.8557620e-01
 -7.0289979e-03
 -4.0020216e-02
  5.1677907e-03
 -3.1724781e-01
  5.4003137e-01
 -2.8859768e-02
  3.0110694e-02
  1.4783149e+00
 -9.6837229e-01
 -1.1507132e-02
  1.1327313e+00
 -6.2984712e-02
  1.1906226e-01
 -1.7743121e-01
  5.6188013e-02
  2.8293425e-02
  9.4075853e-01
 -1.5179753e+00
  6.5132719e-01
 -1.4073828e-01
  4.8181880e-01
 -9.0824676e-01
  5.8235109e-01
  2.2438429e-01
 -2.3894610e-01
  4.6630165e-01
 -2.8825608e-01
  9.7978377e-01
 -5.1456541e-01
  5.8188665e-01
 -2.1643128e-01
 -8.0836795e-02
 -4.4780523e-01
  3.6398968e-01
 -2.1755213e-01
