nep4 5 C N H Pb I 
cutoff 8 4 115 19
n_max 6 4
basis_size 12 12
l_max 8 2 1
ANN 50 0
 -1.1660472e-01
 -1.2885640e+00
 -2.9130188e-01
  4.0064582e-01
  3.6104453e-01
 -4.0145956e-02
 -3.5311610e-01
  6.2375116e-01
 -8.4834462e-01
 -1.5718804e-01
  1.3838618e-01
 -2.9225195e-02
 -3.0603400e-02
  1.5274973e-01
  2.4741121e-01
  2.6265666e-01
 -6.3182376e-02
 -1.8114519e-01
 -8.3124332e-02
 -5.4023999e-01
 -6.9947414e-02
 -1.9125987e+00
  7.8811765e-01
  1.2057638e-01
  9.5192593e-01
 -4.6455104e-02
  2.5432304e-01
 -8.9294113e-02
 -1.9471762e-01
  1.6199107e-01
 -4.3197784e-01
  1.2369345e-01
 -3.2811511e-01
  4.5794201e-01
  2.1744413e-02
 -3.0301207e-01
  1.5788127e+00
 -2.7642825e-01
  3.5804568e-03
 -2.5951093e-01
 -7.8296416e-02
 -2.6408747e-01
  2.7108517e-01
  6.3721168e-01
  1.0989503e-01
 -8.6619131e-02
  1.3708335e-01
 -1.1430236e-01
 -6.0806546e-02
 -1.8485038e-01
 -1.7677893e-01
  2.9506156e-02
  2.5942421e-02
 -1.0726336e-01
 -3.5805139e-01
  1.3541460e-01
 -4.8844550e-02
  3.4232083e-01
 -2.1014917e-01
 -1.1382098e-01
  5.6555498e-01
 -1.3728537e-01
  5.2900791e-01
  1.0331957e+00
 -3.7429422e-01
  3.0530550e-02
  6.7946643e-01
 -1.6286942e-01
  5.3242572e-02
 -1.0023832e-02
  1.9597866e-01
 -4.8178458e-01
  4.5069572e-01
  2.8484330e-01
  7.5909823e-02
 -2.3522989e-01
  1.6248226e-01
 -4.1880950e-01
  3.6497682e-01
 -3.5647937e-04
  6.5057419e-02
 -1.6364934e-01
 -2.4472910e-01
  3.5278182e-02
  1.2192696e-01
  2.0940319e-01
  1.6285355e-01
 -4.9696542e-02
  1.8885009e-01
  5.3285122e-02
  1.5175616e-02
  2.3961648e-01
  1.1383810e-02
 -3.2221735e-01
  1.0549809e-01
 -1.3214248e-01
 -2.8535709e-01
  3.6588684e-02
  2.7879345e-01
  3.1301752e-01
 -3.3064317e-02
 -5.3649348e-01
 -9.8467231e-02
  6.0517663e-01
  1.4305648e-02
 -7.0728624e-01
  4.0976580e-02
 -9.7850108e-01
  3.1827006e-01
  8.9545533e-02
 -9.9895507e-02
  1.1983113e-01
  3.1287506e-01
 -2.9774311e-01
  9.5069200e-02
 -1.5075995e-01
  4.0991816e-01
 -1.7020369e-02
  1.3322501e-01
  4.1645545e-01
 -5.6168288e-02
  7.9665758e-02
  2.5867850e-01
 -9.8508939e-02
  4.8439268e-02
  4.4089103e-01
 -2.7902535e-01
 -3.1927046e-01
  3.9132565e-02
  1.3236880e-01
 -1.5062119e-01
 -4.9377719e-01
 -3.9926931e-02
 -1.0268573e-01
 -9.6122295e-02
 -3.6624220e-01
 -2.4498403e-01
 -3.1708902e-01
 -1.4393100e-02
  1.6467062e-01
 -9.0666288e-01
 -9.8128903e-01
  3.0473092e-01
  8.9974040e-01
  8.3294459e-02
 -7.3627857e-03
  2.2511259e-02
 -1.0416335e-01
 -4.2483112e-01
 -2.7586717e-02
 -2.5809300e-03
 -3.6320576e-01
  6.2624656e-02
  3.0104467e-01
  2.6525106e-02
  1.9917063e-01
  6.4009911e-01
 -5.5701059e-01
 -1.0143445e-01
 -1.1790179e-01
 -7.6908804e-02
  5.6527097e-02
  9.4190679e-02
 -4.9672118e-01
 -3.8294899e-01
  1.1110386e-01
  3.7334153e-01
  2.8779981e-01
 -3.0860028e-01
  6.0116868e-02
  2.1630044e-01
 -1.8813190e-01
 -3.0989587e-01
 -1.4730872e+00
 -1.5931340e-01
  6.4643763e-02
  1.3916899e-01
 -2.6451690e-02
  8.9459169e-01
  1.9219778e+00
 -6.3168126e-01
  1.3205977e-01
 -6.9501117e-02
  4.8723985e-03
  2.1009069e-02
  2.0662452e-01
 -1.0012785e-01
 -8.4201358e-02
 -1.7816039e-02
 -2.6178575e-01
  3.6003399e-01
  4.1951723e-03
 -6.4827017e-02
 -1.6725659e-01
 -2.9349444e-02
  4.3538667e-02
 -1.6856229e-01
  1.4334711e-01
 -1.3152009e-01
 -5.0501127e-02
  2.1413651e-01
 -3.0609930e-01
 -3.6872674e-02
  2.3088364e-01
 -3.2130861e-01
  2.6228827e-01
  2.7689010e-01
 -1.0949572e-01
  2.3254540e-02
  8.4337652e-02
  2.7808145e-01
  3.7590089e-01
 -6.5356418e-02
  4.5533177e-01
 -3.2012966e-01
 -2.1620888e-02
  2.8490776e-01
  1.6950859e-01
 -1.1995317e+00
 -2.5122008e-01
 -2.8180978e-01
  2.5176516e-01
 -9.4102681e-01
  2.3707408e-01
 -3.0002865e-01
 -9.0604119e-02
 -6.6974336e-01
  1.7853382e-01
 -1.6907343e-01
 -9.8846877e-01
 -4.2941427e-01
  9.4745174e-02
 -3.3021230e-01
  3.8719617e-02
 -1.4092760e-01
  1.1225803e-01
  9.7963601e-02
 -1.8657502e-02
 -2.4558415e-01
 -5.5470902e-02
 -3.2917105e-02
  9.7062448e-03
 -6.9939333e-01
 -1.3006368e-01
  1.0622961e-01
  2.5710061e-01
  8.6255062e-01
 -2.3995030e-01
 -1.3661161e-01
  9.1349304e-02
 -2.2479968e-01
 -3.1947207e-01
 -3.1561621e-02
  1.4938694e-02
 -3.4964660e-01
 -2.2479942e-01
 -3.1122074e-01
 -2.4327251e-01
 -2.8688308e-02
 -8.3570176e-01
 -6.6624470e-02
 -4.3068983e-02
  1.4456367e+00
 -2.6093516e-02
 -2.8934145e-01
  7.6592728e-02
  2.6266226e-01
 -6.9683746e-02
 -7.7298321e-02
  9.6606255e-02
  3.2803729e-01
 -3.5575068e-01
 -3.2144985e-01
  6.7075670e-02
  1.5588187e-02
  4.2941768e-02
 -2.1450056e-01
 -1.2314318e-01
  1.9712025e-01
 -3.5820422e-01
  3.0938017e-01
  2.5878513e-01
 -1.6534626e-01
  1.6313443e-01
  2.4631323e-01
  3.3589634e-01
  2.4772374e-01
 -2.5972310e-01
  2.0511596e-01
  1.3013677e-01
  1.2875529e-01
 -9.2195883e-02
 -6.5894312e-01
 -1.8670210e-01
 -8.4648716e-01
  4.8067307e-04
 -1.1340161e-01
 -2.6193297e-01
  7.1304016e-02
 -5.0479549e-01
 -1.6293368e-01
  1.7749283e-02
 -4.1714346e-01
 -3.2379016e-01
 -2.6706067e-01
  6.8731509e-02
  4.6870001e-02
 -2.1577935e-01
 -5.7967174e-01
 -2.2973751e-01
 -3.9862683e-01
  2.3527806e-01
 -5.9262291e-02
 -1.7023155e-01
  1.1606841e-01
 -9.5484301e-02
 -9.1353782e-02
 -4.1960046e-01
  7.2430663e-02
 -6.0819936e-01
 -2.3393759e-01
  3.0840922e-02
 -1.1320974e-02
  1.1608903e-01
 -4.9048069e-01
 -1.5455429e-01
 -3.5271659e-02
  3.3950299e-01
 -5.3575836e-02
 -3.6425069e-01
  1.1395367e-01
 -2.4395816e-02
 -1.3049662e-01
  4.5083586e-02
  2.3332149e-01
  4.5756510e-01
  3.5691565e-01
 -6.3068187e-03
 -4.4308940e-01
 -8.1513308e-02
  8.0478035e-02
  9.6160993e-02
 -1.8038256e-02
  3.8698882e-01
  1.3180380e-01
  3.0381693e-02
  1.5537119e-01
  3.3577883e-01
  2.0652749e-01
  1.0012755e-01
  3.1975903e-02
  8.5526608e-02
 -6.4965338e-01
 -2.7016586e-01
 -4.2954525e-01
 -8.9633547e-02
  6.8036921e-02
 -1.3676699e-02
  2.0869674e-01
 -5.3767520e-01
 -3.7736557e-02
 -3.5843340e-01
 -3.7173110e-01
  1.5851574e-01
 -5.4904550e-01
 -4.3372575e-02
  1.1013805e-01
  4.6231981e-02
 -1.3950847e-01
  2.4053068e-01
 -2.7437875e-01
  9.3039073e-02
  5.2473199e-01
  1.5752901e-01
 -7.5278729e-01
 -2.2170750e-02
  7.8368850e-02
 -3.2128295e-01
  7.3296660e-01
 -5.5667832e-02
 -1.1460298e-01
  5.1477814e-01
  9.6277261e-01
  5.2132946e-01
 -6.2199187e-02
  7.7082060e-02
  1.7552648e-01
 -9.8644823e-02
  5.0634748e-01
 -2.6026454e-02
 -3.0321747e-01
 -3.8708919e-01
 -1.1721519e-01
 -3.4814551e-01
  3.0515347e-02
  1.8834263e-02
 -2.5466472e-02
 -7.0378393e-02
  2.3011859e-01
  1.0838116e-01
  5.9124503e-02
 -6.1498165e-01
 -3.7736234e-01
 -4.8656065e-02
 -3.2010847e-01
 -9.3728259e-02
  2.7412754e-02
 -5.3437920e-03
 -2.6878148e-01
  1.7998624e-01
 -5.3804897e-02
 -3.5783954e-02
 -2.4413197e-01
 -2.4257822e-02
  5.0818408e-01
  2.4701181e-01
  1.1410862e+00
 -7.3732562e-02
  2.0274930e-01
 -5.7957485e-02
  1.8411918e-02
 -2.9776904e-01
  6.8889268e-02
 -6.1733589e-02
 -5.7671791e-01
 -1.2854135e-02
 -1.8223643e-01
 -6.6439182e-02
 -1.3587785e-01
  1.8028842e-01
  5.7999092e-01
 -8.9293189e-02
  6.2261039e-01
 -2.3244940e-01
  1.4685303e-01
 -1.5939683e-01
  1.4880091e-01
  3.2404062e-01
  1.8237616e-01
  1.5636085e-01
 -4.9925935e-01
  2.4137528e-01
  1.9720964e-01
 -6.4597809e-01
  1.3528898e-03
  4.3293862e-03
  2.2092611e-01
  2.6171224e-03
 -4.2690864e-01
 -9.7322427e-02
  1.4104892e-01
  5.5150145e-01
 -2.7022576e-01
 -1.6328028e-01
 -1.0640190e+00
  8.7910861e-02
 -6.5079987e-01
  8.1383791e-03
  1.7785028e-01
  3.5631448e-01
 -6.4536855e-02
  1.9077839e-02
  1.9998965e-01
  4.4186133e-01
 -4.3047462e-02
 -4.5805317e-01
 -2.0763843e-01
 -4.1138077e-01
 -8.1530355e-02
 -1.3464460e-01
 -1.6822594e-01
  3.1894150e-01
  5.6972849e-01
  2.9624251e-01
 -4.1268870e-01
  1.3714767e-02
  4.9820483e-02
 -2.7971241e-01
  7.4747197e-02
  2.0504375e-01
  3.6111581e-01
 -2.8623038e-03
 -1.3460192e-01
  3.3170659e-02
  9.4043829e-02
  3.1568623e-01
 -2.8908914e-01
 -8.2083441e-02
  6.3901492e-03
 -4.0751696e-02
  9.1226861e-02
 -4.4831466e-02
  3.5583518e-02
  3.8432606e-02
  1.5361860e-01
 -4.5580703e-01
  7.3249757e-02
 -1.5053043e-01
 -2.4145201e-01
  1.9398922e-01
  3.9073460e-02
  6.4140491e-02
  4.3426248e-01
 -7.1304345e-01
  4.1522816e-01
  1.7116618e-01
  3.7819285e-02
  3.6541313e-02
  1.6146594e-01
 -1.1003553e-01
  2.8699949e-01
  1.2099684e-02
 -3.1131011e-01
 -5.5887967e-01
 -3.1005805e-02
  5.9640430e-02
 -3.4350070e-01
 -1.7634398e-01
 -1.5445052e-01
  8.3290473e-02
  2.5164671e-02
  1.9381933e-01
 -2.1774252e-01
  1.8330929e-01
 -4.3712945e+00
  2.9527715e-01
  5.1265597e-01
  4.4778085e-01
  8.6750615e-01
  9.1518414e-01
 -7.0331901e-02
  1.1321311e-01
 -6.8580486e-02
  1.7267498e+00
  2.6551104e-01
  2.3542441e-01
 -5.2574635e-01
 -9.2996523e-02
  1.1929528e-01
  1.6856043e-01
 -1.1942098e-01
 -4.6160510e-01
  2.1763088e-01
  2.9500684e-02
 -9.0938695e-02
  3.0352771e-01
  3.1809904e-02
 -9.5584768e-01
  1.3022175e-01
  2.4278374e-01
 -2.8220400e-01
  1.5175367e-02
 -1.1127412e-01
 -2.7246572e-02
  9.7829379e-02
  2.6501682e-01
  4.0654995e-02
  7.9518696e-03
  1.1247215e-01
 -4.7932405e-02
  1.8667766e-01
 -7.6813415e-02
  9.7853653e-02
 -1.1333903e-01
  2.0097300e-01
 -1.6311923e-02
  5.1946092e-01
 -3.4974325e-02
 -1.4445380e+00
 -2.1302848e-01
  1.0860230e-01
 -1.4474905e+00
 -2.8256760e-03
 -9.6966624e-03
  2.6532426e-01
 -2.8513613e-01
  7.0261538e-01
 -2.3311511e-01
  1.6164437e-01
  8.8912427e-02
  2.9047388e-01
 -7.5885467e-02
 -6.7989185e-02
  1.2126125e-01
 -9.2228003e-02
  6.4672135e-02
 -1.7074847e-01
  8.3556607e-02
 -1.2082506e-01
  1.6083688e+00
  4.3455113e-02
 -8.1806608e-02
  7.3129408e-02
  4.2569160e-01
 -4.6220445e-03
 -3.5816297e-02
 -4.4690605e-02
 -1.2378339e-01
 -1.6008034e-01
 -4.1172612e-02
 -4.6874350e-01
  2.2126214e-01
 -1.2189666e-01
  1.6032265e+00
  5.7440436e-01
  4.0142632e-01
  1.8895023e-01
  2.1532065e-01
  3.2243172e-03
 -7.4208924e-04
 -7.5423852e-02
 -1.3825962e-01
  6.8650082e-02
 -1.2794133e+00
 -8.1099665e-01
 -2.4174197e-02
 -1.5852103e-02
  7.3568130e-01
 -1.3932657e-01
 -1.3371180e-01
  3.8680583e-02
  5.2906692e-01
  1.7533692e-02
 -6.1442137e-02
 -3.2472372e-01
 -8.2504405e-03
  9.3547440e-01
 -2.7258107e-01
 -6.5250027e-01
  5.6757700e-01
  2.0287730e-01
 -6.5982714e-02
 -2.9292616e-01
 -8.2471418e-01
 -5.0212610e-01
 -1.7117512e-01
  6.7712313e-01
 -2.1312550e-02
  2.2466590e-01
  2.2827332e-01
  4.9436696e-02
  4.7992453e-01
  1.2782639e+00
  2.3043822e-01
  8.8841952e-02
 -1.8682206e-03
 -6.5748133e-02
 -2.2127990e-01
  1.4402018e-01
 -4.3745387e-02
 -2.8777543e-01
  2.1424434e-01
 -7.5124049e-01
  1.1213337e+00
  2.4579859e-01
  1.8791425e-01
 -1.6899455e-01
  2.4251482e-01
 -1.0272712e-01
 -1.1442125e-01
 -4.3590581e-01
  1.3176532e-01
  8.7730683e-02
  1.5567793e-01
 -2.2708410e-01
  2.6365310e-01
  2.5950799e-02
 -1.0518938e+00
  5.2022731e-01
  1.1761110e-02
  2.3937313e-01
 -7.0135437e-02
 -1.4710812e-01
 -6.8060780e-01
  1.2144116e-01
  1.6452193e-01
  1.9627671e-01
  1.3561012e-01
  2.0601723e-01
 -2.7591070e-02
  4.1943571e-01
  1.2097192e+00
 -4.4657877e-01
 -1.2930787e-02
  5.9187454e-01
  2.1472408e-01
  4.4291049e-01
  4.2318305e-01
 -3.0642539e-02
  2.6086241e-01
 -5.0706118e-01
  1.3271321e+00
  7.9398346e-01
 -4.2171821e-02
 -5.1980224e-02
 -1.8682469e+00
  8.9039409e-01
 -1.3432348e-02
  3.0374503e-01
  3.1428134e-01
 -3.4553940e+00
 -4.4591862e-01
  2.8491387e-01
  3.4939581e-01
 -3.7295210e-01
  2.9165861e-01
  2.7499640e-01
 -5.4079282e-01
  4.7592527e-01
 -2.5449258e-01
  1.3170376e+00
 -9.7653717e-01
  1.1261642e-02
  8.4947884e-01
  1.2015241e-01
  1.3592007e+00
 -2.0829437e+00
 -7.6985776e-01
  1.8818913e+00
 -1.1279442e-01
  2.7012226e-01
 -1.2350299e+00
  7.7682681e-02
 -1.1839686e-01
 -6.8618447e-01
 -6.6035673e-02
 -1.2461134e+00
  3.9017645e-01
  6.9831026e-01
  3.4839714e-01
  2.0484820e-01
  7.2950351e-01
 -8.4681753e-03
 -3.2853702e-01
  8.1589574e-01
 -1.2424533e+00
 -6.6039127e-01
  6.4582610e-01
 -1.2487055e-01
 -7.4663468e-02
  1.2309217e-01
 -2.1095090e-01
 -2.0299935e-01
 -4.7364444e-01
 -1.8316683e-01
 -2.7316120e-01
  8.9504480e-01
  5.7123113e-02
 -1.6118519e-01
 -4.4534426e-02
  9.3156502e-02
  1.3901442e-01
  1.9680320e-01
  6.5781012e-02
 -2.4058346e-01
 -1.2198225e-01
  3.4889787e-01
 -2.3501439e-01
  2.2293113e-02
 -2.8587013e-01
 -1.1740313e+00
  2.6902729e-01
 -3.7631738e-01
  3.3893473e-02
 -2.1012819e-01
 -1.7045932e-01
  2.8944138e-01
  6.6638090e-02
  3.2170473e-03
  1.9609252e-01
  9.8323524e-02
  3.5805470e-01
  1.7644846e-01
 -1.4120930e-01
 -2.6454180e-02
  3.2126907e-01
  8.6511947e-02
  2.9442689e-01
 -5.4950333e-01
 -2.9570284e-01
 -1.6820760e-01
  2.4008622e-02
  9.7145149e-03
  1.4356491e-01
  1.0987057e-01
 -1.0470442e-01
 -4.1314873e-01
 -5.1452041e-01
 -1.4343323e-02
 -1.8211052e-01
  1.6850743e-01
  1.2393128e-01
  4.2079013e-02
 -3.1741187e-01
  6.4849311e-01
 -2.0053127e-01
 -1.0789894e-01
 -1.8493615e-01
 -9.8869830e-02
  1.2273942e+00
  1.9941404e-01
  1.0167478e-01
  3.4843183e-01
 -4.4876036e-01
 -1.4734158e-02
 -8.8085547e-02
  7.6930076e-02
  2.0853287e-01
  8.8251024e-01
 -2.5027582e-01
 -1.6619094e-01
  1.6190754e-01
 -2.7768341e-01
  4.4686001e-02
  6.1675035e-03
  1.2245973e-01
  8.2219154e-01
  3.7399831e-01
 -8.2955144e-02
  1.8661919e-01
  2.4420124e-02
 -1.0034305e-01
 -1.5691943e-01
  1.6035941e-01
 -3.9397221e-02
 -2.8069535e-01
 -3.3808477e-02
  1.0549872e-01
  3.9662418e-01
 -2.2825819e-01
 -3.9475837e-01
  2.1586396e-01
  4.1425638e-02
 -3.2540870e-01
 -3.0759031e-01
  1.5275144e-02
 -5.2873217e-02
 -1.1674348e-01
 -1.7902027e-01
  1.3015810e-01
 -4.1765096e-03
  6.7333150e-01
 -4.2238027e-01
  8.6124003e-02
  1.2636872e-01
  9.7431153e-02
 -1.9812305e-01
 -2.9420391e-01
  7.5373054e-02
 -2.3449966e-01
 -1.7857572e-01
  1.1388699e-01
  1.0561356e-01
 -8.1846021e-02
 -5.1216137e-02
  2.3012447e-01
 -3.4361377e-01
  1.2687247e-02
  9.0145744e-02
  3.0643815e-01
  2.4833217e+00
  8.0440946e-02
 -1.3178512e-02
  9.3910009e-02
 -1.8420270e-01
 -3.1146446e-01
 -1.3977854e-01
  2.6257241e-01
 -2.3456042e-01
  1.3682903e-01
 -1.5667282e-01
 -1.4721897e-03
  1.3927278e-01
  1.3626112e-01
 -3.1133804e-02
 -2.6193368e-01
 -2.0979938e-01
 -4.3525804e-02
  2.0434037e-02
 -4.9584851e-02
 -2.8906116e-01
 -4.0420619e-01
 -4.4805840e-01
  7.5051328e-04
  6.2200550e-02
 -3.3934507e-01
 -2.8883913e-01
 -6.2229514e-01
  2.8312854e-02
 -1.8560384e-01
 -3.1496590e-01
 -1.3125373e-01
 -2.2521831e-01
 -4.3486652e-01
  1.0553009e-01
  8.3725611e-03
 -3.6392748e-02
  9.2465840e-02
 -5.6279087e-01
 -9.5934778e-02
  2.0626189e-02
  6.8904914e-02
 -7.8158975e-02
 -8.9833587e-02
 -1.5183899e-01
  1.0492810e-01
 -1.2689689e-01
 -1.2115324e-01
  6.3170648e-01
  2.8656375e-01
  5.8786031e-03
  9.5816581e-03
 -4.0940572e-02
 -6.5859139e-01
 -9.3418062e-01
 -6.6012836e-01
 -1.9651324e-01
 -6.4646620e-01
  8.3602078e-02
  3.0741081e-01
  5.3997570e-01
  1.4804373e-02
 -4.0003911e-01
  4.1061106e-01
 -2.1365684e-01
 -6.5259951e-01
 -2.7717087e-01
 -9.6023023e-02
 -1.4949200e+00
 -9.9488473e-01
  1.8532944e-01
  2.4156891e-02
 -1.4071951e+00
  1.6686672e-01
 -2.4033935e-01
  9.6449994e-02
 -6.7328349e-02
  1.7559615e-01
 -1.5977319e+00
  4.5023337e-01
  1.0735258e-01
 -5.9226494e-02
  9.2026092e-02
  1.1557260e+00
 -1.0504837e+00
 -3.3764464e-01
  4.5692921e-01
 -1.1662477e-01
  5.4070532e-01
 -1.2425390e+00
 -1.7409449e-02
 -8.3142541e-02
  7.7703220e-01
 -7.4629080e-01
 -2.6490016e+00
 -3.0964860e-01
 -8.2693890e-02
 -7.1620248e-02
 -4.3335739e-01
 -1.5366767e-01
  5.5946511e-01
  6.9955367e-01
  2.5145996e-01
 -3.7829895e+00
 -7.0121616e-02
 -4.5694314e-02
  5.0271556e-02
 -9.0529770e-02
  7.0185997e-03
 -2.8855231e-01
 -3.7274409e-02
 -4.1160382e-02
 -1.2482593e-01
  8.8737093e-02
  1.5974142e-01
  8.4128603e-03
  7.1639158e-02
  1.4577625e-02
 -1.5687434e-01
  3.1025557e-02
  2.5000414e-02
  7.0780762e-02
  5.4333784e-02
  1.5393008e-02
 -2.3113808e-01
 -4.0858150e-01
 -5.1661450e-01
 -2.1812747e-01
 -1.9089915e-01
  7.0502616e-02
  1.0013040e-01
 -7.3014654e-02
 -4.6867049e-01
 -1.7319055e-01
  2.4628280e-01
  1.2272130e-01
 -2.0885488e-02
 -1.3652881e-02
  5.3503405e-02
 -5.2579761e-01
  2.5048497e-01
  4.1793999e-01
  1.9005784e-01
  3.0688758e-03
 -4.7533959e-01
 -8.3436854e-02
  4.9315695e-02
  2.6886648e-01
 -1.2445043e-02
 -5.3124815e-01
 -2.7793902e-01
  5.8741935e-02
 -3.0728698e-01
 -1.9348119e-01
 -3.2027912e-01
 -2.0328042e-01
  4.4641864e-01
  2.0632826e-01
  1.3317433e-01
 -1.1687306e-01
  2.1723147e-01
  3.5086326e-02
 -1.8843147e-01
 -1.9738419e+00
  4.9660420e-01
 -4.7728900e-02
 -1.0945486e-01
 -4.7871552e-02
  2.0781566e-01
  9.8239779e-02
  3.2665324e-01
 -2.3038823e-02
 -3.2613359e-02
  2.1345247e-01
 -1.5028651e-01
  2.7293465e-01
  1.6208726e-01
  6.3803035e-01
 -4.1173440e-01
  4.3459156e-01
 -3.7191451e-02
 -4.3445370e-01
  3.5094741e-01
 -2.1118426e-01
 -1.8169002e-01
 -2.9252031e-01
 -5.3829597e-03
  3.5981850e-03
  1.2978094e-02
 -8.8128459e-01
  9.2244112e-01
 -3.0367918e-02
 -6.0466775e-03
  1.4013724e-01
 -3.8719248e-02
 -2.2730574e-01
 -5.8692517e-03
  1.0982643e-01
 -5.2881487e-02
 -2.0286230e-02
  1.2603503e-01
 -2.4833162e-01
 -7.8298140e-01
 -7.2698283e-01
  1.9106567e-01
 -1.0592848e-01
 -1.9444467e-01
 -6.5541364e-02
 -3.0463484e-01
  1.0045816e-01
  5.2979630e-01
 -9.8841198e-02
 -5.0809395e-01
  1.9198593e-01
 -1.4651839e-01
  6.1286826e-02
 -6.2424153e-01
 -2.4228508e-02
  2.4085435e-01
 -1.8721972e-01
  1.8741338e-01
  4.5795105e-02
 -1.2040148e-02
  1.8111461e-01
 -1.6312775e-01
  1.0232110e-01
  5.5697359e-02
  5.1273510e-02
 -3.3755007e-01
  2.3527674e-01
  4.2043209e-02
 -1.1547271e-01
 -3.9058390e-01
 -3.5301223e-01
 -4.9344745e-02
  2.5456870e-01
 -3.2679474e-01
 -2.0593798e-02
  6.2207055e-01
 -4.4833341e-01
  2.3060123e-02
 -3.7972060e-01
  3.3321169e-01
 -4.6764958e-01
  1.1002014e-01
  1.9873072e-01
 -3.1628422e-02
  1.5179792e-01
 -2.1557075e-01
  5.9841275e-02
  1.2052102e-01
  4.5310773e-02
  3.3943072e-01
 -4.1471013e-01
 -2.6917598e-01
 -2.5056696e-02
 -6.6679341e-01
 -1.9241332e-01
 -1.5220018e-01
  9.1400266e-01
 -7.8448594e-02
 -3.9723255e-02
 -2.5339967e-01
 -1.2278936e-01
 -2.0273638e-01
  1.9004546e-01
  6.8283275e-02
  9.9472003e-03
 -8.4693313e-02
  2.5869212e-01
 -5.3956741e-01
  1.2577549e-01
 -5.3911060e-01
  9.7253956e-02
  1.2119074e-01
 -1.7681116e-01
 -6.0489708e-01
 -3.2145435e-01
  1.3230325e-01
 -2.1136545e-01
 -1.3388191e-01
  4.9220830e-02
  2.2441651e-01
 -3.3113191e-01
 -3.5972733e-02
 -9.0956368e-02
  2.0843193e-02
  4.4539522e-02
  2.0755638e-01
 -2.8567161e-02
  1.1697977e-01
  3.7091413e-01
  4.3077838e-02
 -7.0048195e-01
 -7.1231246e-01
 -1.1576579e-01
 -4.7419257e-02
 -9.6607292e-03
 -1.3416253e-01
  1.0434014e-01
 -1.0361833e-01
  1.4192145e-01
  1.1029014e-02
  3.0690432e-01
 -4.7690040e-01
 -1.5968373e-01
  1.5064400e-01
  2.0239814e-01
 -2.1997431e-01
  1.3555956e-01
 -7.9831749e-01
  6.8238187e-01
  2.4125427e-01
  2.2965960e-01
  2.0284933e-01
  3.3995401e-02
 -1.8608168e-01
 -2.5477812e-01
  3.5229909e-01
 -1.7356014e-01
 -3.2716453e-01
 -4.5858664e-03
  1.9377771e-01
 -2.3474069e-01
  2.5281119e-01
 -1.8681167e-01
  5.9123658e-02
  4.0765381e-01
 -2.6258627e-01
 -6.1337912e-01
 -1.5014255e-01
  6.5104568e-01
 -2.5807270e-01
  3.1131294e-01
 -1.4338715e-02
  1.0343079e-01
  3.8350415e-01
  1.3670790e-01
 -3.9229404e-02
 -2.3590721e-01
  1.1103213e+00
 -6.2475987e-02
 -6.8362898e-01
  5.8182504e-02
 -3.2103828e-01
  1.3122170e-01
 -7.0588097e-02
 -4.5220438e-01
  5.4477509e-03
 -1.0048470e-01
 -1.1714441e-01
  7.3768757e-02
 -1.8647061e-01
  4.1191801e-01
 -2.0438108e-01
  7.9238616e-02
  1.4514501e-01
  1.0490858e-01
 -2.7296865e-01
 -4.2400172e-01
 -3.3593994e-01
 -2.0859189e-01
  2.4115126e-01
  6.9882408e-02
  1.4778216e-01
  3.4852907e-01
  3.2169545e-01
  1.3934646e+00
  6.8727180e-02
 -1.8083543e-01
 -2.9069731e-02
  1.2945260e-01
  9.3707917e-03
 -4.5834005e-02
  1.2902939e-01
 -2.6529974e-01
  3.3705688e-01
 -2.8356761e-01
 -1.7083080e-01
  7.1755327e-02
  1.0699935e-01
  5.0056942e-02
 -1.0415090e+00
 -3.3735606e-01
 -1.2123969e-01
  3.1386349e-02
  4.1596271e-02
 -3.3571102e-02
 -4.3564472e-01
  4.4722266e-02
 -1.0598463e-02
 -8.8440530e-02
 -1.0945930e-01
 -6.1751735e-01
  2.2473663e-01
  3.3530537e-02
 -3.8032246e-01
 -1.0768691e-01
  1.0259709e-01
 -4.1973141e-01
  1.4756189e-01
 -2.1007390e-01
 -2.8208199e-01
  1.5662730e-01
  4.6732602e-01
 -6.4596650e-03
  2.3625378e-02
  9.3376189e-03
 -1.1344511e-01
  3.9282847e-02
 -1.2373578e-01
  1.6563118e-02
 -1.1489469e-01
  1.1144861e+00
 -2.9851152e-02
 -3.2338414e-02
  1.7297675e-01
  2.9535916e-01
  2.0599535e-02
 -1.0848251e-01
  1.7387807e-01
  3.5370407e-01
  3.1844100e-01
  6.1603612e-01
 -2.9061997e+00
 -9.3439996e-02
  2.4375720e-02
  1.2391008e-02
 -2.7933249e-01
  3.5413674e-01
 -1.2504463e-02
 -9.4325393e-02
 -1.6642278e-01
  1.2724322e-01
 -5.7187811e-02
  2.2081083e-02
  3.5888505e-01
 -1.8433499e-01
  1.6550465e-01
 -4.5309690e-01
 -3.5512611e-01
  5.7567257e-02
 -4.3692249e-01
  1.9554585e-01
 -1.5820824e-02
  1.4955710e-01
  1.3111441e-01
 -3.3313987e-01
 -9.8498978e-02
 -5.1100902e-02
 -3.9839152e-01
 -8.1272431e-02
 -3.4509239e-01
 -5.0495130e-01
 -1.1295714e-01
 -1.3776912e-01
 -1.5030734e-01
 -9.0271980e-02
  3.9884746e-01
  8.9066684e-01
 -2.1803893e-02
 -6.4315423e-02
  7.5956511e-01
  2.6905677e-01
 -3.9465082e-01
 -2.6892286e-02
  3.5692191e-01
 -2.1152101e+00
  7.3895377e-01
  1.7600107e-01
  8.9192522e-01
 -1.8757159e+00
 -4.1690123e-01
 -2.1512830e-01
 -2.8741747e-01
  1.8461667e+00
  1.0668603e+00
 -2.9465267e-01
 -6.8983728e-01
 -8.3269674e-01
  1.4672662e+00
  2.1597357e+00
 -2.5133792e-01
 -8.3807576e-01
 -1.4690551e-01
  1.7618307e+00
  1.2691796e+00
  6.4712644e-01
 -6.3165355e-01
  3.3095174e-02
  2.9536128e+00
  4.0293613e-01
  4.4578061e-01
  1.3719013e-01
  4.6159697e-01
  8.0120254e-01
  4.0220331e-02
 -4.1792244e-02
 -3.9317194e-02
 -1.3199659e-02
  1.6513051e-02
  1.8324018e-02
 -2.7806246e+00
  3.0213863e-01
  6.3386299e-02
  4.8961475e-01
 -1.5136725e-02
 -1.1905948e-01
  3.5464972e-01
 -9.2857338e-02
  1.5263328e-01
  1.9219965e-02
 -4.8708461e-02
 -1.9764712e-01
 -5.7064589e-02
 -2.9142743e-01
 -3.9235100e-01
 -3.3078473e-02
  2.9645436e-02
 -3.1185789e-02
  1.1253159e+00
  4.0966973e-02
  1.1088004e-01
 -1.4859590e-01
  3.7359793e-03
  8.6364567e-02
 -9.9618584e-02
 -1.7421176e-01
 -1.5019234e-01
  1.5069563e-02
 -5.9760886e-01
  3.9562333e-01
  4.7897365e-02
 -1.3344652e-02
 -3.5044533e-01
  1.6271748e-01
  1.4002027e-01
  1.8587609e-01
  4.8063150e-01
  3.4927227e-02
 -1.2272751e-02
 -1.3601170e-01
  3.8804576e-02
  3.5200188e-01
  1.7742318e-01
 -4.6569037e-01
 -2.6508475e-02
  2.5046563e-01
 -2.2197445e-01
  3.0671930e-01
  3.0658022e-01
 -1.8552674e-01
 -9.8289914e-02
 -2.9987094e-01
 -2.8967452e-01
 -2.2563322e-01
  8.4586464e-02
  6.2818639e-02
  1.2970174e-02
 -2.0494562e-01
 -4.4650659e-01
 -7.5697982e-01
 -2.3812284e-01
  1.5813597e-01
 -3.0259040e-01
 -2.0699099e-01
 -3.7767608e-02
 -7.5600483e-02
  1.8922217e-01
 -8.9422710e-02
  2.7517906e-01
 -1.3159914e-01
  4.9287310e-01
 -2.0244971e-01
  5.8175129e-01
  2.1002628e-01
 -3.1857786e-01
  4.1517034e-01
 -3.3991897e-01
 -3.8558219e-02
  8.5458942e-02
  6.2009996e-01
  1.0323904e-01
 -1.1219848e-01
 -1.1983947e-02
 -4.4649348e-02
  1.2503140e-01
 -2.6239017e-01
  1.1017776e-01
 -4.5793481e-02
 -7.6410818e-01
 -3.0041984e-01
 -1.8662161e-01
  4.6215370e-02
 -4.2583928e-01
  3.2140300e-01
 -1.4900932e-01
 -4.2423466e-01
 -9.0604611e-02
 -4.2818692e-02
 -2.1914554e-01
  1.1886401e-01
 -5.4525219e-02
  5.5908963e-02
 -2.3378933e-02
 -7.8976530e-01
  2.5105086e-01
 -1.9910528e-01
  4.0494025e-02
 -2.9653704e-01
  2.9921228e-02
 -3.5614032e-01
  1.5911669e-01
  7.9505277e-01
 -5.3246653e-01
  6.9245272e-03
  1.4533503e-01
 -4.0254536e-01
 -8.0401146e-01
 -1.8697838e-01
 -3.2373793e-02
 -8.9644417e-02
 -5.5668443e-02
  1.2460555e+00
 -9.3294248e-02
  8.1603922e-02
  3.2309942e-02
 -2.2985652e-02
 -3.9840481e-01
 -2.1081622e-01
 -1.8467717e-01
 -1.3117356e-02
 -1.1451349e-01
 -1.0933380e-01
 -3.5986000e-01
 -3.5263413e-01
  1.8355045e-02
  3.4605724e-01
 -3.1882173e-01
  3.0966285e-01
 -1.0440043e-01
 -8.3554971e-01
 -4.0041815e-02
  7.2545528e-02
 -3.1767365e-01
  5.2606499e-01
 -4.0693101e-03
 -1.2037868e-01
 -1.0273517e-01
  6.8512058e-01
 -5.3279531e-01
 -7.5432450e-02
 -4.7126114e-02
 -1.7277279e-01
  3.5763696e-02
 -1.2263314e-01
 -8.0097461e-01
 -1.5874650e-01
  2.1986718e-01
  7.4151210e-02
 -8.2908385e-02
 -7.2919053e-01
 -7.4504846e-01
 -1.1976302e-01
  6.3681789e-02
 -1.4503090e-01
 -9.1498546e-02
 -1.7110062e-01
 -6.8477497e-02
  3.0794132e-01
 -4.1100711e-01
 -8.8617876e-02
 -2.5521744e-02
 -2.3706352e-02
  2.4547407e-01
  5.6413156e-01
  9.0146717e-03
  8.7718535e-03
 -1.5579121e-01
 -1.1792637e-01
  5.4093421e-01
 -1.6829145e-01
  2.2180268e-04
 -1.3605009e-01
 -1.0044168e-01
  2.2384295e-01
  2.9536979e-02
 -1.9271338e-01
  3.0949390e-01
 -4.4811213e-01
  3.0511510e-01
  6.8012819e-02
  8.4873050e-02
 -1.6981152e-01
  5.4542810e-01
  5.9123810e-02
 -1.5794130e-01
 -9.3618006e-02
 -1.9992420e-01
 -2.0138831e-01
 -1.9922160e-02
 -7.9528935e-02
 -3.5318989e-01
  7.5165935e-02
  1.4838359e-03
 -6.0835261e-02
  1.7109385e-01
 -6.9064951e-01
  2.6024568e-01
 -3.0478498e-01
  3.9260226e-01
 -1.7822121e+00
 -1.9010033e-02
 -2.9828778e-01
  3.4692798e-02
 -8.1509590e-01
  3.4725565e-02
  4.8941559e-01
 -7.6428965e-02
  4.6180654e-02
  2.1095099e-01
 -6.3795440e-02
  9.1753975e-02
  1.8218878e-01
  7.4393755e-01
 -1.4157824e-01
 -1.6038641e-01
  7.0540011e-01
 -2.3533548e-03
  2.5300328e-02
 -3.5699297e-02
 -1.5645185e-01
 -1.7332076e-01
  5.4963851e-01
  9.7453892e-02
 -5.9130248e-02
 -6.4065725e-01
  8.8826400e-01
 -1.0283547e-02
 -2.6946241e-01
  4.9489599e-02
  5.0299197e-01
 -5.7210416e-01
 -1.6288558e-01
 -3.5414290e-01
  8.5013044e-01
  2.4975592e-02
  1.3969879e-01
  4.5418460e-02
 -1.2488694e-01
 -2.9540384e-01
 -4.8797958e-02
  1.2942651e-01
 -2.4158265e-01
  7.6664463e-03
 -1.6491239e-01
  6.6740781e-02
 -2.7139023e-01
 -1.0709034e+00
 -2.6231724e-01
 -6.2529311e-02
  1.4634457e-02
 -1.7168696e-01
  2.8646553e-01
 -2.6917435e-02
 -2.1238449e-01
 -1.9641964e-01
  1.4634903e-01
 -3.9156586e-01
 -9.2779770e-02
 -4.9179364e-02
 -8.5556224e-02
 -9.2973346e-01
 -1.1189474e-01
  3.8133807e-02
  1.3465779e-01
  4.2684958e-03
 -2.5844127e-01
 -1.3726329e-02
  5.4684162e-01
 -2.8555605e-01
  4.1522970e-03
  3.6302972e-01
 -2.0022570e-01
 -1.1453137e-01
 -1.7478945e-02
 -6.5560198e-01
 -1.1667152e-01
  2.0471646e-01
  1.3113941e+00
 -2.4140224e-01
  3.5462160e-02
 -1.8436482e-02
 -1.6472483e-01
  2.6402199e-01
 -1.1290028e-01
 -1.2848436e+00
 -2.7715853e-01
 -2.0772310e-01
  6.4535119e-02
  1.6971156e-01
 -1.9769113e-01
 -2.7957985e-02
 -3.5853019e-01
  5.2785999e-03
 -1.2531681e-01
  1.1034629e-01
 -4.8841410e-03
  1.2159234e-02
 -1.7787836e-01
 -2.3162734e-02
  2.2916391e-01
 -1.5397364e-01
  4.6418253e-02
  3.7976113e-01
  9.7029455e-02
  5.4299986e-01
  3.7229401e-01
  1.4993946e-01
  2.0251510e-01
 -1.1404023e-01
  3.1729475e-02
 -1.2348342e-01
  2.3614718e-01
 -1.5915034e+00
  7.9501998e-01
 -2.4761280e-01
 -8.0897518e-02
  1.5896861e-01
  6.5556061e-01
  7.4572459e-02
  4.8078209e-02
  4.3768738e-03
  3.0109879e-01
  4.7558448e-01
  1.3897562e-01
  5.3693220e-02
 -1.4221168e-01
 -8.4783204e-02
  2.8560500e-04
  5.2478385e-01
 -1.4764044e-01
 -2.9412204e-01
 -7.5241119e-01
  1.7100159e-02
  6.4364605e-02
 -5.6827869e-02
 -1.2713875e+00
  1.1068793e-02
  1.2661101e-01
 -2.4311249e-01
  1.9367708e-01
  2.2706988e-01
  9.5626831e-01
 -2.0060556e-01
  1.6703650e-01
 -1.8560804e-01
  1.5115837e-02
 -1.1603752e-01
 -8.6317882e-02
 -1.0992957e+00
 -1.6520256e-02
  1.5426622e-01
 -9.5840417e-02
  1.6202537e-02
 -2.0247315e-01
  6.0442638e-01
 -4.2715666e-01
  3.1209150e-01
  1.6187133e-01
 -2.4553543e-01
 -2.6159799e-02
 -1.3693359e-01
  2.5092441e-01
  3.7827808e-01
 -7.4881881e-02
  1.5687017e-01
 -3.5667032e-01
 -2.2183467e-01
  3.8730687e-01
 -3.0504975e-02
  8.5796937e-02
 -1.5148155e-01
  3.9220193e-01
  3.1507474e-01
 -9.8913483e-02
  1.8093865e-01
 -9.1236576e-02
 -1.0421612e-01
  1.1322136e-01
  1.9149606e-01
  1.3643143e-01
  2.8582475e-01
 -3.6225725e-02
 -4.6139199e-01
 -2.5397730e-01
  4.5660692e-01
  5.9809440e-01
 -5.7549262e-01
  2.9928831e-02
  5.4136030e-02
  5.1403362e-01
  1.8808714e-01
 -4.8347622e-02
  4.3619286e-02
  1.9380609e-02
  1.1157472e-01
 -1.0862110e+00
  2.4467191e-01
 -1.7724977e-01
  9.8698050e-02
  2.1009791e-01
 -4.8887974e-01
 -1.1316762e-01
  1.7204270e-02
 -2.6591650e-01
  2.3489688e-01
  2.4089964e-01
  3.1788695e-01
  2.0480339e-01
 -5.5846881e-02
  1.4359358e-01
  3.2748256e-02
  5.1973914e-03
 -1.4857254e+00
 -1.3113867e-01
  1.2938020e-01
 -3.7288997e-01
  2.5756226e-04
  3.5855582e-01
  1.8996716e-01
 -2.5191742e-01
  1.2747759e-01
  2.5704691e-01
  1.2664229e-02
 -8.6867593e-02
  1.9638716e-01
 -1.5813898e-01
  1.4670347e-01
  1.9071253e-01
 -1.1342331e-01
  1.7457353e-01
  1.0410149e-01
 -2.0418239e-01
 -2.4967597e+00
  7.4247099e-02
  9.0739340e-01
 -3.2099104e-01
 -1.3397594e-01
 -4.5077589e-01
  1.7236916e-03
 -4.5830068e-01
 -1.6032134e-01
  1.7105921e-01
  1.9902843e-01
 -1.7036399e-01
 -5.4332953e-02
  8.3835256e-01
  5.7194340e-01
 -5.6581479e-02
 -9.9805564e-01
 -3.8677499e-01
  4.2914426e-01
 -2.0805950e-01
  3.2205281e-03
 -8.3739661e-02
  2.3567759e-01
 -5.8583885e-01
  2.6221296e-01
  1.7228264e-01
  2.5565391e-02
 -8.9148321e-05
  3.1889710e-01
 -4.3182141e-01
 -7.1556307e-02
 -3.6212005e-02
  4.1961691e-01
 -5.8612657e-01
  8.5396715e-02
  3.2634714e-01
 -5.3724349e-01
 -3.0466685e-01
  6.1251346e-02
  6.8193115e-02
 -2.9400080e-01
  7.7370352e-01
  3.5055760e-01
 -4.5495990e-01
 -1.2520850e-01
 -2.0403920e-02
  1.8163184e-02
  1.4481035e-01
  1.4112365e-01
 -1.3728110e-01
 -1.1826354e-01
  1.4676799e-01
 -5.0020814e-01
 -6.1790999e-02
 -9.8193958e-02
  4.1281891e-01
  3.8672615e-02
  3.1879932e-01
 -1.5787116e-01
 -8.1611298e-02
  1.3481613e-02
 -2.1162967e-01
  1.1906052e-01
  7.9536453e-02
  8.3156534e-02
 -5.5023354e-02
 -3.9377138e-01
  2.2936152e-02
  7.9758644e-02
  1.2215188e-01
  1.5019938e-01
 -1.6421819e-01
  9.5614694e-02
 -6.2647425e-02
 -8.3945975e-02
  2.5371450e-01
 -7.3701903e-02
  1.8369788e-01
 -1.4181185e-01
  7.2708344e-01
  2.7583858e-01
  4.0528035e-01
 -1.0807523e-01
  2.3492491e-01
  2.7417877e-01
 -1.3294320e-01
  2.3336524e-01
 -2.6452556e-01
  1.2349450e-01
 -1.1039343e-01
  1.3860929e-02
  2.2753563e-02
  1.4374945e-01
  3.3624217e-02
 -1.4222214e-02
 -6.0483724e-01
  2.6693058e-01
  3.0588487e-01
 -6.1205827e-02
 -1.3149048e-01
  1.8115912e-01
  4.1675845e-01
 -8.5440882e-02
  2.8268233e-01
 -6.3344864e-03
 -8.0694202e-03
  1.3593267e-01
 -1.1630688e-01
 -4.3545552e-02
 -1.3843153e-01
  2.0193100e-01
 -5.2711137e-02
 -4.2228198e-01
 -9.9088416e-02
  6.9152057e-02
 -3.9846141e-02
  2.3877847e-01
  6.1096705e-02
 -4.4431597e-02
 -1.3828388e-01
  1.9429041e-02
  2.7827772e-01
  1.7238474e-01
 -1.0886039e-02
 -1.3458779e-01
 -1.8697754e-02
  8.2813941e-02
 -4.8127484e-01
 -7.6924264e-02
  8.5393965e-02
  2.6803944e-01
 -5.0874107e-02
 -8.2787687e-01
  2.7475178e-01
  9.8081052e-02
 -7.1644090e-02
  2.3374863e-01
 -1.9623140e-01
 -8.7564565e-02
  6.5473460e-02
 -1.1540581e-01
  1.8847924e-01
 -4.7206964e-02
  1.1291303e-01
 -1.7707819e-01
  2.0596841e-01
 -1.9675326e-02
 -3.7510419e-01
 -3.1367138e-02
  1.8147143e-02
 -2.0354076e-01
 -2.7769038e-01
 -3.2705411e-01
 -6.8341389e-02
  2.2277607e-01
 -1.4495789e-01
  1.5547784e-01
 -4.8714468e-01
 -3.2441056e-01
  2.2060938e-01
  2.2519889e-01
 -1.1388636e-01
 -3.9999729e-01
  1.1119774e-01
 -4.6081465e-01
 -2.2185940e-01
 -7.0726150e-01
 -2.9622105e-01
 -8.6937487e-02
  1.6232923e-02
 -3.0911767e-01
 -2.6328117e-01
 -8.9456730e-02
  2.7584577e-01
  8.8593382e-01
 -2.8024858e-01
  4.9979221e-02
 -1.4436637e-01
  4.5405102e-01
 -1.9973990e-01
  1.3885026e-01
 -4.2888075e-02
 -8.3675295e-02
  2.2004217e-01
 -1.0173960e-01
  1.9390047e-02
 -1.0166568e-01
 -7.4984801e-01
  5.5898563e-03
 -7.5991876e-02
 -7.7198660e-01
  1.5127273e-01
 -5.9527094e-03
  8.0415398e-02
  1.1198702e+00
  1.2600920e-02
 -3.5273287e-02
  1.5963091e-01
  1.9139590e-02
  7.8239264e-03
  3.6948764e-01
 -1.6588971e-01
  2.2841898e-01
  2.3036501e-01
 -5.9343380e-01
 -2.5640368e-01
 -4.2736569e-01
  1.7730357e-01
  2.0935500e-01
 -1.8211991e-02
 -1.0795220e-01
 -1.8402968e-01
  3.2117078e-01
  1.3859917e-01
 -5.8539039e-01
 -3.6067709e-02
  3.4468779e-01
 -1.5189268e-01
  5.2261126e-01
 -3.7557358e-01
 -3.6861435e-02
  6.8951003e-02
  1.8209916e-02
  3.9007503e-01
  7.7585056e-02
  5.5700559e-02
  3.6436692e-01
 -8.5016169e-02
  1.5883937e-02
 -3.3794490e-01
  3.9466951e-02
 -7.4633247e-01
 -3.0216353e-02
 -3.9049798e-01
  2.4391478e-02
 -1.2397052e-01
 -5.6427240e-01
  1.0479826e-01
  4.6382122e-02
 -1.9418113e-01
 -3.6339775e-02
 -2.8710724e-03
  7.1013995e-02
  8.6491153e-02
  1.5241808e-02
 -7.1415514e-01
 -3.2598577e-02
  2.8241657e-02
  2.1121879e-01
 -2.5360671e-01
 -3.1909415e-01
 -6.9921337e-02
  1.9010170e-01
 -9.3293351e-01
  1.9462114e-02
 -1.0635665e-01
  8.0272985e-01
 -3.0020350e-01
 -4.9620041e-01
 -1.0089260e-01
 -3.7932816e-01
 -1.0754848e-01
  6.2021025e-02
  1.2901047e+00
 -3.0019265e-01
  1.3250974e-01
 -1.0361931e-01
 -4.5427290e-01
 -1.4358754e-01
 -8.0245033e-02
 -4.1054648e-01
  2.2776040e-01
 -1.5408906e-01
 -4.5123747e-01
 -1.0126727e+00
 -8.2932240e-01
 -8.3684362e-02
 -3.2724794e-02
  2.9047394e-01
  1.6781387e-01
  7.9334044e-01
  3.0192587e+00
  1.3992696e-01
  4.0602768e-03
 -3.2036734e-01
 -1.8832155e-01
 -1.7562430e-01
 -3.1713601e-02
  1.9284800e-02
 -5.4621324e-03
 -8.8973872e-02
  6.4740694e-01
  2.4087828e-02
  1.5966505e-01
  2.9379222e-01
 -3.2341626e-01
  2.5476488e-01
 -2.0065168e-01
  2.0143206e-01
  2.3267364e-02
  3.7387803e-02
 -6.1209226e-01
 -3.9723808e-01
  4.9581239e-01
 -3.9243720e-02
  9.1945074e-02
  4.0951070e-01
  1.2893423e-02
  3.2028604e-02
 -3.4774829e-02
 -5.7527300e-02
 -1.3964656e-01
 -9.2007682e-02
  4.2339340e-01
  1.9568698e-01
  3.6569182e-03
  3.2107693e-01
  5.1291011e-02
  2.5669050e-01
 -3.9263964e-02
  8.0577068e-02
 -1.4238543e-02
 -1.5599440e-02
  2.5464537e-02
  4.9648780e-01
  2.4585153e-01
  1.3102110e-02
  7.8024872e-02
  1.1707705e+00
  6.5203466e-02
  8.6465761e-02
 -8.3434111e-01
  4.1216433e-01
  2.7001369e-01
 -3.4121150e-01
 -1.4803408e-01
  8.5082084e-02
 -3.0753008e-01
  3.6811391e-01
 -4.5300195e-01
  4.1108117e-02
  9.8826483e-02
  1.3526450e-02
  4.2461303e-01
 -7.3810875e-02
 -7.2324835e-02
  2.3482247e-01
  2.4893941e-01
  7.5253613e-02
 -2.1220513e-01
  1.4944940e-02
 -1.7655861e-01
 -2.0864518e-01
  1.9162175e-01
  2.4812683e-01
 -3.4242031e-01
 -9.7972706e-02
 -2.5785565e-01
  7.2279610e-02
  4.9371156e-01
 -2.3716274e-01
 -1.2951930e-01
  2.6942560e-01
  6.4072883e-01
  2.7574901e-02
 -2.1345738e-01
  1.0143287e-01
  2.1706915e-01
 -3.9149272e-01
 -3.5146254e-01
 -6.6605717e-02
 -3.9189067e-02
  2.4030331e-01
 -2.6263801e-02
  1.9314185e-02
 -5.2306038e-01
  1.0657147e-01
  1.0537034e-02
 -1.6111147e-01
 -1.5334457e-01
  6.8803526e-02
 -1.8746771e-01
  2.8158791e-02
  1.9802482e-01
  4.9178457e-01
 -7.6068431e-01
 -2.4987400e-01
 -3.3413103e-01
 -3.2028265e-02
  1.5242423e-02
  7.9222165e-02
 -1.3535471e-01
 -1.6359277e-01
  2.0186539e-01
  6.3678026e-02
  6.4963706e-02
  8.7551445e-02
 -1.0354097e-02
 -3.7250597e-02
  1.2269744e-01
  1.3127849e-01
 -3.1862330e-01
 -8.4953941e-02
  9.4091624e-02
 -2.3227885e+00
 -1.2269626e-01
 -3.0288580e-01
 -1.6645294e+00
  4.5947727e-02
  1.0676480e-02
 -9.8866522e-01
 -3.1899229e-01
  7.5679672e-01
  2.2053716e-01
  7.3518330e-01
 -3.1463321e-02
  2.3780139e-01
  4.0692526e-01
 -6.1535608e-02
 -2.3912832e-01
 -1.1791719e-01
  4.4442303e-02
 -2.9492292e-01
 -6.1939561e-01
  4.3077137e-02
 -2.3341382e-02
 -2.6227775e-01
 -1.0804518e-01
  1.8162297e-01
 -1.0587515e-01
  1.3012832e-01
  2.1309908e-01
  1.6249934e-02
  1.5702309e-01
  4.0884802e-01
  1.8312456e-01
  1.2939669e-01
  5.7603706e-02
 -9.6488751e-02
  1.8690658e-01
  2.6926339e-01
 -1.9022465e-01
 -3.9279629e-02
 -2.1864249e-01
  6.2197421e-02
  4.3860473e-02
  2.0196176e-01
  1.8131875e-01
 -1.0511391e+00
 -1.3031654e-01
 -1.4856271e-01
 -5.5470917e-02
 -1.7451233e-01
  2.7072020e-02
 -5.6088649e-02
  1.3558385e-01
 -1.8911915e-02
 -7.7270553e-02
 -1.2665279e-01
  4.3065563e-02
 -7.3723331e-02
  2.6134548e-01
  5.0890795e-03
 -1.5192129e-01
  1.0766832e-02
  7.8863710e-02
 -4.7706697e-02
  7.4620205e-03
 -7.1696475e-02
  6.3061304e-02
 -3.2581797e-01
  3.7215820e-01
  7.9742288e-03
 -1.3135657e-01
 -2.8050759e-01
 -2.5859332e-01
 -7.5363132e-05
 -8.1091724e-02
 -2.6547977e-01
 -1.4853002e-01
 -1.1709767e-01
 -2.2945467e-02
 -8.2138829e-02
  1.4116372e-01
 -4.0866930e-02
 -2.0508197e-01
  1.0433505e-01
 -8.2742339e-01
 -1.8299884e-01
 -1.3101451e-01
 -2.1699609e-02
  6.5945692e-02
 -6.7989659e-01
 -1.5083107e-01
  1.4934067e-01
 -2.7710187e-01
  2.2567914e-01
 -3.6116228e-01
 -5.3597134e-01
 -2.8935678e-02
 -9.4509281e-02
  8.4388092e-02
 -7.4106246e-02
  2.0248610e-01
  1.6009808e-01
 -2.8751609e-01
 -3.4047759e-01
 -2.3762092e-03
 -1.1144867e-01
 -1.0208760e+00
 -1.4836272e-02
 -2.4861076e-01
 -9.4618060e-02
 -6.3336313e-02
 -1.7460397e-01
 -1.0061678e-01
 -2.4601733e-02
  1.9273418e-01
  6.1251998e-01
 -2.2796173e+00
 -3.8589817e-02
 -5.9916954e-02
 -5.4878529e-02
  2.0174716e-01
  2.0369429e-02
 -1.0029265e-01
  2.5801793e-01
 -2.4116626e-01
 -4.0588614e-01
  2.9080940e-02
  8.9560427e-02
 -1.2352332e-01
  1.5165626e-01
 -1.4030270e-01
  3.8646895e-01
 -7.2043099e-02
  4.8643745e-02
  1.6454270e-01
 -3.1249887e-01
  7.5912229e-03
 -2.7434142e-02
 -1.9327307e-01
  3.5038066e-01
 -2.2361579e-03
 -1.9315989e-01
  5.6035727e-02
 -5.5114388e-02
  1.8137431e-02
  1.2312442e-01
 -6.4902298e-02
 -2.8094471e-02
 -9.3136564e-02
 -2.9712001e-02
 -2.6583529e-01
 -1.5771443e-01
 -4.5871209e-02
  3.4873554e-01
 -2.0646864e-01
 -1.7937701e-02
  2.4933454e-01
 -2.7285260e-01
  4.3812059e-02
  2.1580978e-01
  4.0897346e-01
  3.0840001e-01
  7.5937487e-02
  3.0221054e-01
 -4.1991121e-01
  2.8988155e-02
 -3.8111177e-01
 -2.8941154e-01
 -3.4686032e-01
  1.9293806e-01
 -1.3863629e-01
 -5.6701255e-01
  5.3732421e-02
 -4.4287946e-02
 -3.4496567e-01
  1.1802101e-01
  7.6176547e-03
 -2.0276529e-01
  8.6786941e-02
  2.3271912e-01
 -3.4647620e-01
 -1.6627561e-01
  8.6410761e-01
  5.0378706e-02
 -1.0929624e+00
  1.4471468e-01
 -5.9069298e-02
  1.5887967e-01
 -4.5813669e-02
  3.0026959e-02
  8.2596339e-02
  3.9988858e-01
 -1.3946090e-02
 -2.1606009e-01
  2.0461540e-01
 -1.2135266e-03
  1.0039902e-01
 -9.5095195e-02
 -2.0559852e-03
 -1.0901994e-01
 -1.4206626e-02
 -2.6819706e-01
 -1.0469300e-01
 -1.4861413e+00
  1.1514100e-01
 -4.2990848e-02
  1.7301111e-01
 -1.1708087e-01
  8.7170070e-01
  4.7698792e-02
 -3.7506659e-02
 -1.3490823e-01
  4.1445989e-02
 -2.5854087e-01
 -3.8730286e-02
 -3.2434318e-02
  1.9914681e-01
 -1.4213789e-02
 -2.1481480e-01
  1.5287359e-01
  1.7716177e-02
 -1.1077200e-01
 -8.5463814e-02
 -2.0242061e-02
 -2.3105688e-01
  2.7526742e-02
  2.6661894e-01
  1.7203348e-02
  5.4297215e-01
  1.0175321e-02
 -2.6358503e-01
 -5.6554091e-01
 -1.9371876e-01
 -3.1039226e-01
 -8.6645991e-02
  5.2346730e-01
 -4.3014012e-02
 -6.6401780e-02
 -9.3945280e-02
  4.1466585e-01
 -7.6779395e-02
  1.0426699e-01
 -8.1836081e-01
  3.0289803e-02
  2.7308419e-01
  1.5649376e+00
 -1.5430799e-01
 -2.2742325e-01
 -3.7996098e-01
 -1.9637667e-01
  7.8649849e-02
  1.4513533e-01
 -1.9232154e-01
  1.4706355e-01
 -3.8536511e-02
  3.3614570e-01
  6.3918971e-02
  1.2970600e-01
 -2.9971543e-01
  7.4590731e-01
  1.5516299e-01
  1.9645801e-01
 -2.0358551e-01
  8.9896913e-04
 -4.2928457e-01
  1.2361906e-01
  6.7604937e-02
  2.2826107e-02
  4.0068634e-02
 -4.5996320e-01
  2.5247479e-02
  2.1093817e-01
 -6.8324633e-02
  9.0017426e-01
  2.6485333e-01
 -8.9094065e-02
 -5.8923941e-02
  4.5491174e-01
 -5.0842565e-02
 -1.6537091e+00
 -4.1555952e-02
 -2.0883450e-01
  5.0670475e-01
  7.4632570e-02
  1.0197037e-01
 -5.7100093e-01
  9.6296743e-02
  3.7109312e-02
  2.9007557e-01
 -2.4849240e-01
 -2.4268499e-01
 -9.4792128e-02
  3.0132471e-02
 -3.2566583e-01
 -9.4023451e-02
 -1.6614534e-01
  1.7847896e-02
 -2.2269423e-01
  1.3379166e-01
  9.3495317e-02
 -1.8353205e-02
  1.0658397e-01
  8.8501614e-01
 -5.0673045e-02
 -3.9353848e-01
 -1.4312345e-01
  1.5021373e-01
  4.0174674e-02
 -3.7307352e-02
 -2.5801901e-03
 -1.2272836e-01
 -1.4831397e-01
  9.3531035e-02
 -3.0437800e-01
  5.9314676e-02
  1.0194167e-01
  3.0984575e-01
 -6.6075772e-02
  4.4735305e-02
 -8.1248850e-01
  2.2660168e-02
 -8.9539117e-01
  3.4691773e-02
 -3.2102123e-02
  1.2143454e-02
  7.1949911e-01
  1.4090443e-01
  5.2364993e-01
 -1.4271903e-01
 -1.1540789e-01
  1.9637163e-01
  2.2280908e-01
 -4.1997343e-01
  2.1826059e-01
  1.3950578e-02
  5.7489932e-01
 -1.4233647e-01
  3.9782230e-02
  1.3338162e-02
  7.0018269e-02
  5.7517834e-02
  3.2384741e-01
  1.3856927e-01
 -7.2586656e-01
 -2.1472622e-01
 -1.8096967e-02
 -5.4725811e-02
 -4.2998898e-03
  7.1310639e-02
  3.6737908e-02
 -1.5189657e-01
 -2.1726999e-02
 -7.0220158e-02
  1.7932842e-02
  2.4433957e-02
  2.3150618e-01
  3.2026508e-01
  5.0926127e-02
  9.8335832e-02
 -9.6185708e-01
  6.2761766e-01
  4.3297529e-02
  2.9591194e-01
 -6.7840999e-01
  8.0359167e-01
  8.2005966e-01
  1.8035443e-01
  4.2669126e-01
  3.5556201e-02
  8.1007034e-01
 -6.9594845e-02
  1.1921777e-01
  9.1991603e-02
  3.8608752e-02
 -8.2791191e-01
  1.7666177e-01
  1.7779896e-01
  1.6596198e-01
 -1.9748086e-01
 -6.0387224e-01
  3.5570630e-01
 -3.5924089e-01
 -6.6695087e-02
  4.7025916e-01
 -1.2193044e+00
 -7.4617945e-02
 -2.9229647e-01
  1.2245122e-01
 -1.6105703e-01
 -2.1568996e-01
  1.6755389e-02
 -3.2370591e-01
 -4.0384611e-01
  7.2493898e-03
 -3.2200325e-01
  3.1268129e-01
  1.6214293e-01
 -4.7173381e-02
  4.1543600e-01
  4.5567995e-01
  4.2142320e-02
  1.2438477e-01
  1.8232360e-01
  8.7774016e-02
  2.9078144e-01
 -1.2810259e-01
 -6.2536456e-02
 -1.2287676e-01
 -6.2953390e-02
  1.5081128e+00
 -9.8306157e-02
 -2.9532757e-02
  9.4814837e-02
 -5.3295385e-02
  8.4781662e-02
  2.4835911e-01
  5.6769937e-01
 -5.6085902e-01
 -8.2143601e-03
 -4.3545522e-02
  1.7525549e-01
  4.8900161e-02
  1.6055506e-01
 -2.3631547e-01
  6.1906269e-04
 -2.6642701e-02
 -1.4065944e-01
 -6.0689401e-02
  1.2253681e-01
  5.5997785e-02
 -6.6254221e-02
 -2.1906128e-02
 -4.5916370e-01
  1.4001606e-02
  1.5410885e-02
 -2.9998133e-02
 -4.7216317e-01
 -5.1750686e-02
 -1.9845022e-01
  6.0046530e-01
  2.0623799e-02
  4.2397770e-01
 -2.4948810e-01
  1.0844381e-03
  2.8689444e-01
  1.1502733e-02
 -6.8186671e-01
  8.8630569e-01
  1.0345843e+00
  3.7214616e-01
  1.9810364e-01
 -7.7851146e-02
  1.0920558e-01
  2.3245873e-02
 -4.4323925e-02
  9.3246810e-03
  1.4734349e-01
 -5.1348484e-01
 -6.1895240e-02
  5.0993288e-01
 -3.9700192e-01
 -1.1179134e-01
  5.4206079e-01
 -1.6228074e-02
 -1.8447202e-01
 -8.7683208e-02
  2.4928071e-01
  3.5794580e-01
  9.3863390e-02
  1.9258069e-02
  2.2928605e-02
 -3.7192512e-01
  7.8359671e-02
 -2.3438375e-01
 -8.7095374e-01
 -1.4125341e-01
  3.8734544e-02
 -3.0999258e-01
 -7.8474291e-02
 -1.5736328e-01
  4.5240924e-02
 -3.1994191e-01
 -1.4677364e+00
 -7.3283166e-01
  1.3505191e-01
 -2.5666136e-02
 -4.0749305e-01
 -2.9893108e-02
  2.0848716e-02
  2.4121554e-01
 -1.8477789e-01
 -1.2422841e-01
  2.3294614e-01
 -3.1731072e-01
  2.5016133e-02
  3.2361069e-01
  1.0427380e-01
 -6.5850973e-02
 -1.8801881e-01
 -9.5819704e-02
  1.7073375e-01
  1.9954018e-01
 -2.2754528e-01
  5.7678044e-01
  7.2787476e-01
  2.0633612e-02
  1.4803772e-01
 -1.9522002e-01
  6.7931414e-01
  5.3086113e-02
 -1.7622633e-02
 -1.2616062e-01
  1.9384980e-01
 -8.7306678e-02
 -2.5511095e-01
 -4.0039826e-02
  7.4333549e-02
 -1.9845258e-01
 -2.1310725e+00
 -1.6673063e-01
 -5.2427405e-01
  2.9244402e-01
 -1.1448557e-01
 -1.2254247e-01
 -7.1475130e-01
 -1.0602418e+00
  2.8819564e-01
  6.5219752e-02
 -4.1660417e-02
  1.2974377e-01
 -1.1769662e+00
 -2.2228260e+00
 -3.6192241e-01
  4.9237651e-01
  6.7003667e-01
  7.0025450e-01
 -7.6449960e-02
  1.4356330e-01
 -1.1958767e-01
  2.0276950e-01
 -2.2187686e-01
  1.1792482e-01
 -1.0462181e-01
 -1.4456035e-01
  1.0433533e-01
  2.7119642e-01
  4.2429397e-01
 -6.0179166e-02
 -1.7276751e-01
  2.8578639e-01
  2.0900920e-02
  2.6144143e-03
  2.0945212e-01
  4.6626169e-02
 -3.9867821e-01
 -6.9392607e-02
  8.9556211e-01
 -2.5552708e-01
 -2.5107715e-01
 -1.0739131e-01
  3.9963443e-02
  5.1086807e-01
 -3.0419606e-01
 -1.8841642e-01
  3.5370156e-01
  1.5430817e-01
 -1.5487219e-02
 -4.2559844e-03
  8.2352698e-02
  1.6866900e-01
 -1.1925730e-01
  7.7149668e-03
 -2.5838634e-01
 -1.2896426e-01
  1.0235595e-01
  5.7593971e-01
  4.7732648e-02
 -1.3056934e-01
  8.1853963e-02
 -1.4134479e-01
  3.0556089e-01
  4.5304561e-01
 -8.6602676e-01
 -8.6231707e-03
  1.7845216e-01
  5.5599946e-01
 -9.8751229e-01
 -6.1976016e-01
  2.4715260e-01
  3.9398413e-02
  2.6465433e-02
  7.1061559e-02
  8.4352950e-03
 -3.0751318e-01
  3.9850075e-02
 -1.5677907e-01
 -3.8602749e-01
 -6.1496340e-02
  5.4142349e-03
  9.7515069e-02
 -1.3637367e+00
  3.5138157e-01
 -4.8230806e-01
 -3.9652923e-01
 -2.4969769e-01
  2.9273115e-02
 -5.3913772e-02
 -5.6814635e-01
  9.3235811e-03
  1.0293893e-02
 -5.3023893e-01
  7.8952843e-01
  6.6355908e-01
 -1.1509300e-01
  3.0453297e-01
 -5.4900926e-02
  1.8447776e-01
  3.1004462e-01
 -5.9467441e-01
  4.5566592e-02
  5.0578684e-01
 -1.0235053e-01
 -3.1505224e-01
  1.7676886e-02
  3.7031126e-01
  9.6466398e-01
  2.0383616e-01
  1.5274893e-01
 -1.1130584e-01
 -1.8370129e-01
 -8.1299603e-01
 -1.9853278e-01
  6.3936526e-01
  1.5678883e-01
 -9.3086727e-02
 -1.7501037e-01
 -1.0982900e-01
  3.0554606e-02
 -2.4856864e-01
 -1.3273643e+00
  1.3507161e-01
  9.6248038e-02
 -5.4962534e-01
 -1.7700541e-01
 -3.4800649e-01
 -5.2062839e-01
 -3.3140561e-01
  3.5381207e-01
 -5.0822818e-01
 -1.7008126e-01
  2.8973189e-01
  2.3197818e-01
  4.0459912e-03
 -1.7272864e-02
 -1.6376010e-01
 -7.4874157e-01
 -4.7723919e-02
  2.0686047e-01
 -6.2815326e-01
 -1.0248634e+00
  2.6315629e-01
 -6.0081416e-01
  8.6303800e-02
  3.8118473e-01
  3.6991248e-01
  1.4428970e-01
 -3.3361378e-01
 -7.3430747e-02
  1.4128536e-01
  2.0885397e-02
  2.1735078e-02
  3.6342625e-02
  8.8453597e-01
  3.2714120e-01
  3.0076540e-01
  4.3523286e-02
 -3.2125115e-01
 -9.6048243e-02
  8.0646820e-02
 -5.4143071e-02
  5.1334808e-03
  2.5212362e-01
  8.1656404e-02
  8.8226789e-01
  3.2663801e-01
 -5.2837420e-01
  2.2043757e-01
 -6.6906327e-01
  2.2291901e-02
 -5.9255272e-01
  1.8916535e-01
 -1.7761970e-01
 -4.9395677e-02
 -7.6175101e-02
  4.7321595e-02
  4.0269738e-01
  2.2603180e-01
 -1.1466723e-01
 -4.0041131e-01
  1.9971462e-01
 -5.8668189e-02
 -4.6206683e-02
 -1.1639387e-01
 -3.2339501e-01
 -1.7537402e-01
  1.2615739e+00
 -4.3143954e-02
 -6.5277237e-01
 -4.3434501e-02
  1.0237081e+00
 -6.4075816e-01
  6.7917764e-02
 -5.1245950e-02
  2.5248343e-01
 -9.3414053e-02
  5.0621349e-02
  2.1242242e+00
  1.0484559e-01
 -1.0845070e-01
  5.3866342e-02
  1.3771832e-01
 -8.2922369e-01
  2.3294245e-01
  2.5451878e-01
  1.5603994e-01
  2.1691849e-02
 -1.0748449e-01
  1.6108370e-01
 -1.0038554e-02
 -1.4255250e-01
 -1.5943669e-01
 -3.5508806e-01
 -2.2150388e-02
  1.6431920e-01
 -2.5225532e-01
  1.0560679e-01
 -5.3328395e-01
 -6.9836825e-03
  2.5683364e-01
  6.8208933e-01
 -2.2624351e-01
 -2.5530452e-01
  1.7124285e-01
  1.9502161e-01
  5.5174965e-01
  5.1233202e-01
 -6.9820963e-02
 -1.0624631e-01
 -1.1205210e-01
  5.3469915e-02
 -3.3817756e-01
 -3.4930032e-01
 -1.0547420e-01
 -4.0028673e-02
  1.0613699e-02
 -7.2848067e-02
  1.5205322e-01
 -6.5037632e-01
 -3.3936203e-01
 -1.0815180e-01
  8.8418531e-01
  4.0939026e-02
 -7.9062128e-01
 -6.1641661e-03
 -4.9946096e-02
 -7.9236023e-02
 -2.2420830e-01
 -2.5214294e-01
 -7.3111701e-01
  3.0828246e-01
  3.4293014e-01
 -1.8291792e-01
 -2.3442085e-01
 -4.7873178e-01
 -2.2090651e-01
  1.4902380e-02
 -1.9806841e-01
  2.3015155e-01
 -2.9643175e-01
  1.0815244e-01
  3.3982273e-02
 -9.0759307e-01
 -1.8377092e-02
 -6.0506560e-02
  1.6064078e-01
 -3.1766519e-01
 -4.0908045e-01
  6.0319930e-02
 -2.4800949e-01
 -6.0921675e-01
 -3.6200404e-01
  9.8285306e-01
 -1.6682155e-02
 -3.5761170e-02
  2.1567416e-01
 -3.1228071e-01
  4.1158315e-02
 -3.0910466e-03
  6.5639481e-02
  1.5606426e-01
  2.5726992e-01
  6.2484765e-01
  4.9106142e-01
  4.0968291e-02
  1.9534171e-01
 -3.2050154e-01
 -2.1469860e-01
  3.1656507e-01
  2.8768480e-01
 -3.0353490e-01
 -9.3816236e-02
 -3.9728954e-01
  2.8175566e-01
  1.5329885e-01
  8.5125679e-01
 -1.3247086e-01
 -3.5473267e-03
 -3.5283023e-01
 -1.6480257e-01
  1.2629046e-01
  6.0257412e-02
  2.9671227e-03
  2.1654919e-03
  3.2612738e-01
 -3.5883299e-01
 -5.6037891e-01
  1.1859273e-01
 -2.2094238e-01
  3.0524486e-01
 -2.5086764e-01
  1.2727025e-01
  1.7381430e-02
  3.6058906e-01
 -2.6603132e-01
  1.2695865e-01
 -4.2071038e-01
 -1.1074162e-01
  6.8924838e-01
 -1.6243802e-01
 -5.6600813e-02
 -2.8960034e-02
 -7.7913594e-01
 -9.2663042e-02
  2.1407267e-02
 -4.6677254e-02
 -2.2574928e-02
 -4.3519056e-01
 -2.2295995e-01
 -5.2362155e-02
 -8.2312524e-03
  1.1895785e-01
  2.8926995e-01
 -1.0221038e-01
  1.3372897e-01
  1.0945856e-01
  7.7780060e-02
  3.3611485e-03
  1.3366242e-01
 -1.0414690e+00
 -7.3851056e-02
 -2.3151620e-01
  1.4719826e+00
 -5.0410140e-01
 -5.6558400e-01
 -1.1885231e-01
 -5.4643238e-01
  2.0778842e-01
 -4.5893595e-01
  4.6172720e-01
  1.5034591e-01
 -2.5918096e-02
 -3.1712458e-02
  1.2899488e+00
  2.3431289e-01
  7.7805601e-02
 -2.4828790e-01
  5.6521934e-01
  3.9681974e-01
  2.0299910e-01
  9.2919230e-02
  2.6598835e-02
  7.5473621e-02
  4.5830849e-01
 -9.4557464e-02
 -6.8215370e-01
  1.1750729e-01
  2.2167742e-01
  6.1582446e-01
 -7.2295822e-02
 -1.7683236e-01
 -1.1028273e-01
  1.1358181e-01
  1.3788852e-01
  3.6937723e-01
 -2.5938573e-01
 -2.3915097e-01
  1.7582850e+00
 -3.3124956e-01
 -8.9370862e-02
  4.6958929e-01
 -1.0607072e-01
 -5.1250613e-01
  7.3145050e-01
  2.8203312e-01
  5.8397237e-02
 -1.3834709e-01
  5.8245754e-01
 -1.1490016e-01
  1.1281678e-01
  1.8481081e-05
  9.5228460e-03
 -7.4463528e-01
 -1.6834473e-02
 -1.2956345e-01
 -4.2946056e-01
  6.8577684e-02
  3.4091023e-01
  1.7383926e-01
 -1.1469715e+00
 -8.4009951e-01
 -4.5063138e-02
 -3.5630220e-01
  2.5613803e-01
 -3.5075188e-01
  2.5226066e-01
 -1.8019502e+00
  1.3596064e+00
 -8.0775321e-02
 -1.6965058e-02
  6.2184137e-01
 -2.1529743e-01
  9.5890969e-01
 -3.6087546e-01
 -3.7463881e-02
  6.3572246e-01
 -8.9711640e-03
  1.0402392e+00
 -1.0561316e-01
 -5.4373199e-01
  5.4751015e-01
  5.5085629e-01
  8.4644181e-01
  9.7445107e-01
  1.2430441e+00
 -1.2198755e+00
  9.2514314e-02
  8.2035482e-01
 -4.1294068e-01
  1.7584096e-01
 -9.2820883e-01
  8.0726095e-02
  9.6158111e-01
 -9.3945652e-02
  6.7863953e-01
 -9.9952853e-01
 -1.0847805e+00
  2.2724260e-01
  4.7720292e-01
  3.6915681e-01
 -9.8487937e-01
 -1.6065819e+00
  2.7969760e-01
 -1.5447135e-01
  9.4484529e-03
  6.3372421e-01
 -2.1745978e-02
  4.6041226e-01
  6.6375725e-02
 -1.4740533e-01
 -5.1007103e-02
  6.6898033e-02
 -1.4961466e-01
 -6.6246903e-01
 -6.3289118e-01
  5.7996893e-01
 -1.0634534e+00
 -3.6844620e-01
  1.7300179e+00
 -1.8698420e-01
  2.2896004e-01
  5.2707940e-02
 -5.3216201e-01
  1.6949229e-01
 -1.8198888e-01
 -1.4519081e-01
  1.4869839e+00
 -2.2066355e-01
  1.0914426e+00
 -5.9799120e-02
 -1.3972154e-01
 -1.2984212e-01
  2.3175402e-01
 -1.5695505e-02
 -1.5648682e-01
 -5.9907264e-01
  2.9395416e-01
 -8.2807928e-01
  3.8343012e-01
 -1.6518813e-01
  2.8627962e-01
 -1.1719471e-01
 -4.9462861e-01
  2.2629407e-01
  8.0121933e-03
 -7.2750850e-03
 -5.8758909e-01
 -1.9509293e-02
  3.8083294e-01
 -1.1429875e-01
  2.7596956e-01
  2.1718685e-01
  9.2486285e-02
 -2.5530559e-01
  7.2240628e-02
  1.5630366e-01
  2.5345126e-01
  1.5989363e-01
 -2.8856081e-01
  3.1994149e-02
 -2.7464592e-01
  1.1520484e-01
 -3.5131863e-01
 -2.3782327e+00
  1.5452198e+00
 -4.9174242e-02
  5.8369529e-01
 -8.4376022e-02
 -2.5630963e-01
  1.2545321e+00
  6.9071440e-04
 -1.8753991e-01
  2.9148981e-01
 -7.3312271e-01
  2.4798802e-01
  1.5739976e-01
 -1.5750818e+00
  1.6767949e-01
  2.7760616e-01
  1.1434158e+00
  1.3731816e-01
 -2.0225994e-02
  2.6934472e-01
 -1.8442288e-01
  7.8737837e-01
  6.2530392e-01
 -3.2037005e-01
 -1.0694604e-01
 -2.0017721e-01
 -7.7282131e-02
  7.7143735e-01
 -8.2416721e-02
 -1.8857652e-01
 -3.8593808e-01
 -6.2687851e-02
  7.6589577e-02
  3.0674708e-01
 -4.1685048e-03
 -4.0188694e-01
  3.6296514e-01
  8.9556050e-01
 -5.8663321e-01
  3.2748476e-01
 -5.7707381e-01
  6.5348452e-01
  6.3094452e-02
  7.6776915e-03
  1.1643200e-01
  6.7357165e-01
  2.3099818e+00
 -2.1693740e+00
 -1.8201808e+00
 -1.0149904e-01
 -1.2455996e-01
  1.7775548e+00
 -2.1403590e-01
 -1.2149297e+00
 -1.5470102e-01
  1.1521924e-01
  2.8411286e-02
 -2.5378820e-01
 -1.7759292e-01
 -5.2313882e-01
 -8.5792385e-02
 -8.1091422e-01
 -1.8476841e-01
 -2.8735498e-02
  1.4062247e-01
  3.5181582e-01
 -1.4561386e-01
  1.0528780e-01
  2.3371063e-02
  3.1136472e-02
  2.0293663e-01
 -3.7724420e-01
  3.3424655e-01
  9.4038486e-02
  3.3976948e-01
  4.8058489e-01
 -6.4567603e-02
  2.1792927e-01
 -5.3354461e-02
  1.3510017e-01
 -6.9840170e-02
 -2.4578275e-01
  1.8243200e-01
 -4.6117190e-01
  1.9386827e+00
  3.5502237e-01
 -6.1249858e-01
 -2.7387604e-01
 -1.7419666e-02
  1.1730852e-01
  2.8803658e-02
 -4.6233144e-02
 -4.2512619e-01
  1.1214241e-02
  1.4335883e-01
 -1.3580242e-01
  1.7484860e-01
  9.3885817e-02
  2.1899681e-01
 -1.7364694e-01
 -5.6542203e-02
 -1.2980689e-01
  1.0464974e-02
 -1.9005259e-02
 -2.4951033e-02
  5.3421307e-01
  8.1392676e-02
  1.5719560e-01
 -1.7867771e-01
 -8.1945682e-01
 -8.6703256e-02
  1.0412027e+00
 -2.2577107e-01
  3.0823220e-02
 -2.3562564e-01
 -3.7069932e-02
 -1.0386072e-01
  1.7553924e-01
  1.0724812e-01
 -6.9566563e-02
  1.0209566e-01
  2.9930782e-01
 -4.4802759e-02
 -1.0625030e+00
 -1.7584330e-01
 -8.0396004e-02
  9.8667765e-01
 -7.8227356e-02
 -6.6668041e-02
  2.3618093e-01
  4.9448279e-01
  2.3492767e-01
 -6.8508089e-01
  9.8535113e-02
  1.2202430e-01
  1.1855487e-02
  2.7378187e-01
  7.1080208e-01
  2.6351827e-01
 -6.2611002e-01
 -9.9366762e-02
 -1.2087774e-01
  1.1792530e+00
 -1.6721976e-01
 -3.1461287e-01
  4.6347696e-01
  3.1633687e-01
  9.8888807e-02
  1.2200694e-01
  1.9367081e-01
 -7.4068338e-02
 -2.4248620e-02
  9.4559506e-02
 -1.2623201e-01
 -2.1317041e-01
  7.3801935e-02
  1.9447669e-01
  8.2396209e-02
 -5.0314263e-02
  3.2114010e-02
  8.5042134e-02
 -1.2927054e-01
 -3.9979908e-01
  2.3064446e-02
  5.1202077e-02
  5.5382941e-02
  4.2183596e-01
 -3.4959260e-01
  1.1082970e-01
  3.1756276e-01
 -1.1957546e-02
  9.8280109e-02
 -8.0123198e-01
 -8.4406240e-03
  5.7698059e-01
 -2.2111917e-01
 -1.7736661e-01
 -4.2620438e-01
 -5.7295340e-01
 -3.5173824e-01
 -6.7238325e-01
  2.3804269e+00
  5.9683806e-01
 -4.5297089e-01
  4.0125906e-02
 -4.8409766e-01
  3.0305803e-01
 -2.1716422e-01
 -1.1395732e-01
 -4.6043026e-01
  4.9156332e-01
  1.7544843e-01
 -1.0605376e-01
 -2.2246759e-01
 -6.4788616e-01
 -2.7625230e-01
 -2.2075321e-01
  1.2185601e+00
 -1.1525321e+00
  8.8234085e-01
  5.8988369e-01
  9.3572900e-02
 -4.8291999e-01
  7.0497590e-01
  5.5078954e-01
  2.2651121e-02
 -2.9585150e-01
 -9.5477223e-02
 -9.7168893e-02
  1.5079054e-02
 -3.3996035e-03
  1.9763945e-01
  1.1470205e-01
 -9.7497678e-01
 -4.6566018e-01
 -5.6154579e-01
  1.0702698e-01
 -4.0918514e-02
 -1.2759678e+00
  3.6874618e-02
 -2.8791320e-01
 -1.0062239e-01
 -1.5161276e-01
  7.3367834e-02
 -3.1071520e-01
 -8.0216330e-01
  8.3470359e-02
  2.4811232e-01
  6.6396594e-03
 -5.1884377e-01
 -7.7761632e-01
  1.3926948e-02
  1.3489626e-01
  2.7699378e-01
  1.8828861e-01
 -3.3380404e-01
  2.2999778e-01
  1.3886373e-01
 -5.5122562e-02
  7.3586017e-02
 -3.3124563e-01
  8.5219771e-02
  2.6004404e-02
 -3.2235399e-01
  2.0482495e+00
 -1.7841126e-01
  1.1237824e-01
 -9.4067566e-02
 -1.5721576e-01
  1.2781870e-01
  9.8112859e-02
  6.1075445e-02
 -6.3018394e-01
 -3.7754855e-01
 -3.8118619e-01
 -2.8567523e-01
  7.7676758e-02
 -1.8872644e-01
 -1.2120916e+00
 -2.1596510e-02
 -3.6764276e-01
 -1.0210855e-01
  3.2425481e-03
 -4.3698099e-01
  1.1820877e-01
 -7.1583323e-02
  5.8742162e-02
  3.1327486e-01
 -2.0397821e-02
 -1.2754632e+00
 -1.8711345e-01
  2.1056797e-01
 -7.3192470e-02
 -5.0446045e-02
  1.5092209e-01
 -9.6691296e-02
  3.6172605e-01
 -1.6059171e-02
 -1.0761468e-01
 -2.5063407e-01
  3.8210511e-01
  1.0762840e-01
 -4.7268379e-02
 -2.2772674e-01
 -1.0838480e-01
 -2.2554265e-01
 -1.7499046e-02
 -1.9980073e-01
 -3.8252205e-02
  2.6418421e-01
 -7.1637437e-02
  9.0921849e-01
  1.6644171e-01
 -7.6827176e-02
  1.6520275e-01
 -4.6622354e-01
  1.0777335e-01
 -4.0556037e-01
 -4.9298476e-02
 -1.0144817e+00
  7.8660570e-02
  4.2251852e-01
 -3.2291910e-01
  3.1803053e-02
  1.0298010e+00
  2.1649285e-01
  1.1784062e-01
  2.5648955e-01
 -2.1151882e-01
  2.1157801e-01
  1.9592345e-01
  2.0065287e-01
  5.4936741e-02
 -1.0772849e+00
  9.7288132e-02
 -9.9458414e-01
  1.8952528e-01
  2.7893132e-01
  3.0880691e-02
 -1.7686355e-01
  3.2971594e-02
 -3.3911222e-01
 -3.9353613e-02
 -1.6959138e-02
 -2.0865455e-01
 -1.1975645e-01
  6.3249749e-01
 -1.3839884e-01
  2.4022030e-02
 -6.6622980e-02
 -2.5394517e-01
  3.9703190e-01
  1.6844174e-01
 -1.6096750e-01
 -2.1968073e-01
 -1.4368806e+00
 -3.0459238e-02
 -1.9736086e-01
 -3.8269290e-01
  3.9215323e-01
  5.8381662e-02
 -2.9381159e-01
 -4.3233025e-01
  3.6871117e-01
  1.4380994e-01
 -7.7737406e-02
 -2.1173762e-01
  2.7486014e-01
  2.4361956e-01
 -3.7837427e-02
 -8.7063938e-02
 -9.9636726e-02
 -1.7605947e-01
 -3.2682180e-01
  4.2100984e-01
 -3.9449960e-01
  7.6504655e-02
  9.4233066e-02
  1.2694839e-01
  7.2344065e-02
  9.9320352e-02
 -7.5613499e-02
 -1.2611285e-01
  1.1804154e-01
 -3.7368222e-03
  1.5458305e-01
  8.6527079e-02
 -5.4798644e-02
 -1.7136888e-01
  6.9248318e-03
  3.2404113e-01
 -2.0764630e-01
  5.7646275e-02
  2.7245644e-01
  3.3271450e-01
 -3.9635104e-01
 -2.9715708e-01
  4.3287355e-01
  1.2097896e-01
 -2.3845453e-02
 -2.9920542e-01
 -3.0047780e-01
 -5.9216768e-02
  3.1357461e-01
  3.7683684e-01
  3.8616112e-01
  4.3926463e-02
  3.5613585e-01
 -3.0067810e-01
 -2.0105822e-01
 -4.4497243e-01
 -1.5778333e-01
  2.9652691e-01
  1.6688573e-01
 -1.2144585e-02
  4.9198240e-02
  4.0535069e-01
  1.7219947e-01
  3.5572028e-01
  1.8053545e-01
  1.0396866e-01
  6.7443997e-02
 -1.0557850e-01
 -2.2303397e-02
  2.9188415e-01
  3.8852289e-02
 -3.9541531e-02
  4.0074188e-01
  5.2489173e-01
 -2.4060288e-01
  9.0641215e-02
 -1.4636792e-01
  5.1769519e-01
  1.3280019e-01
  2.4545132e-01
  2.0273948e-02
 -5.3277429e-02
  2.3859610e-01
  1.1265379e-01
 -2.1030675e-01
  2.3281494e-01
  8.0882210e-01
  4.2862520e-01
 -3.5650313e-01
  6.1820392e-02
  1.5418512e-01
  2.8366771e-01
 -3.7391031e-01
  8.4717330e-03
 -4.4221405e-02
  7.3193058e-02
 -1.3113236e+00
  2.9301181e-02
  1.2005756e-01
 -3.7982136e-01
  8.1239315e-03
  4.7768480e-01
  5.5835694e-01
  7.5111771e-01
 -3.4094858e-01
  3.8898543e-01
  2.3287151e-02
  3.6046535e-02
 -1.0812064e-01
  1.5977739e-01
 -1.3857486e+00
 -3.6934644e-01
 -1.5789600e-01
  2.5102317e-02
  5.0060809e-01
  5.6868564e-02
 -1.9856940e-01
  2.9043177e-01
 -7.5349368e-02
  1.5760861e-01
 -2.3941231e-01
  2.1399006e-01
 -4.6972025e-02
 -6.1328351e-01
  5.3537272e-02
 -1.8474320e-01
  1.1563741e-02
 -1.7833211e-01
  9.0193868e-01
 -8.3714217e-02
 -4.7092646e-02
 -2.6787987e-01
  2.2001897e-01
 -1.7332470e-02
 -1.6574940e-01
 -2.3082213e-01
  2.5875837e-01
  3.9768523e-01
  1.0118380e-01
 -9.0120858e-01
 -1.1228818e-01
  1.2222513e-01
  1.1081409e-01
 -1.2062048e-01
 -1.1907808e-01
 -3.5257652e-01
 -5.1453624e-02
  1.1086696e-01
  2.9021630e-01
  1.3354166e-01
 -4.2163673e-01
  2.2446385e-01
  1.1946204e-01
 -3.3963080e-02
  4.4616055e-02
  6.2191629e-01
 -3.9520290e-01
  5.5527973e-01
  4.5474979e-01
  3.2662454e-01
  8.8840641e-02
  8.7839022e-02
 -1.6293097e-01
 -3.6739573e-01
 -1.6331825e-01
  1.3315254e-02
  4.6283254e-01
  2.2822803e-02
  2.2985274e-01
  3.4869727e-01
  8.9061826e-02
  5.0393218e-01
 -1.1159005e-01
  3.7142094e-02
 -1.4085776e-02
 -4.8121634e-01
  7.1997526e-03
  3.5851714e-01
  4.0818635e-01
  7.1281627e-02
  2.0864574e-02
 -3.4546307e-01
 -1.2799577e-01
  1.6583054e-01
  9.2458993e-02
  8.3553225e-01
  2.7789041e-01
  2.4283208e-01
 -9.1457194e-01
  4.2382634e-01
  4.2692062e-01
  5.1439300e-02
 -2.1740085e-01
 -6.7739509e-02
 -5.3249729e-01
  3.6006391e-02
  1.6600651e-01
  2.1179828e-01
 -2.6836896e-01
  1.3480021e-01
  3.3736971e-01
 -2.8131813e-01
 -1.4527045e+00
 -2.5529903e-01
 -2.6391810e-01
  1.2067546e-01
 -2.9527715e-01
 -5.5520102e-02
 -1.2734620e-01
 -2.7729121e-01
  1.5259577e-02
  3.2054529e-02
  9.8716512e-02
 -5.2942777e-01
  2.5051430e-01
  2.8927633e-01
 -1.5008360e-01
  1.1245465e-01
  2.1068191e-02
  2.7779958e-01
 -5.0018528e-03
 -3.5641420e-01
 -1.4197403e-02
 -4.4425926e-01
 -3.7091383e-01
 -2.4535407e-01
 -9.6171886e-02
  9.2416346e-01
 -2.1328887e-01
  7.5984967e-01
 -6.6596068e-02
 -9.5988862e-02
 -1.0298618e-01
  2.4942747e-01
 -4.3851048e-01
 -1.3809977e-01
 -1.7152163e-01
  1.5866797e-01
  3.9611858e-01
  1.6940159e-01
  4.4529364e-02
  6.2908500e-01
  1.5311673e+00
  5.6874198e-01
  2.5227040e-01
  8.1941730e-01
  1.3809712e+00
  9.3187523e-01
 -4.1535071e-01
 -5.6867516e-01
 -2.6386885e-02
  2.8739903e+00
  4.7087026e-01
 -1.1441844e+00
  1.1580951e+00
  2.4279945e-01
  1.7498475e+00
 -1.3156547e-01
 -1.7788166e-01
 -1.4095944e-01
 -5.9101725e-01
  1.0902503e+00
  2.2910498e-01
 -4.8196003e-01
 -1.3514422e-01
  9.3112394e-02
  1.7790242e+00
  2.2282885e-01
  1.7830332e-01
 -1.2131158e-01
 -2.3454806e-01
  4.1584295e-01
 -1.0455797e+00
  2.0317933e-01
  4.0674892e-01
  1.3352451e-01
  2.8707621e-01
 -1.0342230e+00
  3.8417915e-01
  1.2963711e-01
 -1.0832305e+00
 -9.7645551e-01
 -1.1704413e-01
  4.8889112e-02
  3.8370863e-02
 -2.4575916e-01
 -1.9894440e-01
 -6.7625457e-01
 -1.0736882e-01
 -3.2457447e-01
  2.8769767e-01
  7.1397549e-01
 -6.9556659e-01
  1.0364011e-01
  4.9195696e-02
 -3.9313495e-01
  3.4846600e-02
  9.4929390e-02
 -2.9521355e-01
 -1.4863052e+00
 -9.8154294e-01
 -7.3676437e-02
 -5.7427377e-01
  1.2268302e-01
  2.5654978e-01
  1.4407180e-01
 -5.3153926e-01
 -4.3543825e-01
 -1.7656299e-01
  1.6317537e-02
 -1.1543474e-01
 -2.5696820e-02
  2.0368890e-01
 -6.6914439e-02
  5.3846970e-02
  1.9338587e-01
  1.9280666e-01
 -6.4388976e-02
  8.3445467e-02
  4.4137598e-03
 -2.1930537e-01
 -1.7111796e-01
 -3.9633317e-03
  2.0346512e-01
 -3.1792361e-01
 -1.9589883e-01
  8.8338308e-02
 -6.3630068e-01
  2.6014435e-01
 -1.5489075e-01
  1.3960254e-01
  1.5770167e-01
 -1.5987333e-02
  3.8624027e-01
  5.4275449e-02
 -6.4566575e-02
  2.4190767e-01
  2.1855017e-02
  1.6353682e-01
  3.0835383e-03
 -9.2670493e-02
  9.9606264e-01
 -8.3722419e-01
  1.5732754e-02
  4.2040814e-02
  1.3559275e-02
  2.2254626e-01
  2.9507506e-01
 -4.0892985e-01
 -1.1664096e-01
  3.7316346e-01
 -6.3408636e-02
  4.2981634e-01
 -1.0143699e-01
 -2.3017772e-02
 -2.8714499e-01
 -4.5872040e-02
 -2.7073033e-03
 -9.5353581e-02
 -4.0573257e-01
 -1.7567313e-01
 -2.2567940e-01
 -7.0238553e-02
 -1.0262609e+00
  9.6518494e-02
 -1.5950921e+00
 -1.9450098e-01
  2.5544441e-01
 -1.6362669e-03
  4.4077123e-03
  1.6751467e-01
 -1.5363969e-01
  5.1964509e-01
  5.2004956e-02
 -1.0733268e-01
 -3.5696250e-01
 -5.9658840e-02
  7.6573469e-02
 -1.9512574e-01
  4.4789154e-02
  3.3019608e-01
  2.8555998e-01
 -2.6252463e-01
 -8.7880880e-02
 -8.0850564e-02
 -3.9044604e-01
  6.2117451e-03
  4.0779340e-01
 -1.0552329e+00
  2.3234546e-02
  1.6885236e-01
 -1.5602002e-01
 -3.8839683e-02
 -2.6824316e-02
  1.9643798e-01
 -1.5644355e-01
  1.6332005e-01
 -3.5357669e-01
  1.6416806e-01
  2.1022942e-03
 -1.8551333e-01
 -3.8862657e-02
 -3.7407452e-01
 -1.4001523e-01
 -1.5743093e-01
 -2.7597323e-01
  4.0016922e-01
  1.4701751e-01
  3.6815530e-01
 -1.2763967e-01
 -1.4156611e-01
 -9.4058073e-01
  4.4275388e-01
 -1.7784280e-01
 -7.0638132e-01
  2.3659438e-01
 -1.2195125e-02
 -6.8110776e-01
  8.5684791e-02
 -1.3312884e-01
 -3.8573337e-01
  1.7213233e-01
 -1.0966536e+00
  2.7546602e-01
 -2.0144522e-01
 -2.2603472e-01
  2.2351792e-02
  2.1079497e-01
  6.4624391e-02
 -3.3137903e-02
  8.7576360e-02
 -1.7828804e-03
 -9.0967499e-02
  1.3883618e-01
 -3.6932967e-04
  1.4837018e-01
 -2.7057943e-01
  1.9502299e-01
 -2.5139093e-01
 -7.0355982e-02
 -3.8354075e-01
 -7.8450292e-02
  4.3803236e-01
 -4.5438357e-02
  4.2420840e-01
  1.3413711e-01
  5.5155116e-01
  3.4750029e-02
 -5.5992877e-01
 -3.9627683e-01
 -1.1468256e-01
 -1.8717220e-02
 -2.4945007e-01
  1.6897972e-01
 -3.8560126e-02
  4.8819810e-01
  7.4216329e-02
 -2.0943281e-01
 -1.9916788e-01
  1.0265243e-01
 -9.0271393e-03
  1.8898384e-01
  2.5564538e-02
  7.2138622e-02
 -1.0271513e-01
 -3.5161495e-01
  1.5826373e-01
  3.9294373e-02
  6.3026839e-01
 -1.2554164e-01
  4.3246612e-02
 -5.7226572e-02
 -1.0317029e-02
 -8.1499018e-02
 -2.7967721e-01
 -1.0444542e+00
  5.4818228e-02
 -3.6067370e-02
  6.1307501e-02
  1.5506178e-01
  4.7628060e-02
 -6.0428894e-01
 -3.8125739e-01
 -2.6846999e-01
 -3.8496178e-01
  5.0132656e-01
 -4.2508662e-02
 -6.3205309e-02
  1.3975501e-01
 -5.5053670e-02
 -9.8416368e-03
 -3.4998617e-01
 -3.1865034e-01
 -2.4502445e-02
  2.1603455e-01
  1.5409763e-01
  4.0433589e-01
  2.3838775e-01
  2.4384740e-01
 -1.4528750e-01
  1.0933258e-01
 -5.4149475e-02
  1.6511622e-01
 -1.5525530e-01
 -4.8998710e-02
 -1.4587708e-01
 -3.0418822e-01
 -2.0736942e-01
 -8.6068958e-01
  1.3340868e-01
 -9.1756679e-02
  6.6300798e-03
  1.1565589e+00
 -8.9936428e-02
 -1.9691521e-01
  2.8504270e-01
  2.4934386e-01
  1.6222455e-01
  8.5039765e-02
  2.7577144e-01
  1.4218548e-01
 -8.6312024e-03
  2.1147150e-01
 -3.9759474e-03
  5.2235238e-03
 -1.5212910e-01
 -7.1806103e-02
  4.2249199e-02
  3.0036709e-01
  2.1938033e-01
 -2.9899795e-02
  1.6714095e-01
  4.8519496e-02
  2.2721343e-01
  4.5196703e-01
 -2.8106284e-01
  1.4262570e-01
 -4.5061898e-01
  9.1627829e-02
  1.6046238e-01
  1.9438116e-01
  9.3582720e-02
  5.6585185e-02
  2.1808897e-01
  2.9771072e-01
 -6.0401899e-01
 -2.2223336e-01
  2.3603238e-01
  4.5137668e-01
  4.0540677e-01
 -1.4733918e-01
 -4.1996655e-01
  3.2650854e-02
 -4.2931870e-01
  5.1390129e-01
 -2.2794148e-01
 -1.3525115e-01
 -1.3313083e-01
 -1.3161777e-01
 -1.2089093e-01
  6.6092759e-02
  1.1459613e-01
  1.8391757e+00
 -1.0470913e-01
  1.1807846e-01
 -5.1206326e-01
  6.8124205e-01
  2.4835545e-01
 -2.6660133e-02
 -3.9371658e-02
  2.2457758e-01
  2.0566082e-01
  8.5583441e-02
  4.1856253e-01
  1.3213158e-01
  4.5957785e-02
  1.5185922e-01
 -1.0384545e-01
 -4.2185467e-03
 -1.0001206e-01
  3.5296343e-02
 -2.4300516e-01
 -1.6255766e-01
  2.9551211e-01
  8.7005772e-02
 -3.7727036e-02
 -6.4683872e-01
 -2.1094997e-01
 -1.1745898e+00
  1.7298383e-01
 -1.4463997e-01
 -4.4259804e-01
 -9.1306940e-02
 -9.3995675e-02
 -6.9478363e-02
  4.1580338e-02
  2.3513830e-01
 -1.1420797e+00
  3.8586568e-02
  1.9782355e+00
  4.0065367e-02
  3.2693248e-02
 -1.4468849e-01
  5.4561060e-02
 -1.0722335e-01
  1.9950448e-01
  4.3610290e-01
 -1.9133264e-01
  1.4305691e+00
  5.1629812e-02
 -3.1189129e-01
 -6.5004498e-02
  1.7652178e-01
 -5.4843915e-01
 -6.7780942e-02
 -7.6043114e-02
  3.7755519e-02
  1.3632949e-01
  3.6474220e-02
  5.0092930e-01
  3.2041755e-01
 -2.3388690e-01
  1.2473991e-01
 -2.3619336e-01
 -1.7622460e-01
  9.1702506e-02
 -1.0643891e-01
  3.2904392e-01
 -2.8902876e-01
 -1.1250351e-01
 -9.0613210e-01
 -6.1950270e-02
 -1.0622076e-01
 -9.2109991e-03
  2.1101312e-01
 -1.1598890e-01
  2.7421087e-01
  1.4147924e-01
  1.8984629e-01
 -1.9074762e-01
  1.5685527e-01
  2.9478613e-01
  1.2314944e-01
  7.4137777e-01
 -1.2815565e-01
  4.2916220e-02
  1.7537364e-01
  2.1969418e-01
 -4.5893494e-02
  6.5704584e-01
 -2.4959457e+00
  2.7368717e-02
 -9.8324694e-02
  3.2365926e-02
  2.0102143e-01
  1.4997363e-01
 -2.2841902e-01
  3.0216046e-02
  7.8240938e-02
  7.9602562e-02
  2.9270270e-01
  4.6153656e-01
 -1.8311398e-01
 -7.3262580e-02
 -7.8256607e-02
 -8.3780490e-02
 -1.3019226e-02
 -9.0748686e-01
 -7.1837753e-02
 -1.0901962e-01
  2.2829647e-01
  2.0564868e-01
 -8.6889493e-01
  4.1367367e-01
  5.3390545e-01
  1.2766041e-01
 -1.7984146e-01
 -1.8550330e+00
 -2.1892073e-02
 -1.3309374e-02
 -5.6788936e-02
  2.9877204e-01
 -3.9129519e-01
 -1.5585047e-01
 -1.0647813e-01
  6.9492608e-02
  1.5594336e-01
 -1.1225457e-01
 -2.6963282e-02
  3.1481445e-01
  1.7966957e-01
 -4.3575731e-01
 -1.7590976e-01
  3.1397375e-01
  3.2371736e-01
 -1.4916764e-01
 -1.0193539e-01
  4.3569762e-01
  3.8550559e-02
 -2.6566841e-02
 -2.3214574e-01
 -7.5032413e-02
 -2.9589674e-01
  9.6104711e-02
 -1.3670394e-02
  6.6944885e-01
 -1.2709013e-01
  3.3111230e-02
 -5.7274375e-02
  3.7914073e-01
 -2.2951828e-01
  7.4606046e-02
  1.1442616e-02
 -2.3769788e-02
  1.7361195e-01
 -3.4692209e-02
 -1.6653982e-01
  1.3768508e-01
  4.7727298e-02
  4.0102264e-01
 -2.8345591e-01
 -8.3967097e-02
  4.5977652e-01
  1.7962998e-01
  4.3609552e-02
  1.3045272e-01
  2.1983415e-01
  1.7281841e-01
  1.0559919e-01
  4.4797713e-01
 -6.6541702e-02
 -3.2114401e-01
  5.9768599e-01
 -8.9855671e-02
  1.3364081e-01
 -1.7369477e-01
 -2.0456395e-01
 -8.3068305e-01
 -1.9250819e-01
  2.2522705e-02
  1.4434427e-01
 -5.1517718e-02
 -3.6388829e-02
 -6.6682331e-02
 -3.3210692e-01
  2.7125108e-01
  9.3191601e-02
  1.6470127e-01
  3.9101252e-01
  2.6115844e-01
  4.1389935e-02
  9.5522791e-02
  4.9553710e-01
  1.9960976e-01
  2.6643367e-02
 -7.9363495e-01
  1.9744605e-01
 -9.3659632e-02
  1.1862049e-01
 -2.5436687e-01
  7.8110754e-01
  3.0166990e-01
 -1.0980766e+00
 -2.2992435e-01
  1.4192204e-01
  7.4356794e-03
  1.2603131e-01
  5.9662316e-02
  5.5191696e-01
 -3.7830192e-01
  4.4933686e-01
  1.3490675e-01
 -1.1557893e-01
 -5.2240396e-01
 -4.1278929e-02
  1.2958023e-02
  1.8302588e-01
 -1.3132861e-01
  4.8942199e-01
  2.7667975e-01
  1.5048867e-02
 -4.6748284e-02
 -1.5658913e+00
  7.5943239e-02
  5.8884501e-02
  7.4205108e-02
  3.2780930e-01
 -1.6612431e-02
  9.0282865e-02
  2.8656894e-01
 -2.0881878e-02
 -1.8619707e+00
 -1.5762593e-01
 -2.1913031e-01
  9.8518990e-02
  2.1295750e-01
 -2.1993634e-01
  1.7224769e-01
 -3.0046389e-01
  8.7205887e-02
  1.0845685e-01
  3.0137855e-01
 -4.6130130e-01
 -9.6560538e-02
  1.1174303e-02
 -2.1499831e-02
  2.5102656e-02
 -7.2762233e-01
 -1.0082898e+00
 -5.0324835e-02
 -1.7748311e-01
  4.4404030e-01
  1.8905157e-02
 -2.4820006e-01
  1.4429331e-01
 -4.8333931e-01
  2.9559532e-01
  9.8111466e-02
  1.6471288e-01
  1.5065427e-01
 -6.9227196e-02
 -1.0599869e-01
  7.7688612e-02
 -5.9406087e-02
  2.0291239e-01
  2.3785509e-02
  6.0910803e-01
 -8.6127311e-02
 -6.6418543e-02
  1.7326611e-01
  1.1352446e-01
 -2.0112129e-01
  4.1586331e-01
  1.6169949e-01
  2.9531348e-01
 -4.8652822e-01
 -1.7242443e-02
 -5.2519482e-02
 -1.9458462e-01
 -4.2120212e-01
 -1.9677648e-01
  9.6137202e-01
 -2.3043124e-01
  1.0018618e-01
  6.7976139e-02
  8.0950849e-02
  3.3116329e-01
 -9.6357696e-02
 -1.3770115e-01
 -1.3181831e-01
 -1.6579893e-01
  4.8203222e-02
  1.0139817e-01
  3.2347474e-01
 -9.7110122e-02
  6.7369449e-01
 -1.1804081e-01
 -1.9878292e-01
  6.3712522e-02
 -1.1727040e-02
 -5.6510441e-02
  2.2533253e-02
 -1.0452603e+00
 -9.8343370e-03
 -7.0853412e-02
  2.7176976e-01
 -3.3124137e-01
  5.0999510e-01
  1.4012143e-01
  1.6245039e-01
  3.9390787e-02
 -4.9047293e-03
 -1.8308155e-01
  5.3608227e-01
  4.6784312e-02
 -6.4300396e-02
  1.6020324e+00
 -2.5680158e-01
  1.8166143e-01
 -1.0161249e-01
 -4.8930597e-01
  3.9803973e-01
 -2.9578269e-01
 -9.3456522e-02
  4.2219642e-03
 -5.2522916e-01
  3.9147648e-01
 -3.3835077e-01
  2.3468371e-01
  1.5430848e-01
  1.4997739e-01
  2.1571690e-01
 -6.5127015e-01
  1.6930690e-01
 -4.1328415e-01
  1.3481681e-01
 -2.4753274e-01
 -2.7961273e-02
  3.3584413e-01
 -9.3439952e-02
 -5.8340716e-01
  3.1223150e-02
 -2.4621333e-01
 -4.6832550e-01
  6.7732149e-01
 -1.4242570e-02
 -2.4383953e-01
  9.8354615e-02
  3.7157747e-01
  3.5385653e-01
 -2.5897738e-01
  4.7496179e-01
 -2.2040101e-02
 -7.6029301e-02
 -1.4679568e-01
 -1.2710352e+00
  3.1145618e-03
  4.3050919e-02
 -1.3422477e-01
 -6.1519872e-02
 -7.1835086e-02
 -3.6359167e-01
  1.1735601e+00
  6.9654131e-01
  2.4154510e-01
  5.6697148e-01
 -1.0437471e-01
 -1.0540619e-02
 -1.5008819e-01
 -2.2515653e-01
  3.2819916e-02
  4.8480022e-01
 -1.4674439e-01
  2.6026106e-01
 -1.9258897e-01
  1.8181056e-01
 -2.9062229e-01
 -3.8447586e-01
  1.9142963e-01
  4.8087798e-02
 -1.9770266e-01
  5.3054262e-02
 -1.2383414e-02
 -1.3157509e-01
  1.2114800e-01
 -4.8920634e-01
  5.8539504e-01
  1.5403490e-01
  3.2963451e-02
 -3.1877401e-01
  4.8872209e-01
  4.8625517e-01
  5.6671686e-02
  1.6834776e-01
 -9.4298877e-02
 -7.7964738e-03
 -5.1412132e-02
 -4.8521763e-01
  1.5202890e-01
 -3.2810926e-02
  2.5592837e-01
  1.3358402e+00
 -4.5845099e-02
  1.5211488e-01
  5.5894419e-03
  6.1058450e-01
  4.7737528e-02
 -1.2521920e-01
  5.1072999e-03
  1.0154290e-01
 -2.0358818e+00
 -2.1920528e-01
 -2.6636335e-01
 -1.0688552e+00
  3.3725309e-01
  3.7474027e-01
 -1.6593933e-01
 -2.1473067e-01
  9.3990363e-02
 -1.7571245e-01
 -5.3362083e-01
 -5.1727585e-02
  1.2176728e+00
 -7.8254249e-03
 -2.8075334e-01
  2.9290286e-01
  2.6940309e-02
 -4.9975011e-01
 -2.2146022e-01
 -2.3386155e-01
 -7.0235163e-02
 -3.8833566e-02
  6.0620683e-01
 -2.8137836e-01
  8.5687220e-02
 -5.3244203e-01
  1.0064282e-01
 -2.3179220e-01
  2.8686103e-01
  1.5962866e-01
 -4.6015125e-02
 -3.2687244e-01
  3.0354960e-02
  3.5988522e-01
  2.4124368e-01
  4.5086893e-01
 -2.0104437e-01
  3.1940839e-01
 -1.0110416e-01
  1.0452944e-01
  3.3040166e-01
  1.4812630e-01
 -1.2852587e-01
  2.2131763e-01
 -5.4273546e-01
  1.7040803e-01
  2.0484246e-01
  6.6087222e-01
 -2.5899017e-02
  4.9012581e-01
 -2.7165100e-01
  9.1604799e-02
 -3.2859862e-01
  9.0140648e-02
 -3.5724732e-01
  1.8754913e-01
  1.4702751e-01
  1.1822174e-01
  1.0775358e-02
 -2.1188965e-01
 -3.0173761e-01
 -2.9992250e-01
  1.4642008e-02
 -3.1154353e-02
  2.3648556e-01
  2.1773368e-01
  5.0809931e-02
 -2.0022358e-01
 -8.8798052e-01
 -3.7231642e-01
  4.7515347e-03
 -1.6876876e-01
 -1.3338045e-02
 -7.3948195e-03
  8.0177534e-01
 -4.9376169e-01
 -5.2257496e-01
  2.2313760e-01
  2.9915047e-01
 -4.4448269e-03
  1.9002218e-02
  4.2516011e-01
 -6.4578258e-02
  2.0645081e-01
  1.8396519e-01
 -2.6675038e-02
  9.0992904e-01
  2.0301101e-01
 -2.3269318e-01
 -9.8709621e-02
  4.9339905e-01
 -2.6554909e-01
  3.7391704e-01
 -1.0800514e-01
  4.5382935e-01
  6.3911170e-02
 -2.3544559e-02
 -5.7531118e-02
 -1.6492279e-02
 -1.0838553e+00
 -2.1173885e-01
  3.5904151e-01
 -6.9961274e-01
  1.3378830e-01
 -6.8779296e-01
  1.2815578e-01
 -1.4241000e-01
  5.1636517e-02
  1.7974313e-01
 -6.0068619e-01
 -6.5438770e-02
 -4.5600817e-01
 -6.6546047e-01
 -2.2089662e-02
  2.5280641e-02
  7.4499494e-01
  3.1932673e-01
 -2.0850730e-01
 -6.0263336e-01
  4.7580779e-01
  1.0700662e-01
  3.9472416e-02
  4.1436739e-02
 -6.1239831e-02
  1.3721268e-01
 -1.7594236e-01
  5.5583380e-02
 -4.4830106e-02
 -2.0836897e-01
  2.0254487e-01
 -1.4832526e-01
  1.2837807e-02
  2.3775126e-01
 -6.0662425e-01
  3.5484999e-02
  6.5299004e-02
 -4.4652659e-01
 -1.1512828e-01
  2.9604455e-02
 -7.9302812e-01
  7.5240746e-02
  3.5461582e-02
 -2.4391773e-01
  5.8255130e-01
  6.2078434e-01
  3.8606569e-02
  2.5078738e-01
  5.2723706e-02
  7.3242313e-01
  9.3421057e-02
 -1.2441763e-01
  2.0831466e-01
  9.9722847e-02
 -1.8006021e-01
  1.7441392e-02
 -2.7914241e-01
  1.6218916e-01
 -3.2382357e-01
  4.1100606e-01
 -6.1358649e-02
  1.3817264e-01
  3.7472028e-02
 -1.1602157e-02
  1.3396173e-02
  5.6198787e-02
 -8.3774015e-02
  8.9696288e-02
 -3.8801065e-01
  2.9519039e-01
  2.5074872e-01
  6.5341100e-02
 -4.9267504e-02
 -9.3414843e-02
 -1.3864312e-01
  4.8786655e-02
 -1.0073163e-01
 -2.1998994e-02
  2.6268611e-02
 -2.4494806e-02
 -1.8497849e-02
  2.7987754e-01
  9.5721133e-02
 -1.0038356e-01
  1.3877174e-01
 -7.8359380e-02
  1.6730040e-01
  1.2770013e+00
  8.0853842e-02
  2.7047697e-01
  5.6238323e-01
  2.1237824e-02
 -3.8592305e-02
 -5.7006752e-01
  5.9889466e-01
 -1.4240875e-02
  1.4275050e-01
  1.3998578e-01
  3.3110760e-02
  4.4881154e-02
 -2.7020890e-01
 -1.1720318e-01
 -1.2171781e-01
 -1.2816302e-01
 -5.4642642e-01
 -3.4127384e-01
 -1.3521604e-01
 -4.9152383e-01
 -1.1841510e-01
 -2.5265589e-01
 -1.6236851e-01
 -4.0761909e-01
 -2.8329918e-01
  1.0609353e-01
 -4.0550077e-01
  2.3887667e-01
 -2.0427741e-01
 -2.0324722e-01
 -5.1424110e-01
 -4.4813550e-01
 -3.0988118e-02
 -6.0840809e-01
 -2.8545594e-02
  1.8616118e-02
  4.8721749e-01
  1.0632099e-01
  5.5129059e-02
 -4.1935798e-02
  5.9748077e-01
  7.6422036e-01
  1.5219171e-01
  1.4134215e-03
 -3.1928818e+00
  1.7754884e-02
 -3.0564275e-01
  3.2486299e-03
 -3.7222487e-01
 -7.6891720e-02
  2.4038157e-01
  1.8344158e-02
  4.8893720e-01
 -1.8689227e-01
  2.5458625e-01
  9.6655264e-03
  7.2295934e-01
  1.5216556e-01
 -1.0893043e+00
 -1.3740233e-01
 -5.1772988e-01
  1.5594828e-01
  3.2810956e-02
  7.5065464e-01
 -6.2089466e-02
 -2.0656104e-01
  1.5857019e-01
  5.3904012e-02
  2.2395866e-01
  1.0164762e-01
 -5.1363904e-02
 -2.1163070e-01
 -1.3330548e-01
 -3.5866177e-01
 -2.2018528e-01
 -1.3602519e-01
  1.3771424e+00
 -1.1786486e-02
 -1.4994158e-01
  8.8437065e-02
  1.1520831e-01
 -2.1654882e-01
  2.1837260e-01
 -1.1123874e+00
  8.3614141e-01
 -4.0030450e-01
 -3.9156112e-01
  1.0728386e-01
 -7.8318340e-01
 -1.7414998e-01
  4.2646635e-02
 -1.7857127e-01
  1.3155445e-02
 -1.3534653e-01
  1.1846673e-02
 -2.9743758e-01
  4.5435366e-01
 -2.2889604e-01
 -1.0055985e-01
  2.4655245e-01
 -9.3320793e-01
  1.1654012e-02
  4.1410536e-01
  2.4599862e-01
  7.5866394e-02
  2.5479901e-01
  4.4224325e-01
  1.2779367e-01
 -2.4065904e-02
 -1.9666637e-01
 -1.6078645e-03
  1.2220043e+00
  1.0021353e-01
  6.5597993e-01
  6.5678316e-01
  5.9700930e-01
  4.1390964e-01
 -1.3526234e-01
 -1.1850654e+00
 -7.5481677e-01
  2.1490567e+00
  1.4823922e+00
  7.5586987e-01
  6.5748084e-01
 -3.4111765e-01
  1.8471822e+00
  1.0609478e-01
 -2.2477442e-01
 -7.8799546e-01
 -7.4542031e-02
  5.2891642e-01
 -2.4400644e-01
 -4.7355738e-01
  9.2552647e-02
 -1.6643558e-01
  6.8304384e-01
  7.3694587e-02
 -1.5949122e+00
  5.6937593e-01
  1.4175506e-02
 -1.0832483e+00
 -1.4142332e+00
 -1.5140685e-01
 -2.0849009e-01
 -2.1046195e+00
 -6.6294169e-01
 -6.0314935e-01
  2.6471514e-01
  4.4437807e-02
 -4.2201126e-01
 -1.9721878e+00
 -3.0735302e-01
  3.6400610e-01
 -1.6978019e-01
  2.6887894e-01
 -9.7429740e-01
 -5.4138440e-01
 -1.1745440e+00
  8.4449664e-02
  6.2314402e-03
 -2.3378675e+00
  2.5804977e+00
 -3.4742679e-02
 -2.5660005e-01
 -4.3223165e-02
 -1.3807553e-01
  4.2607602e-01
  5.4302800e-01
 -6.1487365e-01
  1.8668048e-01
  2.5211889e-01
 -4.5322675e-01
 -4.8189312e-01
  4.2984697e-01
  2.9277068e-01
  8.3948940e-02
 -1.8035896e-01
  5.4568833e-01
 -4.1914325e-02
  6.9303834e-01
  1.7250804e-02
 -1.1329888e+00
 -8.7319529e-01
 -5.0792062e-01
  1.2929238e-01
  1.0592747e+00
 -7.1440864e-01
 -1.8152556e-01
  4.8789942e-01
  6.4395034e-01
 -2.4298270e-01
 -1.4610173e-01
 -6.1462456e-01
 -1.6586371e-01
  3.1665839e-02
  7.3583744e-02
 -1.6599189e-01
 -2.3589388e-01
  2.1776941e-02
  7.1386956e-02
  4.4325671e-01
  2.1849972e-01
  7.8270572e-01
  3.0504346e-01
  9.6014082e-02
 -3.0108148e-02
 -5.9045773e-02
  4.1014677e-01
 -4.1096991e-01
  2.0962889e-01
  4.8068267e-01
 -2.4004646e-01
  1.2701425e-01
 -2.1514134e-01
 -9.1020549e-03
  2.6694155e-01
 -3.2857296e-01
  1.0778607e-01
 -5.1500712e-02
 -5.6606483e-01
 -8.9579895e-02
 -2.4949527e-01
 -2.1471384e-01
 -1.5024192e+00
 -1.1133882e-01
  8.0839348e-01
  2.3867343e-01
 -4.7443593e-01
  7.2681195e-01
  1.3107459e-01
  6.8635255e-02
  8.6762160e-02
 -2.6613253e-01
 -6.3120252e-01
  1.6913348e+00
 -7.9679930e-01
 -8.8846855e-02
  4.0497881e-01
  3.1984065e-02
  5.9775406e-01
 -1.0858007e-01
  5.4360110e-01
 -8.2244825e-01
 -4.5144197e-02
  6.4417547e-01
  2.3377383e-01
 -4.3744338e-01
  1.1568000e-01
  5.4952407e-01
  3.6573112e-01
 -5.6911135e-01
  5.2577518e-02
  4.9421206e-01
  1.1504766e-01
  5.7931017e-02
 -4.5637950e-01
 -2.4730515e-02
 -7.3247826e-01
 -3.6383575e-01
  7.2228277e-01
  1.4251715e-01
 -1.0764971e-01
 -2.5848993e-03
  7.3879868e-01
  6.0284638e-01
 -2.9766867e-01
  3.0865645e-01
  7.3515289e-02
  9.0475408e-03
  2.8595817e-01
 -1.8705292e-01
 -1.1371324e-02
  1.1106712e+00
 -1.4297135e+00
  6.8722963e-01
 -8.0462295e-01
 -1.0154974e-01
  4.0077563e-02
  5.0406806e-02
 -2.1831329e-01
  1.5756427e-01
  1.1930364e+00
  1.0213967e-01
  6.5269247e-02
  4.3659741e-01
 -1.0406333e+00
  1.0491709e+00
 -8.2857752e-01
 -3.0249123e-02
 -2.9842916e-01
  2.8767487e-01
  3.3960286e-01
  5.8979881e-01
 -8.7128028e-02
  3.6542624e-01
 -3.8631475e-01
 -8.5742396e-01
 -3.5803771e-01
  1.6063829e-01
  2.3644562e-01
  1.8186805e+00
 -2.3267817e-01
  4.3680805e-01
 -3.3377498e-01
 -1.1338206e-01
 -1.3814870e-01
  1.1580095e-01
 -2.0517927e-01
 -1.2121542e-01
 -1.2031228e-01
 -1.0706096e-01
  4.7027293e-01
 -3.2463977e-01
 -3.5775149e-01
 -1.9792451e-01
  3.8546741e-01
 -3.4800452e-01
  2.1292169e-01
 -2.2744605e-02
  4.6411227e-02
 -1.1016462e-01
  3.0098715e-01
 -5.5129504e-01
  2.6909542e-01
  2.0773295e-01
 -1.0540410e+00
 -3.9860931e-01
 -1.8663305e-01
 -3.1303087e-01
 -2.0132250e-01
  6.2432818e-02
  9.5645949e-02
 -1.6805926e-02
 -1.1667497e-01
 -3.2100835e-01
  7.6784082e-02
  1.1353621e-01
 -6.7150801e-02
 -3.3164669e-02
  3.6203152e-01
 -2.9301059e-01
  5.2902490e-01
  1.2600538e-01
  7.0687902e-01
 -2.6893485e-01
  7.9475917e-02
  1.2477251e-01
 -8.3004281e-02
 -1.1660539e-02
  3.1236434e-01
  1.5194409e-01
 -1.6090289e-01
  4.2012274e-02
  2.4044984e-03
  3.9966208e-01
  5.3284317e-02
  4.1105300e-02
 -6.1892379e-02
 -1.1666851e-01
 -1.2538610e-01
 -6.6357094e-01
 -4.0904701e-01
  2.7962944e-01
 -3.0049881e-02
  1.1307196e-01
 -1.5254252e-01
  2.1667479e-01
 -3.5528336e-02
  5.5289274e-01
 -5.0643142e-02
  3.7080403e-02
  8.7935179e-02
 -4.7641201e-03
 -4.7197738e-01
  1.6824047e-01
 -9.1639996e-01
 -1.3582551e-01
  1.3205256e-01
 -5.2287616e-02
  1.8950395e-01
 -6.2699333e-02
 -6.4058162e-02
 -1.7372194e-01
  4.1002059e-01
 -2.3904413e-01
  3.2184714e-01
 -2.0352952e-01
 -3.9200178e-01
  7.8244671e-02
  1.8412137e-02
  3.0827539e-03
 -6.9714971e-02
  3.7093610e-02
 -4.9248818e-02
 -4.2192202e-02
  5.3666331e-02
 -8.2285351e-01
  9.7720301e-01
  1.2077806e+00
 -8.9759099e-01
 -5.2894849e-01
 -7.2417778e-01
 -5.3962761e-01
 -5.0642010e-02
 -7.2121125e-01
  1.4418064e+00
  2.2621855e-01
 -1.1692035e-01
  4.0306392e-01
  1.7457129e-01
  1.7651324e+00
 -8.6379170e-01
 -6.4365864e-01
  4.2377272e-01
 -1.7549458e-01
 -7.2939461e-01
 -2.6186762e+00
  6.2741745e-01
 -4.5089936e-03
  1.6766025e-01
  7.6178581e-01
  2.3136659e-02
  2.4598277e-01
  4.4009678e-02
 -2.4779098e-02
  3.9524546e-01
 -9.1362786e-01
 -3.5717204e-02
  3.3881333e-02
 -4.3254070e-02
 -4.2595550e-01
  4.1133076e-01
  1.5673800e-01
 -6.4147794e-01
 -3.8608885e-01
 -4.7453433e-01
  4.0695143e-01
 -4.5734327e-02
 -2.2967111e-01
  2.9519412e-01
 -6.4137822e-01
  2.0860654e-01
  2.1978912e-01
 -4.8758733e-01
  2.8052002e-01
  5.2961349e-01
  7.6968454e-02
 -5.6037486e-02
  3.6504632e-01
 -3.9124895e-02
  3.7012315e-01
 -1.6320133e-01
  1.6793486e-01
 -1.4450058e-01
  8.2426786e-02
  3.6566790e-02
 -1.2744997e-01
  5.1779544e-01
 -1.3208644e-01
 -2.8911960e-01
 -3.7201765e-01
  6.9654286e-02
  1.5114293e-01
 -1.0882013e-01
 -1.3283604e-01
 -2.3303366e-01
  2.0090887e-01
  2.0704326e-01
  1.4529091e-01
  2.0474087e-01
  1.2909566e-02
 -6.9953933e-02
  2.8830689e-01
  4.0602190e-03
 -3.8800275e-01
  3.8080964e-02
 -3.2962644e-01
 -6.7054909e-01
 -6.0597533e-01
  3.4418259e-02
  4.9345292e-02
 -3.1627885e-01
  2.2501926e-01
  2.9128584e-01
  7.4878342e-02
  3.7625456e-01
  8.6381519e-03
  2.7400417e-02
  1.2240035e-02
  3.4095350e-01
 -1.1968108e-01
 -2.4654385e-02
  2.6612705e-01
  2.1475792e-01
 -1.3304573e-01
 -4.3506330e-01
  2.1146466e-01
 -3.3079792e-02
  3.7078606e-03
 -6.8675056e-02
 -1.8192197e-01
 -2.4366464e-01
 -1.2435565e-02
 -7.2030944e-01
  1.4373128e-01
 -5.7254970e-01
 -3.9978302e-01
 -3.6704242e-01
 -1.4283706e-01
  4.0076768e-01
 -4.3140844e-01
  1.4267857e-01
  1.2648453e+00
 -7.1630567e-01
  1.9705519e-01
 -5.7275493e-02
  6.5921408e-01
 -4.3265367e-01
  2.1972524e-01
  8.7913960e-02
 -3.7941453e-01
  8.2970038e-02
 -1.0293673e+00
 -5.7282156e-01
 -4.8302010e-02
  9.4325058e-02
  6.4374190e-03
 -3.2726395e-01
 -2.8828773e-01
 -1.8765709e-01
  9.5864409e-01
  4.8752733e-02
  9.1116540e-02
  3.0667439e-01
  4.5584014e-01
 -6.9814496e-02
 -4.4075266e-02
  8.3196735e-01
  8.5150510e-02
  1.7644465e-01
 -2.1617277e+00
  2.2951160e-01
  2.6963288e-01
  2.3100087e-02
  4.2710111e-01
  4.4366226e-01
  4.6469423e-01
  3.4564498e-01
 -3.4040442e-01
  7.6558955e-02
  3.0191961e-01
  5.5158639e-01
  4.5710146e-02
 -1.0111507e-01
 -1.2919570e-02
  3.9992586e-01
  6.6472024e-02
 -1.1618085e+00
  6.6871472e-02
 -1.6340584e-02
  4.7926712e-01
  4.6926923e-02
 -1.5147762e-01
 -2.5161973e-01
 -2.9733995e-02
 -1.7674899e-01
  2.1602127e-01
 -3.2552284e-01
  1.8423809e-01
  4.3729806e-01
 -1.2324035e-02
  2.4987607e-01
  4.4328934e-01
  1.8863471e-01
  1.3901933e-01
 -9.8007664e-02
 -8.6862370e-03
 -4.0911072e-01
 -3.6978085e-02
 -6.5182191e-01
  6.4794473e-02
  3.0742541e-01
 -2.6621467e-02
  6.3266084e-02
 -2.5584668e-01
  2.1613823e-01
  6.3219607e-01
  1.7534922e-01
 -2.6424676e-01
  3.3176479e-01
 -3.7828028e-01
  1.7282838e-01
 -9.0324484e-02
 -2.4946766e-01
 -1.9638583e-01
  1.1801498e-01
  3.2371715e-02
 -1.7318358e-01
  1.1892474e-01
 -1.6678573e-01
 -8.3451923e-03
  4.1553895e-03
  2.0948010e-02
 -4.1033618e-02
 -3.4607488e-01
 -6.3226599e-01
 -1.1672896e+00
 -3.0576092e-01
 -9.2578195e-02
  1.2973109e-01
 -1.9018389e-01
 -3.2688282e-02
  9.4758168e-02
  2.7040249e-01
  4.7206849e-02
  9.7289391e-02
 -3.1334421e-01
 -4.2111933e-02
 -6.6369370e-02
  1.8739265e-01
  2.3679018e-02
  1.0775486e-01
 -6.6641372e-01
  1.0144798e-01
 -2.0468777e-01
  1.8667334e-01
  1.0299761e-01
  4.8044238e-02
 -4.2645484e-02
  5.3239480e-02
 -7.2593048e-02
 -1.7751257e-01
 -1.2897129e-02
 -3.0855826e-01
 -6.2563978e-02
  5.7645828e-01
 -2.4917034e-02
 -1.1445268e+00
 -2.7447049e-02
 -1.0811272e-01
  2.6408815e-01
  1.5471865e-01
 -3.7892461e-01
  3.0118117e-01
 -5.6032088e-02
 -3.0294865e-01
  3.4425062e-01
 -2.9152542e-01
 -2.9288462e-01
 -1.3893832e-01
  2.3993555e-01
 -2.2359797e-01
  8.0271649e-01
 -1.8651307e-01
 -2.2460920e-01
 -1.4575449e-01
  2.7916092e-01
 -2.3790881e-01
 -2.2453158e-01
 -5.7717476e-02
 -3.5089515e-02
  4.9271470e-01
  1.7553575e-01
 -4.4051152e-01
  1.8846270e-01
 -5.6977415e-01
  2.4333569e-01
  9.5256716e-02
  1.9297297e-01
  9.1789618e-02
 -3.3883724e-01
  4.7021368e-01
  2.3004520e-01
  2.4907961e-03
  1.2515652e+00
 -4.8974377e-01
  3.9712533e-01
 -1.2840390e-01
  1.0072805e-01
 -2.0241622e-02
  4.0325260e-01
  1.5688220e-01
  1.1197792e+00
  5.5223751e-01
  3.4858900e-01
 -1.6056029e-01
 -2.2869151e-02
  4.8055820e-02
  7.4740511e-01
 -8.1848845e-02
  3.1022167e-01
 -5.2087927e-01
  6.4103492e-02
 -1.1015366e-01
  2.6334950e-01
  8.2362157e-01
 -7.3975140e-01
  2.9043448e-01
 -9.6616268e-02
  1.2651256e-01
  1.1279926e-01
 -3.8215920e-02
  3.2026801e-01
  3.3655065e-01
  2.4739410e-01
  7.3975056e-01
 -1.2310485e-01
  1.9589912e+00
 -1.4516467e+00
 -1.0594667e-01
  2.0136009e-01
 -1.2196947e-01
  7.2146547e-01
 -1.2091202e-01
 -1.0231325e-01
 -1.4174451e-01
  3.9601430e-02
  4.9968162e-01
 -4.3595858e+00
 -6.8725193e-01
 -3.0756548e-01
  6.2598401e-01
 -1.6010252e-01
  1.1645672e-03
 -1.0266456e-01
 -7.1975654e-01
  1.6044722e-01
 -1.0998894e-01
  6.9044650e-01
  2.7039209e-02
  3.2002938e+00
 -3.5911417e-01
  9.2692807e-02
 -2.5315863e-01
 -7.0590600e-02
  4.6591321e-01
 -1.1995051e-02
  1.0321127e-01
  6.8923235e-01
  2.1088065e-01
  3.4040865e-02
 -7.3781878e-02
  8.6167687e-01
  1.6390934e+00
 -8.5266602e-01
  7.4687916e-01
  5.1816225e-01
  4.3833449e-01
 -2.6638392e-01
  3.2988781e-01
  1.1030641e-01
 -2.0061562e-02
 -5.5231784e-02
  1.3539633e-01
 -9.7610757e-02
  1.8948993e-01
  2.0112492e-01
  3.9909559e-01
 -3.8535017e-01
  9.3889445e-02
  7.3794231e-02
  2.3971312e-01
 -2.5526088e-01
 -6.8693212e-03
 -1.4122711e-01
  2.0284644e-01
  3.9177302e-01
 -1.3000327e-01
 -1.7902327e-01
 -1.9242603e-01
  9.6734650e-02
 -5.6752648e-02
 -6.3693255e-02
  5.5594891e-01
 -1.0143962e+00
  1.4773534e-01
  4.0543818e-01
  6.6162825e-02
  5.8756447e-01
 -7.7982843e-02
  4.4349444e-01
 -1.7010564e+00
 -3.4375533e-01
  4.7354391e-01
 -1.2061516e-01
 -8.2101530e-01
 -1.6676085e-01
 -2.5008097e-01
 -2.8342992e-01
  1.7598501e-01
  1.0167177e-01
  2.6870898e-03
 -5.0391026e-02
  6.7182219e-01
 -1.0235206e+00
 -3.1424131e-02
  3.1946725e-01
 -1.6224347e-01
  6.0667819e-01
 -3.0987254e-01
 -9.0030685e-02
 -7.4649435e-03
  1.4748342e-01
  2.1323258e-02
  4.7239262e-01
  7.8008860e-02
  4.6994099e-01
 -1.1655862e-01
  1.4358562e-01
  5.5337685e-01
  1.0527164e-01
 -7.8720056e-02
 -8.0518895e-01
  2.9481080e-01
  5.3034490e-01
  4.8987821e-02
 -3.1301197e-01
 -2.2793742e-01
  4.2095330e-02
  2.3024328e-01
  5.2000099e-01
 -3.7873238e-01
 -1.6281803e-01
 -7.4491072e-01
  2.7791661e-01
 -1.4574125e-01
 -5.2904803e-01
 -1.4483017e-01
 -5.5316303e-02
 -4.4480720e-01
 -5.3156152e-02
 -4.5067447e-01
 -5.1979518e-01
  8.4988272e-01
 -3.5015312e-01
  5.3628188e-02
 -4.4834083e-01
 -1.3741174e-01
 -2.7688012e-01
  1.5578069e-02
  1.4016716e-01
 -1.3742577e-02
  8.6035132e-02
  2.3666292e-01
  6.4790376e-02
 -2.8884399e-01
  1.0842617e-03
 -2.9262930e-01
 -5.3486217e-02
 -2.3795673e-01
 -1.5241621e-01
  3.2645832e-05
 -3.6014545e-01
  1.0734960e-02
  1.0271398e+00
  4.5353081e-02
 -2.2612298e-02
 -4.0648296e-01
 -2.0840579e-01
  8.0314204e-02
 -4.2312980e-01
 -1.3213843e-01
  2.6908281e-01
 -3.5928285e-01
 -3.0362973e-01
 -9.8067395e-02
 -2.5129072e-02
  2.9003477e-01
 -8.6482748e-02
  4.0451726e-01
 -2.2310254e-01
 -7.2827107e-01
  9.7796597e-02
  7.8035200e-01
  8.9771971e-02
 -1.2252778e+00
 -1.8433585e+00
 -6.0240549e-01
 -6.9201773e-01
  3.4748159e-02
  1.4319578e-03
 -1.9488089e+00
 -6.1914557e-01
 -6.5843485e-02
 -7.4492842e-01
 -9.5084146e-02
 -5.1735389e-01
  2.9455605e-01
 -1.2511890e-01
 -8.5438222e-02
 -2.4471785e-01
 -1.7181238e+00
  3.7665179e-01
 -2.6164806e-02
  1.5167587e-01
 -2.4705815e-01
 -3.5015571e-01
 -4.1400069e-01
 -3.5055559e-02
  9.5883496e-02
 -3.4474153e-02
  2.3785570e-01
  2.6174730e-03
 -2.4420574e-01
  1.0424882e-01
 -2.0902382e-01
  3.0754086e-02
  5.1793909e-01
 -3.2031107e-01
 -3.5054043e-02
 -4.0645990e-01
  3.3058780e-01
 -8.7523602e-02
  1.0122792e-01
  1.9222903e-01
  3.0383080e-01
 -1.7014097e-02
 -2.1057577e-01
  3.5628196e-02
 -8.9382283e-02
  1.2535380e-01
  1.9711806e-01
  2.3653971e-01
 -4.0921798e-01
  7.5383201e-02
 -2.9935282e-02
 -1.1204544e-01
 -2.2406177e-01
 -1.7102070e-02
  4.5436281e-01
  4.4669428e-01
  7.3050343e-02
  2.2098909e-01
 -1.5628357e-01
 -3.1706814e-02
  4.3610279e-02
  9.2809312e-02
  3.3988923e-01
 -2.9808593e-01
 -4.8283499e-01
 -1.1953273e-01
 -9.9507896e-03
 -2.9770413e-01
  1.5228517e-01
 -3.4922916e-02
  2.4678229e-01
  2.5255510e-01
 -2.7445468e-01
 -6.1918846e-03
 -7.7496618e-01
  7.0651478e-01
  3.1374228e-01
  1.1506171e-01
  1.1610189e-01
  4.3314585e-01
 -3.1487104e-02
 -5.5503714e-01
 -3.0421895e-01
  3.4893528e-01
  2.4578419e-01
  5.1183891e-02
  2.0069231e-01
 -2.6602167e-01
  6.1509609e-01
  4.8645091e-01
  3.9875236e-01
 -1.6133517e-01
 -1.9862024e-01
 -1.5537716e-02
  7.9094656e-02
  2.4041177e-01
  5.7345949e-02
 -1.9891407e-01
  1.4706320e-01
  3.3455998e-01
 -4.4618225e-01
  1.0518890e-03
  2.5960850e-03
  5.2735591e-01
 -9.5953032e-02
 -5.0684863e-01
  2.9313964e-01
  1.3874725e-01
 -7.8412604e-01
 -7.9997319e-01
 -1.8854834e-02
 -1.1203331e-02
 -1.0693802e+00
  1.3344887e-02
 -4.7651595e-01
  1.1177641e+00
 -6.6801123e-02
 -1.3308604e-01
 -1.8181816e-02
  4.6724770e-02
 -4.9340224e-01
  2.2282149e-01
 -3.6533862e-01
  1.1894745e-01
  6.2012929e-01
  2.0262520e-01
  1.4962672e-01
  3.0324703e-01
 -2.3167254e-02
  3.1330615e-01
  4.7898147e-02
 -3.7118997e-02
  4.1411012e-02
 -1.1401947e-01
  2.3730161e-02
  1.2433884e-01
 -9.8513126e-02
 -5.1784712e-01
 -1.1598357e-01
  6.2866430e-03
 -1.5757191e-04
 -4.9170706e-02
 -2.2943152e-01
  3.9964452e-02
 -2.5825861e-01
 -8.1762481e-01
 -1.0006718e-01
  1.3958655e-02
 -1.9479915e-01
 -3.1933501e-01
  1.2270099e+00
  2.8970352e-01
 -7.5227880e-01
  1.3014637e-01
 -1.6949104e-01
 -5.2726675e-02
  3.7417658e-02
  1.1471396e-01
 -1.7923380e-01
  6.1760843e-03
 -1.1043943e-01
 -9.6309297e-02
  3.9228135e-01
  1.5599577e-01
  1.3662996e-02
 -2.9837361e-01
 -7.1239837e-02
 -2.3037258e-01
 -1.6630524e-01
 -8.0298930e-02
 -1.5717734e-01
  8.9272998e-02
 -5.8212149e-01
  2.4819652e-02
  1.3193797e-01
  5.4494429e-01
  2.4574226e-01
  4.8141092e-02
 -5.0317265e-02
  1.4384353e-01
  3.2928124e-01
  7.9445332e-02
 -3.1795105e-01
  2.9788837e-02
 -9.4630960e-03
  1.1865007e-01
 -3.9299917e-01
  3.4920359e-01
  1.6037048e-01
  1.7326328e-01
  2.6925398e-02
 -1.1712104e-01
  1.1741637e-01
  5.6405857e-02
 -1.3415775e-01
 -2.6281545e-01
 -5.5880073e-02
 -4.2975438e-03
 -4.4845872e-02
 -5.4873210e-01
 -9.5135249e-02
  1.9998185e-02
 -4.4661880e-02
  1.3501444e-01
 -1.0779778e-02
  1.0478494e-01
  4.1732829e-02
  2.5306439e-01
 -1.0309770e+00
  1.1863340e+00
 -2.4428224e-02
 -7.4562192e-02
 -1.2550360e-01
 -3.4450567e-01
 -1.6539790e-01
  9.9061215e-01
  4.9947478e-02
  4.6840128e-01
  1.0984026e-01
  2.5859514e-01
 -2.6180984e-03
  2.9188693e-01
  1.1621419e-01
 -1.0224179e-01
 -1.1851110e-01
  3.7731568e-03
  1.5512331e-02
  8.9766696e-02
  3.1595376e-01
 -7.2477005e-02
  5.4373026e-02
  3.7658986e-01
  3.7563089e-02
  1.0115925e+00
 -7.0504808e-01
 -5.9244645e-01
  6.7815197e-01
  1.5711478e+00
  4.8651809e-01
  6.2639631e-02
  6.8767136e-01
 -1.8751337e-01
  4.0189624e-02
 -4.4760370e-01
 -4.4008756e-01
 -2.6144958e-01
  5.3267944e-01
  1.4390085e+00
  1.9057451e-01
  5.7784742e-01
  4.9656671e-01
  2.1899531e-02
 -3.3375496e-01
  1.3237517e-01
 -3.6071488e-01
 -2.1361844e-01
  1.5714370e-01
  6.6084313e-01
  3.0789137e-01
 -3.3608434e-01
 -1.8410267e-01
 -3.6456399e-02
 -1.4510128e+00
  1.8195940e-02
 -1.6764751e-01
  1.0458250e+00
  8.4509775e-02
  7.3638365e-02
 -4.2896187e-01
 -1.1970971e+00
  1.2777759e-01
  1.2807079e-01
 -1.1320550e-02
 -1.1764897e-01
  9.7816110e-02
  1.8082903e-01
  4.8742495e-02
  2.3497353e-01
  2.7313158e-01
  1.4349425e-01
 -1.1742219e-01
 -1.1975875e-01
  4.8628576e-02
  1.5858880e+00
  1.1462489e-01
 -2.2736286e-01
 -2.9568106e-01
 -1.0776200e+00
 -6.0905981e-01
 -1.7516668e+00
 -1.2406907e-01
 -1.6224599e-02
 -6.0404503e-01
 -5.1038608e-02
  6.2513691e-01
  2.3890587e-02
 -2.7485980e-02
  6.3604856e-01
 -3.6860445e-01
 -2.3494540e-01
  5.1270235e-01
  8.1982650e-02
 -1.2084332e-01
 -1.9923170e-01
  1.5279339e-01
 -1.4124139e-01
 -5.1431719e-02
  5.3965092e-02
 -1.6081496e-01
  1.9236882e-01
  2.7741183e-02
  8.0725618e-02
  2.3399486e-01
 -5.5272225e-02
  5.3160197e-01
  1.6474135e-01
 -8.6613402e-02
  1.2781610e-01
 -3.2653883e+00
  1.6488608e-02
  1.6061062e-01
  4.6105510e-01
 -7.8176774e-02
  3.7667219e-02
  3.5851628e-01
  1.4996631e-01
  2.7304372e-01
 -2.5247408e-02
  1.3075733e-01
  1.9847511e-01
  2.5834650e-01
  1.0950443e-01
  4.4238651e-01
  1.0810954e-01
  9.1570064e-02
  1.3665304e-01
 -5.5715007e-01
 -5.0583559e-01
 -1.0114610e-02
  7.7732354e-02
 -2.3797975e-01
  4.4533074e-01
 -1.2693331e-01
 -2.0643835e-01
  7.8445159e-02
 -5.6874132e-01
  7.1792111e-02
  1.9103673e-01
  3.9471170e-01
 -7.4562371e-02
  2.4610499e-01
 -7.6734550e-02
  4.7867504e-01
 -3.4480864e-01
 -1.8336961e-01
 -3.4419477e-01
 -2.2169068e-01
  2.2155894e-02
  4.9395299e-01
  3.6602065e-02
  4.1702309e-01
  2.0230417e-01
 -6.7585528e-02
  1.0575855e+00
 -5.1387090e-02
  1.0040101e-01
 -6.7911679e-01
  1.8174602e-01
  2.5917882e-01
  1.1706100e-01
  2.1688798e-01
 -7.8474760e-02
  2.3000517e-01
 -3.3788943e-01
 -6.8138249e-02
  2.7174398e-01
 -2.5330815e-01
  1.3775395e-01
  5.7949609e-01
  6.4615458e-02
  6.8082906e-02
  8.0953032e-02
  2.6133826e-01
  1.3296701e-01
 -2.5261226e-01
  1.5450425e-01
  2.9337656e-01
  9.6535429e-02
  2.1108629e-01
 -2.0791589e-01
 -1.7605923e-01
 -1.3620067e-01
  4.2272133e-01
 -2.1977729e-01
  1.6749433e-01
 -1.3682294e-01
  2.5781950e-02
  8.5541539e-02
 -5.7327427e-02
  1.0244162e-01
 -1.4766863e-01
  1.0283154e+00
  1.5549986e-01
  1.9721071e-01
  5.2855521e-02
 -1.4619070e-01
  1.8352709e+00
  2.3352373e-02
 -8.8352427e-02
 -2.6336769e-02
 -2.3493516e-01
 -1.0402204e-01
  1.8317601e-01
  7.2464921e-02
 -3.7384156e-02
  2.6198995e-01
  1.0849998e-01
 -2.3224036e-01
  5.8145132e-02
  1.7197648e-01
 -1.5365272e+00
  2.3050652e-01
  3.1386441e-01
 -3.9894256e-01
  9.7240704e-01
  1.0478059e-02
  1.0366245e-02
  2.6025224e-01
 -3.5739344e-02
 -1.7193651e-01
 -8.0116463e-01
  2.9510865e-01
 -1.1109484e-01
 -2.0916280e-01
  1.1584301e-02
 -1.6260029e-01
 -5.5882037e-02
  1.9839646e-01
 -1.1197287e-01
 -1.9318844e-01
 -4.4582896e-02
  1.9153756e-01
 -1.0928779e+00
  1.6792935e-01
 -4.3937221e-01
 -5.3373184e-03
  2.4069998e-02
  1.7439377e-01
 -2.4367543e-01
  1.9473734e-01
 -5.6219798e-02
  1.3786255e-01
 -5.2090245e-01
 -1.8960668e-01
 -1.2161069e-01
 -2.1504454e-01
 -4.6599874e-01
  8.7955445e-02
  3.4072873e-01
  7.5183600e-02
 -6.4840719e-02
  1.0356168e-01
 -8.1196446e-03
 -3.1059709e-01
 -8.1176120e-01
  1.1333200e-01
 -1.7154202e-01
  6.4982481e-02
 -1.9919756e-01
 -1.3799857e-01
  5.0480094e-02
 -2.6245143e-02
 -3.2269806e-01
 -2.8267730e-02
  8.0110717e-01
  2.5157362e-01
  2.5957218e-01
 -7.7321416e-01
  2.5154777e-02
  2.5954137e+00
  2.1706955e-01
  5.1259214e-01
  4.2422703e-01
 -1.0801061e+00
 -5.5609375e-01
  1.0185485e-01
  6.7510031e-02
  1.0857221e-01
 -4.1027173e-02
  1.0161472e-01
  6.6307223e-01
  3.5248515e-01
  3.8131815e-01
  1.9824125e-01
 -2.5020117e-01
 -2.4987170e-02
 -3.8115852e-02
 -5.3339649e-02
  5.6688470e-01
  3.6585209e-01
 -1.9216231e+00
  2.1546699e-01
  1.9224736e-01
 -4.2847303e-01
  2.4209791e-01
  2.4200784e-01
  1.1943810e-01
  1.5642278e-01
  1.7114598e-02
 -1.1836109e-01
  5.4359157e-02
  6.6706747e-02
  2.9252690e-01
 -3.6116567e-01
  2.2375733e-01
  1.4454781e-01
  1.4402200e-02
 -9.0860091e-02
  8.9492518e-01
 -4.5303932e-01
 -4.0722924e-01
  1.7372584e-01
  1.1056155e+00
 -3.3903506e-01
 -5.7914663e-02
 -3.4103479e-02
  5.3667359e-02
 -1.2609906e-01
 -6.5075658e-02
  1.4933546e-02
  3.6699897e-01
 -2.2495826e-01
 -3.2089949e-02
 -2.0839655e-01
 -1.3092363e+00
  4.9722153e-01
 -8.3042330e-01
  6.4167529e-01
  2.6145983e-01
 -5.5164889e-02
  7.8392766e-02
  6.6990562e-02
  4.0078297e-01
 -3.4134571e-02
 -3.6058402e-01
 -4.0729490e-01
  8.1724644e-01
  1.3656762e-02
  4.5527771e-01
 -3.1377262e-01
  1.8740594e-01
 -1.3383703e-01
 -3.1818177e-03
  1.7078274e-01
  1.2910876e-01
  1.9292429e-01
 -1.6789339e-01
  4.4029418e-02
  1.5525746e-02
  1.1955146e-01
  3.5991317e-01
  5.7979929e-01
 -8.3263963e-02
  5.4348308e-01
  2.7584866e-01
  6.8288654e-02
 -6.7815416e-02
 -1.7652793e-01
 -8.2213335e-02
  2.5967225e-01
  1.4552273e-01
 -1.7041555e-01
 -4.0628383e-01
  1.0838341e-01
 -2.0049575e-01
 -2.9402837e-01
 -1.0031875e-01
  2.0451553e-02
 -8.5330673e-02
  3.6645606e-01
 -6.8711177e-02
 -1.1779381e+00
 -1.9679952e-01
  2.3799512e-01
 -2.2344299e-02
  1.4950977e-01
 -1.5185928e-01
 -4.6622774e-01
  4.2753253e-02
  5.7661337e-01
  3.0472195e-01
 -6.3739544e-01
  6.2440562e-01
  1.3391361e-01
  8.7444735e-01
  1.4522193e-01
 -3.5763793e-02
  1.0231140e-01
 -1.2688648e+00
 -1.4116132e-01
  2.4054396e-01
 -8.1595689e-02
 -5.3483177e-02
 -8.5701413e-02
 -2.3255582e+00
 -1.2556318e-03
 -8.0979742e-02
  5.1515959e-02
  1.4265843e-02
 -9.8885052e-02
 -5.2068044e-02
 -1.2578129e-02
 -5.9857439e-02
  1.0441929e-03
 -7.7924132e-02
 -1.3744077e-01
 -6.0680044e-01
 -8.4167480e-02
  1.9910309e-02
  2.0392124e-01
 -3.3731915e-02
  1.2004579e-01
 -4.9061324e-02
 -2.4954873e-01
  9.0955667e-02
  2.2680666e-01
  3.3936509e-01
  1.5118307e-01
  3.0938610e-01
  1.9539075e-01
 -2.1708165e-01
  1.7448489e-01
  4.0837970e-02
  2.3027903e-01
  1.1164951e-01
 -4.9638611e-01
 -9.6041404e-02
 -8.3052769e-02
 -2.3688886e-01
  2.0049980e-01
 -3.6258271e-01
  3.2878306e-02
 -2.4062529e-01
  1.4000991e-01
 -2.4977418e-02
 -2.8502384e-02
 -1.5011725e-01
 -4.4010368e-01
