nep4 5 C N H Pb I 
cutoff 8 4 115 19
n_max 8 6
basis_size 12 12
l_max 8 2 1
ANN 50 0
  9.5271468e-03
  9.3739316e-02
  1.0461175e-01
  2.2341076e-02
  6.3781522e-02
  5.6187462e-02
 -1.8000854e-02
 -3.7840790e-01
  1.0579352e-01
 -6.3321047e-02
  5.2966278e-02
  3.1683978e-02
  2.9781440e-01
  9.4096018e-03
  1.7723055e-01
  7.0087507e-02
 -5.5980229e-01
  4.4983742e-01
 -2.0178375e-01
 -7.1311165e-03
  1.2806915e+00
  1.1553470e-01
 -1.7229280e-01
 -4.5502093e-02
  6.4984366e-02
 -2.2153500e-01
  4.2716213e-02
 -1.3793036e-01
  2.1790488e-01
 -7.4170381e-02
 -8.9664347e-02
 -4.9756918e-02
 -3.8069603e-01
  7.5304270e-02
 -1.0584062e-01
  2.5014040e-01
  1.1011643e-01
  1.1218483e-01
 -2.5595158e-01
 -2.5687909e-01
 -1.8121402e-01
 -1.8430950e-01
 -1.1178902e-01
 -1.0800713e-01
 -1.5196928e-01
  8.0648638e-02
  4.0617820e-02
  6.6542118e-03
 -9.6320817e-03
  3.5791203e-02
  1.6046690e-02
  1.4596017e-02
 -1.9001833e-01
 -9.5684570e-01
 -2.4766959e-02
 -6.1441664e-02
 -1.4481008e-01
 -1.7843568e-01
 -5.9052598e-02
 -1.3383871e-01
  1.9938543e-01
  2.0435881e-02
 -1.6447479e-01
  5.3642190e-01
  2.6730873e-02
  2.3828695e-02
 -5.3598867e-03
 -1.3703559e-01
  9.7648464e-02
  3.5757668e-02
 -9.3934598e-04
  8.0306977e-02
  1.2502915e-01
 -1.3138126e-01
 -4.1662231e-02
  7.3391700e-01
 -8.0310434e-02
  7.6687885e-03
 -6.4304076e-02
  3.7100014e-01
  1.3371014e-02
 -2.8339893e-01
 -3.9446807e-01
  4.2884842e-02
  6.4322919e-02
  1.1476813e-01
  3.0633941e-02
 -2.7060914e-01
  6.6832495e-01
  4.3079534e-01
  2.0752650e-01
  1.4638800e-02
  3.1050676e-01
  1.4979826e-01
  1.6935050e-01
  3.5964730e-01
 -8.7391632e-04
 -1.9052391e-01
 -3.0430974e-02
  3.0006182e-01
  1.0091361e-01
 -3.8678352e-02
  2.1767303e-02
 -1.9934735e-01
 -1.4113154e-01
 -9.8396838e-02
  3.6901955e-02
  2.0702700e-01
  4.3066546e-01
  1.3554060e-01
 -3.0954883e-02
  1.5593725e-01
 -3.0944163e-01
  8.5408695e-02
 -2.2372978e-03
  1.2980010e-01
  1.9513358e-01
  4.1240502e-02
  1.0287609e-01
 -9.3916962e-03
 -1.1340964e-02
  1.4889567e-02
 -3.0800212e-02
  2.0877321e-03
 -1.0052369e-01
 -9.7058699e-02
 -3.5058016e-01
 -2.5315376e-03
 -6.3169849e-01
  2.1987709e-01
 -2.2401215e-01
 -3.0895826e-01
 -7.5535752e-02
 -3.6485451e-01
 -6.9280602e-02
 -1.6178937e-01
 -1.0810716e-01
  5.6696825e-02
  6.4311616e-02
  1.4241226e-01
  1.7251289e-01
  8.9339361e-02
  3.3948895e-01
 -1.3978647e-01
  1.3127245e-01
  2.7866211e-02
  6.9749743e-02
  1.7088275e-01
  4.2634964e-01
  1.3975496e-02
 -3.3166412e-01
 -1.9964539e-01
 -7.8090727e-01
 -2.6348895e-01
  2.9539323e-01
 -3.0529228e-01
  1.3617386e-01
  3.1187907e-01
  1.2760167e-01
 -3.6787105e-01
 -9.6082546e-02
  4.8175287e-01
  1.9281048e-01
  4.1561806e-01
  1.1932054e-01
 -2.9296115e-01
 -1.8719164e-01
  2.6705411e-01
 -5.5505669e-01
 -7.0136720e-01
  3.9285237e-01
  2.6194814e-01
 -5.9231120e-01
 -2.4635491e-01
 -4.0777281e-01
 -1.4023550e-01
 -6.2560275e-02
  3.1346560e-02
 -1.2864551e-02
 -2.5759250e-02
  6.2936008e-02
 -5.5196553e-01
 -2.8435355e-01
 -2.4490155e-01
 -3.1546324e-02
  2.2809403e-02
  3.9187443e-01
 -2.1543282e-01
  4.8086089e-01
  4.7927104e-02
  3.4361348e-01
 -1.3766403e-01
  1.1533697e+00
  4.6019357e-02
 -1.8158929e-01
 -1.3911392e-01
 -7.4806996e-02
 -1.0248248e-01
 -8.1855017e-01
  3.1902234e-03
  2.8872219e-01
  5.2362853e-01
 -1.4891449e-01
 -3.6942187e-01
 -1.0883401e-01
  3.4557080e-01
  5.3570962e-01
  2.0610366e-02
 -1.6203048e-02
 -2.4296203e-01
  7.5403363e-02
  6.4996548e-02
  1.5509927e-02
  1.5941538e-01
  1.9312088e-01
  3.0497313e-01
 -7.7682298e-01
 -1.6681635e-01
  9.1498055e-02
 -3.6670618e-02
  1.1572189e-01
  3.5813555e-02
 -6.1674714e-02
  3.3077797e-01
 -2.7434361e-01
  1.4950268e-01
  1.7810689e+00
 -1.8654178e-01
  4.5634872e-01
  1.7557959e-01
  3.4280443e-01
  4.0347698e-01
  2.1205463e-02
  1.5335004e-01
  2.6837979e-03
 -1.0890809e-01
 -5.0821126e-01
 -1.3932788e-01
  1.3245711e-01
  3.2036787e-01
 -1.2851843e-01
 -3.7991293e-03
 -4.3055099e-01
  6.0881078e-02
  2.1271518e-01
 -2.4119799e-01
 -9.1872349e-02
  2.1916527e-01
  3.5503481e-02
 -6.2130505e-01
  2.9497135e-01
  1.7809449e-01
 -8.5085273e-02
  1.7723076e-01
 -3.1928331e-02
 -5.0248176e-01
  1.3059183e-02
 -5.4161519e-01
  2.4910861e-01
  2.0635284e-02
 -1.4292879e-01
  1.0221841e-01
  8.7968938e-02
 -6.1191685e-02
 -2.3808578e-01
  4.2662170e-02
 -3.7083738e-02
 -5.5187155e-02
  2.3663600e-01
  4.6969080e-01
  1.5995467e-02
  5.8076793e-01
 -3.4880963e-01
 -1.3779153e-01
  1.6991158e-01
 -9.4862207e-04
  3.5425153e-02
  7.0058152e-02
 -2.2287114e-01
 -3.8382548e-01
 -1.7547335e-01
 -4.6797171e-01
  2.5926811e-01
  7.1100621e-03
  4.2876121e-01
  2.1086432e-01
  1.6614874e-01
  1.6251890e-01
  9.9262394e-02
 -3.4491378e-01
 -4.1782233e-01
 -2.2863936e-01
  3.5379983e-02
  1.8548778e-01
  1.3771693e-01
 -1.0163973e-01
  7.7903874e-02
 -6.1674140e-02
 -6.4093792e-01
 -5.7632666e-02
  4.6125766e-02
 -1.3243121e-01
 -3.0813679e-01
  6.6251241e-02
 -7.2411191e-01
  2.0239612e-01
  1.0385160e-01
  6.0187984e-02
 -7.2630443e-02
  2.1497281e-01
 -2.4597256e-01
 -3.5941709e-02
 -1.0100594e-01
  4.7565889e-01
 -1.8779120e-01
 -1.7997155e-01
  3.3808585e-02
 -4.1272190e-01
  1.3722010e-03
 -1.2085193e-01
  3.0507657e-01
 -3.8589094e-02
  2.5056571e-01
 -2.6613364e-01
  1.9141185e-01
 -2.2959080e-01
 -1.3443086e-01
 -2.2444245e-01
  4.6924549e-01
  1.3575313e-02
  5.5267889e-02
  3.1834178e-02
  7.3659725e-02
  4.8760958e-02
  9.3882412e-02
 -1.1514646e+00
  1.0107055e-01
 -2.7893001e-01
  2.8866960e-02
  2.1364690e-01
  1.3488086e-01
  3.7733111e-01
  5.0587583e-02
  2.1964125e-01
 -5.7283700e-02
  2.2720125e-01
 -4.1626465e-02
 -5.7851210e-02
 -1.0638394e-01
  1.6970155e-01
 -4.3166343e-02
 -3.4790095e-02
  6.2853351e-02
 -2.3178062e-01
 -7.9821503e-01
  9.0298355e-02
 -4.1471869e-01
 -8.5748725e-02
  8.6835986e-01
 -8.5094929e-02
 -5.5457503e-03
 -3.5260376e-02
 -7.7094242e-02
 -8.2558319e-02
 -1.7811799e-01
  6.0574245e-01
  3.4265506e-01
  1.6880049e-01
 -9.8887198e-03
  1.2049161e-01
  2.4633685e-01
 -1.0257338e-01
  1.5253256e-01
 -1.2282548e-02
  2.0825790e-02
  5.1308024e-01
 -2.8938949e-01
 -6.2146697e-02
 -3.3086503e-01
 -4.8241577e-01
 -3.0500644e-03
 -2.1559888e-01
 -4.1025311e-02
  3.2819125e-03
 -3.1478310e-01
 -2.3742279e-01
 -2.8323848e-02
  2.5469003e-02
 -2.8197595e-01
 -6.9377482e-02
 -7.7644683e-02
 -2.7463738e-02
 -9.0558324e-03
  4.3852940e-02
  6.3164532e-02
  6.4932948e-01
 -4.1790746e-02
 -1.0213728e+00
 -3.3457598e-01
 -2.6615003e-01
 -1.3885634e-01
  1.8032379e+00
  2.8869161e-01
  1.2889387e-02
  4.3717071e-02
 -2.2390272e-02
 -1.9678731e-01
  7.7129014e-02
 -2.1999177e-02
  1.1409567e-01
  2.2794344e-01
  5.6101978e-01
 -5.1448420e-02
 -3.3248667e-02
  2.0839371e-02
 -2.4412373e-02
 -7.6605283e-02
 -2.6880002e-01
  4.4160388e-02
 -1.4604664e-02
 -8.5203359e-03
 -2.9546654e-02
  8.0937315e-03
  1.7270178e-01
 -1.5497155e-01
  1.1605667e-02
 -7.8886636e-02
  3.3073252e-01
 -9.2035621e-02
 -5.2235045e-02
  9.3225986e-03
 -5.8896595e-01
  2.1246491e-01
  5.5717710e-02
 -3.9577371e-01
  2.7307229e-02
 -8.2584679e-02
  2.1273581e-02
 -7.0712000e-02
 -4.1899985e-01
  1.2889204e-02
 -1.5121253e-01
 -4.2943797e-01
  7.1829207e-02
  1.7658125e-01
  8.0215889e-01
 -2.6345797e+00
  3.4585237e-03
 -1.5059237e-01
 -1.5343322e-01
 -4.8938192e-02
  1.6826798e-01
  1.2707897e-02
  4.3625705e-02
 -1.0059767e-01
  1.3282140e-01
 -3.7833539e-01
 -7.0384979e-02
  5.3347963e-01
  2.7939147e-01
 -2.9329595e-01
 -1.7849198e-01
  1.1589202e-01
 -5.5326968e-02
  2.9227000e-01
  3.3382171e-01
  2.3152636e-01
  1.0669805e-02
 -3.0279011e-01
 -1.5078355e-01
  5.9743740e-02
  1.0835631e-01
 -8.2851928e-01
  1.0204700e-01
  2.2440283e-02
  8.1704050e-02
 -8.0619223e-02
 -7.6853313e-02
 -1.9540463e-01
 -2.5978625e-01
  1.7214695e-01
 -8.3036378e-02
 -1.9327807e+00
  6.7864031e-01
 -4.8155174e-02
  1.5135202e-01
 -1.0570821e-01
 -3.2916215e-01
 -6.5383023e-01
  1.0739154e-01
  7.3164105e-02
 -8.2406580e-02
 -1.1178230e-01
  2.3708548e-02
 -1.9962285e-01
 -1.7962620e+00
  5.1779956e-01
 -3.7017941e-02
  2.7671823e-01
  3.7233092e-02
  1.0563799e-01
 -2.1710117e-01
  1.1546450e-01
 -2.5888279e-01
 -3.9145467e-01
 -9.6969925e-02
 -1.0777786e+00
  1.5236237e-02
 -9.2380412e-02
 -5.6683403e-01
  1.8737930e-01
 -2.2120360e-02
  9.4043046e-02
 -4.1967142e-01
  3.8832125e-01
 -2.4094594e-01
 -2.8991213e-01
  4.1376799e-02
 -2.3011461e-01
 -2.2424808e-01
 -4.7355348e-01
 -2.7060202e-01
 -2.9319549e-01
 -2.1084320e-02
 -4.5408972e-02
 -4.3193594e-02
 -4.1961975e-02
  2.2924685e-01
 -2.2330467e-02
 -6.4977318e-02
 -1.0165951e+00
  3.9403822e-02
 -3.1092483e-01
 -2.1806711e-01
 -6.0918999e-01
 -8.5090607e-02
 -7.6809835e-01
  2.5952712e-02
  1.1406218e+00
  2.9962018e-01
 -5.8008250e-02
 -3.9980155e-01
  2.5522001e-02
  2.2123784e-02
 -8.2005388e-01
  2.6803657e-01
  1.1421859e-01
  4.2637378e-02
 -9.2007339e-02
 -7.7968025e-01
  2.9634705e-01
 -6.1554587e-01
 -1.4833200e-01
  2.1592101e-01
 -6.0673755e-02
  1.1734408e-01
  4.3609565e-01
  4.5970283e-02
  3.2331431e-01
  4.9491164e-01
 -6.3275874e-02
  8.9441217e-02
  1.6500306e-01
 -1.6314994e-01
  1.3285877e-01
 -3.6021691e-02
 -6.7835920e-03
  1.3986641e-01
  2.6530346e-01
 -7.8743629e-02
 -2.0679502e-01
  6.6584468e-01
  7.5090393e-02
 -5.4687369e-01
 -1.2086947e-01
  3.8026325e-02
 -4.1655108e-02
  4.5382500e-01
 -1.6897637e-01
  6.5425143e-02
 -3.3702952e-01
  3.1848970e-01
  2.6577059e-02
 -1.6950449e-01
  4.2393082e-01
 -1.0395468e-02
  1.1801584e-01
 -3.8645709e-01
  3.8515782e-01
 -2.3404905e-01
 -6.9378190e-02
 -4.6263142e-03
  4.5769587e-01
  2.8561804e-01
 -1.8236961e-02
  1.9725583e-01
 -3.2197750e-01
 -1.7259620e-02
  2.9680574e-01
  3.1795740e-01
  2.3179372e-01
 -9.5583789e-02
  1.8246303e-01
  2.1466358e-01
 -1.2057058e-02
  1.9324870e-01
  2.9345649e-01
  1.6281335e-02
  4.0539943e-02
 -3.9372540e-01
 -1.9334108e-01
 -8.5337915e-02
 -2.1808332e-02
  1.4820521e-01
 -6.4016342e-01
  4.8089156e-01
  1.1619467e-01
 -9.0265060e-03
  1.6910520e-03
  2.8378987e-01
  3.6522099e-01
  6.5524602e-01
  5.3971995e-02
  8.4177060e-03
  2.3643404e-01
  6.4168423e-02
  1.0888965e-01
  4.1265681e-01
 -2.7306870e-01
 -1.5282032e-01
  3.4423815e-03
  1.6348223e-01
  1.8356928e-01
 -3.9539102e-01
 -1.7622295e-01
 -2.2455194e+00
  1.1416350e-01
  6.8082489e-02
  2.5729889e-01
 -2.1235329e-01
  5.3533024e-01
 -6.0309786e-01
 -5.8657698e-02
 -2.7471740e-02
  3.0467236e-02
 -6.8154268e-02
  1.9765040e-01
 -8.1156127e-02
 -1.4498232e-01
 -2.9794091e-01
 -1.9566154e-01
  5.3151524e-01
 -6.5651969e-03
 -3.4018420e-02
 -7.0296422e-02
 -2.2475298e-01
  2.8514463e-02
 -1.4668238e+00
 -3.5458598e-02
 -2.2534940e-02
 -4.2088744e-01
  9.0247445e-02
 -7.3259495e-02
 -1.0670516e-01
 -1.6622105e-01
  1.1566202e-01
  6.2340353e-02
 -1.1684188e-01
 -8.1433706e-02
 -2.1151319e-01
  3.1400403e-01
 -2.1295527e-01
 -2.8143272e-01
  6.0356118e-02
 -2.9872403e-01
 -1.2690086e+00
  1.4356942e-01
  3.5352171e-03
  6.5330021e-02
 -6.5156311e-02
  2.2376284e-01
  4.9041405e-02
 -4.3578941e-01
 -1.7424376e-01
 -3.3748955e-02
  1.3259114e-01
 -5.7273399e-02
 -2.4065606e-02
  5.0956182e-02
 -5.1457934e-02
 -6.9452018e-02
  1.3992429e-02
 -8.7303920e-03
 -2.8912282e-01
 -3.8317287e-01
  1.4179905e-01
 -1.2396937e-01
 -4.1498799e-02
 -1.8872446e-01
  8.5022129e-02
 -5.5380601e-01
 -3.4159812e-01
  4.2095578e-01
  8.1216878e-01
 -2.1589853e-01
  7.1973540e-02
 -9.5654260e-03
 -1.3513938e-01
 -1.5810730e-02
 -1.1507781e-01
  7.4274957e-02
  6.2862086e-01
  7.2759925e-03
 -4.0181138e-02
 -2.5818071e-01
  7.6327085e-01
  1.0777605e-02
 -3.6660541e-02
  9.1979668e-02
  8.3815908e-01
  1.3612099e-02
  3.1222907e-01
 -1.1619431e+00
 -2.0493293e-01
  3.3478603e-01
  1.1805528e-01
  3.2104614e-01
 -4.4470143e-01
  5.3007882e-02
 -3.1417885e-01
  1.2001370e-01
 -1.7397687e-01
 -1.5799800e-01
  5.5511571e-02
 -7.4177861e-02
  5.5198144e-02
  2.1516871e-01
  4.9438961e-03
 -1.8571781e-01
  2.2817826e-02
 -1.0854714e-01
  2.9370835e-01
 -1.6377839e-01
 -6.8153092e-03
  1.4507550e-01
  5.6454342e-02
  1.0867444e-02
 -1.2403658e-01
  3.1835073e-01
  6.0891692e-02
 -4.7139905e-02
  2.1456236e-01
 -1.1492261e+00
  9.6999146e-02
 -2.0010144e-01
 -2.3793006e-02
  1.0929729e-01
 -1.1319941e-01
 -2.1642907e-02
 -1.2154229e-01
 -2.3390297e-02
  1.3293850e-01
 -1.1750849e-01
 -3.8708341e-01
  3.9329076e-01
 -4.8318628e-02
  1.5688544e-02
  1.3992026e-01
 -2.3106362e-01
 -3.4096032e-02
 -1.4616463e-01
  1.9783227e-01
  3.4416953e-01
 -1.8076624e-01
 -3.9661154e-01
  2.7975401e-02
 -8.7414378e-01
 -2.4110547e-01
 -2.2475065e-01
 -1.5698951e+00
 -2.0817760e-01
 -8.9841478e-02
  6.3255809e-02
 -5.5737689e-02
  3.3531781e-02
  1.2791449e-01
 -1.4763451e-01
 -3.0910742e-02
 -1.5314737e-01
  3.5521425e-02
  2.0415349e-01
  3.7838820e-01
 -5.8082807e-01
 -1.0685172e-01
 -7.7647680e-01
 -7.6520033e-03
 -6.2272924e-01
  1.1207680e+00
  9.1493088e-01
 -2.4612658e-01
 -2.9481947e-01
  3.0908265e+00
 -1.9303899e+00
 -2.9534461e+00
 -2.3056123e+00
  5.4172671e-01
  3.4359634e-01
  7.0464599e-01
  2.0932343e+00
 -2.3512182e+00
  1.4238179e+00
 -1.1477640e+00
 -2.6295133e+00
  3.0996392e-02
  7.2790392e-02
 -5.6526065e-01
  1.1693714e+00
  1.7443354e-01
  1.8966225e+00
 -1.9055907e-01
 -1.1788284e+00
 -6.7809708e-02
  3.3151606e-01
 -5.3561050e-02
  6.6120398e-01
  1.0490030e+00
 -4.6573988e-01
  1.5580769e-01
  6.9977301e-01
 -1.2092477e-01
 -1.0630729e-01
 -9.9697784e-02
  1.3519839e+00
 -6.3737047e-01
  1.4209485e-01
  4.3510973e-01
  2.9883882e-01
 -7.1942784e-02
 -4.3951708e-01
  5.8916062e-01
 -1.9239229e+00
  1.2148908e-01
  2.0044892e-01
 -1.7122316e-01
 -3.5084704e-01
 -1.3187733e-02
  5.3626645e-01
 -1.5012524e+00
 -8.1752652e-01
  2.2273535e-01
  6.5295684e-01
 -1.1030456e-01
  1.0435751e-01
 -5.2989606e-02
 -1.1372441e+00
  1.1298968e-01
  3.9916390e-01
  4.7309279e-02
 -3.0294076e-01
  3.4082870e+00
  1.2234796e-01
 -1.3246365e-01
 -2.6400694e-01
 -8.1802361e-02
  1.0737959e+00
 -1.5559716e+00
  2.2095993e+00
 -2.8894418e-03
  5.9065878e-01
 -4.7172070e-02
 -9.8595180e-02
 -8.0912977e-02
  7.9297043e-02
 -7.9561567e-01
 -6.2454343e-01
  1.9847207e-02
  4.7002617e-02
  4.9263036e-01
  5.3692497e-03
  5.8694935e-01
  5.0807251e-03
  9.0390646e-01
  1.4180689e-01
 -2.4644224e-01
 -3.9843796e-04
  3.8223183e-01
 -2.9064801e-01
  6.6414028e-02
 -2.8794616e-01
 -1.2300805e-01
 -1.6075696e-01
 -9.1258936e-02
  1.9943662e-01
  2.3103785e-02
  1.1462986e-01
 -7.4358374e-02
 -7.9830281e-02
  1.6266829e-01
  3.0401945e-01
 -1.9066781e-01
 -3.5934302e-01
 -8.3128616e-02
  5.2480634e-02
  3.0431980e-01
 -3.5404915e-04
 -7.0391959e-01
 -3.0511498e-01
  4.3362477e-01
  1.5004747e-01
  2.1347038e-01
 -8.6418647e-01
  4.9804229e-02
 -4.1348130e-02
  2.1901395e-02
  2.0979339e-01
 -4.3403354e-01
  4.9419843e-02
  2.3530664e-01
  1.2114190e-01
 -1.0619817e-01
 -1.6053779e-01
 -3.6099847e-02
 -1.3032329e+00
  2.8971925e-01
 -1.2300371e-01
  2.1913227e-02
  4.7418315e-02
  1.2858559e-01
  4.7294417e-01
  2.0259976e-01
 -5.4067072e-02
  1.7711878e-01
 -6.2639701e-01
 -2.4593798e-02
 -1.3774067e-01
 -7.1591333e-02
 -6.4892977e-02
  5.7034439e-01
 -2.1741603e-01
 -5.3358150e-01
 -1.2912029e-01
  2.2053476e-01
 -7.3009193e-02
 -1.0951285e-01
  8.6468242e-02
 -9.1207013e-02
  1.0029636e-01
  1.3562157e-03
 -1.0622846e-01
  3.1122470e-01
  3.6124516e-01
 -2.4285738e-01
  3.6772242e-01
 -1.4838408e-02
 -1.9938087e-01
 -5.4239702e-01
 -1.2971857e-02
 -1.1467863e-01
 -4.9733755e-01
  1.1818936e-01
  8.6790457e-02
 -3.2100293e-01
  3.0462638e-01
 -2.7152416e-01
 -3.3098882e-01
 -5.9034157e-01
 -9.9051282e-02
 -1.5763369e-01
  2.0622764e-02
 -8.1041449e-01
 -2.7310473e-01
  1.1290942e-02
 -2.9306316e-01
 -3.7232419e-03
  1.6387160e-01
  2.1609275e-01
  7.9830997e-02
  3.9054608e-01
 -1.0102701e-01
 -4.2948213e-01
  2.3710208e-01
  1.2456822e-01
  1.3509077e-01
 -3.5977435e-01
  1.6776264e-01
  1.0964588e+00
 -1.3114205e-01
  1.1567624e-02
 -8.3833709e-02
  1.1702214e-01
 -7.6402247e-01
  6.2073547e-01
  2.6258615e-01
 -2.2014217e-01
  2.6665002e-03
  1.6852324e-01
 -2.7818942e-01
  4.6619380e-01
  3.1148896e-01
  1.9590768e+00
 -1.8775533e-01
  3.6612302e-02
 -2.2434847e-02
 -1.5572040e-01
  2.1892242e-01
 -1.8680878e-01
 -2.2738354e-02
  1.9163428e-01
 -1.8746206e-01
 -3.5088643e-01
  1.4354275e-02
  1.6739836e-01
  3.9635006e-01
 -4.9497258e-02
  4.3153621e-02
 -8.5079730e-02
  1.3284150e-02
  5.6675529e-01
 -3.5197991e-01
 -1.1134662e-01
 -6.6976734e-02
 -1.9042295e-01
 -3.0645707e-01
 -5.9159243e-01
 -8.8391565e-02
  1.6836766e-02
 -7.5445496e-02
 -1.2360266e+00
 -5.8763373e-01
 -7.0965028e-01
  4.9980927e-01
 -4.1678923e-01
  2.3184876e-01
  7.5654030e-01
 -4.6483946e-01
  2.4162699e-01
 -2.5256073e-01
 -2.6677981e-02
  1.7896336e-01
 -4.1084000e-01
  2.6572123e-01
 -4.2828832e-02
  3.2398965e-02
 -2.1055971e-01
  2.4895531e-01
 -5.9508282e-01
  3.0033317e-01
 -1.9830903e-01
  1.9002450e-01
  1.1246463e-01
 -2.7614862e-01
 -1.4857149e-01
 -7.1940623e-02
 -3.2203710e-01
  2.2463672e-02
  2.5273165e-02
 -1.3397075e-01
 -1.8234059e-01
  2.0732105e-01
  1.5406401e-01
  2.6554329e-02
 -2.9093814e-01
 -2.3362140e-01
 -5.4099536e-01
 -1.1273717e-01
  1.0762514e-01
 -1.6608454e-01
  1.0211916e-01
 -4.2056378e-02
 -2.5019836e-01
 -2.9761154e-02
 -3.1616879e-01
 -1.4716729e+00
 -3.8956413e-01
 -2.2296172e-01
 -3.5530993e-01
 -4.2526010e-01
 -2.3416251e-01
 -3.5071895e-01
 -5.9078169e-01
 -1.3107671e+00
 -4.9251226e-01
 -5.3791797e-01
  1.8008117e-01
 -4.8579138e-02
 -1.5864700e-01
 -5.7527002e-02
 -9.3584307e-02
  4.7485527e-01
  1.2799254e-02
  3.4752425e-02
 -1.6445553e-01
 -2.4105373e-01
 -1.7198093e-02
 -5.4650277e-02
  8.0339722e-02
  4.4690746e-01
 -2.9816440e-01
  5.6636121e-02
 -4.6086889e-02
 -9.8319966e-03
 -2.7352017e-01
  8.1300147e-02
 -2.6472745e-02
  3.2849938e-01
 -7.4958521e-01
 -1.6965771e-01
  9.7288346e-01
  6.0438287e-02
 -8.2954645e-01
  5.2352544e-02
 -6.0207623e-01
 -4.6482582e-02
  1.4980583e-01
 -4.7136867e-01
  2.2691734e-01
  4.6934450e-01
  4.2947105e-01
 -1.6045401e-01
  8.0833897e-02
  1.3910805e-01
  2.5253323e-01
 -6.1649289e-02
  8.4336944e-02
  6.5995142e-02
 -7.0021600e-01
  1.3685688e-01
  6.3380584e-02
 -5.9523809e-01
 -1.3980339e-01
 -8.5309482e-01
 -1.0613760e-01
  1.3484317e-02
  1.5746833e-01
 -2.0857535e-01
  6.3366890e-02
  2.3227574e-02
 -1.5035968e-01
 -7.5455153e-01
  1.5950430e-02
  3.4183288e-01
 -1.3348159e-01
 -8.8119023e-03
  1.1379482e-02
  1.0192467e-01
 -2.9903853e-01
 -6.3577242e-02
 -1.1592773e-01
  4.0204179e-01
  4.8375089e-02
 -4.3917242e-02
 -1.0208204e-01
 -2.0676588e-01
 -4.2226397e-02
 -6.2345504e-03
 -1.7125376e+00
 -4.5182925e-01
  8.4484711e-02
  4.0746731e-01
  3.7073255e-02
 -2.4221417e-01
  1.8937179e-01
 -2.6735348e-01
  4.9405685e-01
 -2.6539046e-01
  1.2336654e-02
 -2.4400373e-01
  3.1544980e-01
 -2.5830519e-01
  6.6865362e-02
 -4.0254098e-01
  3.1244650e-01
 -2.0663132e-01
 -6.5166824e-02
  1.0563884e-01
  3.8216841e-01
 -1.6033934e-01
  3.6351252e-01
 -1.5778498e-01
  1.4144042e-02
  8.4705748e-02
  3.7966719e-01
 -8.6986542e-02
  3.8912645e-01
 -1.9737896e-01
  8.5699469e-02
  2.2669761e-02
  1.7119800e-01
  1.3663906e-03
 -2.7820911e-02
  5.2205171e-02
  2.1816783e-03
  1.8693401e-01
 -9.5505245e-02
 -5.4763675e-01
 -4.6899307e-01
  2.1270476e-02
 -1.8541190e-01
 -7.2074488e-02
 -1.7978176e-02
 -2.7575279e-02
  1.7218512e-01
  1.5400127e-01
  1.0371318e-01
 -6.5241851e-02
 -2.0389448e-01
  2.1688379e-02
 -7.8008823e-02
 -5.5426482e-02
  5.2006823e-01
 -4.3233168e-01
  1.7767654e-01
  2.5478643e-01
 -1.0210109e-01
  1.2066135e-01
  6.3924450e-01
  2.4410047e-02
 -2.2431335e-01
  3.9512160e-01
 -4.4896412e-01
 -1.1161819e-01
  1.5986040e-02
 -6.8179458e-02
 -4.1555062e-01
  1.1993629e-04
 -2.4172336e-02
 -2.2247697e-01
  2.7554449e-01
 -2.0031644e-01
  3.8322166e-03
  3.8965836e-02
  2.9326109e-02
  4.1139331e-01
  1.3131332e-01
  3.2738551e-01
 -5.6106079e-02
 -1.1223127e-01
 -3.5429254e-02
  1.7433672e-01
 -3.8154032e-02
  3.3608973e-02
 -3.4619933e-01
  1.7063264e-02
 -1.5386067e-01
  3.0219318e-02
  6.9267914e-02
  4.6177793e-01
 -6.5619528e-01
  1.0077202e-01
  2.7292600e-02
 -5.1522464e-01
 -3.0577362e-02
 -9.3307711e-02
  4.6777707e-02
  1.8717632e-01
 -6.7068473e-03
  8.7978214e-02
  1.5262711e-01
 -2.2171675e-01
 -3.0532442e-02
  1.8251870e-02
 -2.7850160e-01
 -1.4736197e+00
 -2.0090716e-01
 -1.6997366e-01
 -9.9119209e-02
  1.6091758e-01
  7.1598932e-02
 -1.0702632e-01
  1.2757997e-01
  7.8960508e-03
  1.2063456e-01
 -4.5520376e-02
 -7.7084221e-02
  7.1286008e-02
 -4.8483974e-01
  4.8401818e-01
 -1.7355142e+00
  4.6316332e-01
  1.4977971e-01
 -5.8416104e-01
  1.2504157e+00
  6.1708521e-02
 -1.0122462e-01
 -1.8465632e-01
  1.2895915e-01
  2.4530123e-01
 -2.1186821e-01
  3.1686792e-01
  4.0344223e-01
 -1.6142086e+00
 -1.1089282e-01
 -1.8344471e-01
  1.0834489e+00
 -1.0932272e-02
  5.0211144e-03
  3.7664753e-01
  1.2702245e+00
 -2.2505637e-01
  2.0062568e-02
  3.7121043e-01
 -4.6287574e-02
  4.1889891e-01
 -1.6836937e-01
 -1.4368369e-01
  8.6289930e-01
  1.0527436e+00
  6.7220616e-01
 -4.2752303e-02
  8.5110837e-01
  2.4241406e-01
  2.1003650e-01
  8.3259866e-02
 -1.0158389e+00
  7.1455874e-02
  3.3092786e-02
 -1.5279680e-01
 -1.4008604e-02
  1.2698059e-01
  1.5114133e-01
  9.8206319e-02
  1.1803493e+00
  6.6904128e-02
 -4.2542121e-01
 -5.3452092e-01
 -9.7827800e-02
  5.8531046e-02
 -1.5377258e-01
 -1.4638498e-01
 -1.2412097e-01
 -3.1986341e-01
 -7.2313264e-02
  9.7943909e-02
  3.1910670e-01
 -4.0315109e-01
 -2.3199329e-01
 -1.4615332e+00
  1.3399425e-01
 -1.7194022e-01
  4.3751511e-01
 -8.5878664e-01
 -2.4455781e-01
 -9.6718296e-02
 -5.2005094e-02
  1.8767070e+00
 -3.4828189e-01
  6.4663269e-02
 -7.2575964e-02
 -9.8540932e-03
 -6.9463325e-01
 -2.0303100e-01
  1.0569833e-01
 -2.3343340e-01
  5.2032359e-02
  8.5129432e-02
 -1.5168071e-02
  4.7207940e-01
 -7.3481157e-02
 -1.5306713e-01
  1.8694778e-01
  2.6710888e-02
 -2.7266663e-01
  2.0459615e-01
 -1.7249571e-01
  7.2266653e-02
  5.3338587e-01
 -2.9047927e-02
  1.1159202e-01
 -5.3784732e-02
  2.0760557e-02
  4.9088240e-01
 -2.2671118e-01
  4.5096394e-02
 -1.3340176e+00
 -1.5599577e-01
 -5.3457689e-01
 -4.0949839e-01
  1.9343074e-02
 -9.9146485e-02
 -4.9214315e-02
  2.6138502e-01
 -2.7519995e-01
 -4.9602023e-01
 -4.5756033e-01
  3.9725623e-01
 -7.0284337e-01
  1.0879664e-01
  7.6163608e-01
  6.2379673e-02
 -1.3368939e-01
 -3.4036208e-02
  3.0241242e-01
 -5.5480814e-01
  1.1705834e-01
 -2.5726566e-01
  1.1994252e-01
  8.9807928e-02
 -3.0172968e-01
  4.2882630e-01
 -4.9643019e-01
 -1.6907245e-01
  9.3624070e-02
  7.4050307e-01
 -1.1137290e-01
  4.4710609e-01
  2.5843967e-02
  5.1026791e-01
  1.0207475e-03
 -4.0228937e-02
 -7.2215665e-03
  4.4824532e-01
  1.9450495e-01
 -2.0015152e-02
  1.3212521e-01
  4.0549329e-01
 -1.5781538e-01
  2.5377303e-01
  3.2966265e-01
 -1.2069726e-02
 -1.5281335e-01
 -7.4317522e-02
  1.2585741e-01
  1.3284031e-01
  1.3958295e-01
 -1.7277287e-02
 -1.4336900e-01
  1.5357941e-01
  1.2265922e-01
  1.9854503e+00
 -8.0170184e-01
 -2.5169846e-01
 -1.3478427e-01
  1.0953736e-01
  7.4537225e-02
  8.7808326e-02
 -1.6201782e-01
 -2.8209198e-01
  8.9214973e-02
  7.2390801e-01
 -2.4260533e+00
  1.0168882e-01
 -1.4300318e-01
  1.7502558e+00
 -5.3187102e-02
 -3.6175475e-02
 -5.3965576e-02
 -5.2786663e-02
  9.9446595e-02
  8.6541668e-02
  1.5846220e-01
 -7.9095289e-02
 -2.9055414e-01
  4.1022247e-01
  5.9093103e-02
  3.2478068e-02
  1.6652198e-01
 -7.3963113e-02
  3.3881301e-01
  6.8189815e-02
 -2.3393631e-02
 -4.3833542e-01
  2.1529888e-01
 -5.0842334e-02
  1.3738551e-02
 -9.2839189e-02
  1.0255881e-01
  3.5731813e-01
  5.6557190e-02
 -5.9529148e-02
  2.6882634e-01
  3.4937623e-01
  3.1305376e-02
  4.5942347e-02
  1.7499660e+00
 -1.6006378e+00
  4.2304394e-01
  1.1671727e-01
 -6.4404555e-02
  6.1632067e-02
  1.2505627e-01
 -1.8588539e-02
 -7.9000637e-02
  7.1553499e-02
  1.8307713e-01
 -2.7252506e-02
  1.6075643e-02
  3.5960275e-01
  7.7451736e-02
  2.6860815e-01
  2.7453330e-01
  2.5304171e-01
 -1.1618552e-01
  5.2589518e-03
 -2.0486471e-01
  1.0465145e-01
  1.6350630e-01
 -2.2402373e-01
  6.1582025e-02
  4.5996964e-02
  2.4035504e-01
 -5.1406015e-02
 -2.0903599e-01
 -2.3557180e-01
  7.1441478e-01
 -4.6073255e-01
  1.9533253e-01
 -8.7402397e-01
  5.1713318e-01
 -1.0220298e-01
 -1.1186917e+00
  1.0328197e-01
  7.8912362e-02
  4.9005553e-01
  1.9793829e-02
 -1.8162538e+00
  2.8849459e-01
 -7.9796918e-02
 -1.0994669e+00
 -1.0747751e+00
  1.7631224e+00
 -1.1722901e-01
 -4.5062213e+00
  3.2167047e-02
  1.5964595e+00
 -1.9982451e-01
  8.8789457e-01
  1.4308398e+00
 -2.7875736e-02
  8.3859608e-02
  1.0811255e+00
  1.6775433e+00
  1.1418359e-01
  2.2349313e-03
  2.5581655e-01
  1.3952911e+00
  6.1213356e-02
 -5.5781746e-01
  1.8548138e+00
  8.7933347e-02
  8.1424737e-01
 -9.5298308e-01
  8.5982740e-02
  4.1396365e-01
 -1.7700373e-01
  2.1796629e+00
 -1.0818858e+00
  1.7250372e-01
 -6.3905859e-01
 -1.6216469e-01
  2.0955943e-01
 -3.1506577e-01
  1.0349063e+00
 -1.5765603e-01
 -8.8615328e-01
 -9.7409201e-01
  2.0003801e-02
 -2.5365549e-01
  2.0506358e-01
  1.0948504e+00
 -1.1735835e+00
  2.4309553e-01
  3.7287006e-01
 -1.4340924e-02
  6.3689478e-02
  1.8543503e-01
  3.5079640e-01
 -1.3642064e+00
 -3.2942998e-01
  7.6083845e-01
  1.9149277e-01
 -2.8835869e+00
  3.2568493e-01
 -8.7650709e-02
 -3.3749065e-01
 -1.5854543e-01
  1.0254350e+00
 -1.6810495e-01
  1.3238517e+00
  2.6143700e-02
 -3.3686659e-01
 -3.0914986e-01
  2.5372258e-01
  4.2415088e-01
  1.2652513e+00
 -1.7726451e-01
  1.0696185e-01
  7.2662324e-01
 -4.6239781e-01
 -4.5834032e-01
  1.0828502e-01
  5.7051307e-01
  2.6578283e-01
 -8.4130263e-01
  1.8012491e-01
 -1.2846217e-02
  1.6636747e-01
 -5.1744077e-02
  1.0341384e-01
 -1.2715861e-01
  4.7948312e-02
  1.4274383e+00
 -4.1338414e-01
 -2.0419815e-01
  2.0683433e-01
  4.1590771e-01
 -6.8831652e-01
 -9.2467129e-02
 -2.9350814e-01
  3.0088866e-01
 -6.2303193e-02
  3.1727618e-01
 -4.1910373e-02
  1.7872868e-01
 -4.4137204e-01
  1.2069004e+00
 -9.9607497e-02
 -1.9094437e-01
  1.3622452e-01
  9.6308216e-02
  7.1140617e-01
  2.6123169e-01
  8.1536826e-03
  1.9307306e-02
  5.5766467e-02
 -6.4188294e-02
 -7.8726456e-02
 -2.0309855e-01
  3.9753565e-01
  3.3956060e-01
  1.2811691e-01
 -7.2105743e-02
 -1.5216857e-01
 -4.1214094e-02
 -1.9140282e-01
  2.9395121e-01
 -2.3430014e-01
 -1.5477702e-01
 -3.1108987e-01
 -4.4588421e-02
  3.8544169e-01
  7.3977846e-01
 -1.2598963e-01
 -5.6602204e-01
  2.9343241e-01
 -9.6547015e-02
  2.6790333e-01
  8.5240640e-02
 -2.7556905e-01
 -1.0450613e-01
 -3.5917497e-01
 -4.8952144e-02
  1.2944119e-01
  6.9262065e-02
 -2.4038285e-02
  3.3695307e-01
  1.8446831e-01
 -5.2833360e-02
 -1.2387041e+00
 -2.1506685e-01
  6.9185980e-02
  1.1278899e-01
 -4.3159977e-02
  4.1440181e-02
  2.8636178e-01
 -2.7436978e-01
  4.2723298e-01
  1.0191299e-01
  7.4168615e-02
  4.6455272e-02
 -6.2245113e-01
 -2.0140439e-01
 -1.2118505e-02
  4.0403718e-01
  2.8337019e-02
 -3.2537571e-01
 -2.2998431e-01
  6.4051217e-01
  7.1583942e-02
  5.6851763e-02
 -2.2463062e-01
 -3.3867855e-02
 -1.6787694e-01
 -6.0786891e-01
 -1.1659156e-02
 -3.0307102e-01
 -8.0089867e-02
  1.1362045e-01
 -3.0567145e-01
 -1.6607037e-01
 -9.2035852e-02
 -2.0055163e-01
  4.9855077e-01
  1.6358021e-01
 -1.4161082e-01
  3.7654679e-02
 -6.9242090e-02
  2.6451442e-03
  2.3908891e-01
  1.8558389e-01
 -9.4998971e-02
 -6.1895438e-02
  6.8498291e-02
 -2.8730088e-01
 -6.0816333e-02
  1.7961876e-01
  1.5527742e-01
  3.5466766e-01
 -3.8709876e-01
 -2.1376003e-01
  7.6339923e-02
  2.5033429e-02
  1.6320506e-01
  1.0071899e-02
  7.6070495e-02
 -7.1744900e-03
 -5.1581830e-01
 -3.1733888e-01
  4.0699098e-01
  8.7912522e-02
 -1.2544683e-01
 -1.4718452e-01
 -7.0527710e-02
 -3.5545361e-01
 -2.6084576e-02
  1.3841593e+00
 -1.2329605e-01
  1.1495049e-01
 -1.3515732e-01
 -1.4972500e-02
 -1.0116937e-01
  2.0585598e-01
  2.2841688e-01
 -2.6965514e-01
  7.7312216e-03
 -2.7348915e-01
 -3.6787283e-01
 -2.1629626e-01
 -1.3875020e-01
 -4.0133813e-01
 -8.7004393e-02
  4.6990100e-02
 -4.8100814e-01
  4.4463819e-01
 -4.6153539e-01
  3.0142522e-01
  6.6786128e-01
 -6.2800989e-02
  8.1171691e-02
  1.8038575e-01
 -1.2952269e-02
 -3.3469936e-01
 -1.9971088e-01
 -3.6980247e-01
  1.3007623e-01
 -1.7319970e-01
  4.6838041e-02
 -6.7244142e-01
 -1.0623019e-01
  8.1569985e-02
 -4.1618305e-01
 -1.2302000e-01
  1.5270308e-01
 -6.0935419e-02
  5.1172739e-01
 -2.8218767e-02
  4.4517074e-02
 -3.5923999e-02
  2.3707637e-01
 -1.2133154e-01
  1.6915405e-01
  4.6501374e-03
  1.9217689e-01
 -1.5171586e-01
 -2.8879231e-01
 -1.8756150e-01
 -6.2610641e-02
 -5.3882264e-02
 -4.4256356e-01
  2.9664099e-01
  8.0626339e-02
  5.6536973e-02
 -1.1674142e-02
  1.2232982e-01
  9.0096258e-02
  5.6527793e-02
 -8.7303091e-03
  1.9676746e-01
 -3.8554971e-03
 -7.9115793e-02
 -1.9975898e-01
 -1.9839616e-02
 -9.6888475e-02
  3.6529633e-01
 -3.8560979e-02
 -9.6082616e-01
 -3.8795570e-01
 -1.8290700e+00
 -6.6081643e-02
 -7.0158847e-02
  4.3879944e-01
  1.4154085e-02
 -2.5045416e-01
  2.4279743e-02
 -1.3206968e-01
  1.4355083e-02
  2.7464631e-01
 -2.8089869e-01
  7.9494573e-02
 -2.5644639e-01
 -3.4220552e-01
 -5.2560937e-01
  2.1307863e-02
  1.5235975e-01
 -5.4418093e-01
 -8.4740244e-02
  1.8275379e-01
 -5.0660467e-01
  2.0668764e-01
  2.5905460e-01
  1.3440695e-01
  5.9236605e-02
 -2.0324661e-01
  1.7938513e-01
 -1.1200932e-01
 -3.9735753e-02
  2.0699182e-01
  1.6937578e-01
  3.1270191e-01
 -1.5483864e-01
  4.0990487e-01
 -6.6183746e-02
  2.6500938e-02
 -7.5600967e-03
 -4.1068804e-02
 -1.2697108e-01
 -5.9581208e-01
 -3.2306126e-01
 -5.1788703e-02
 -7.5872399e-02
 -3.2132122e-01
  1.1417495e+00
  4.8572847e-01
 -3.2584775e-02
  1.7163466e-01
 -6.1935997e-01
 -5.2407213e-02
 -2.8076908e-01
  5.5669123e-01
 -1.3556915e-02
  4.4205770e-02
  9.9626109e-02
 -2.5433272e-02
 -1.2441962e-02
 -2.9038334e-01
 -6.1907738e-01
 -2.9603246e-01
 -9.1772124e-02
 -3.8183743e-01
 -4.8458684e-02
  1.0404507e-02
 -6.4098523e-03
  2.0510614e-01
  3.6875269e-01
  4.3483227e-02
 -3.2159945e-01
  3.1564832e-01
 -2.2473481e-01
 -9.0378389e-02
 -3.2727707e-03
 -2.2730337e-01
  2.4178301e-01
  2.8025925e-02
  4.3858710e-01
 -1.9347422e-02
 -1.3004902e-01
 -1.9746721e-01
 -3.7469186e-02
  1.8844587e-01
  2.1779306e-01
 -1.0089064e-01
  6.8929195e-02
 -9.8631136e-02
 -1.4605449e-01
  4.4385884e-03
  2.2646639e-01
 -3.9715543e-01
  1.6130097e-01
  1.6684775e-01
  8.4982693e-01
  1.1404986e-01
  1.5423305e-01
  8.0167763e-02
 -4.3106231e-01
  3.0190615e-02
  7.1429975e-02
 -2.2848265e-01
 -1.5399159e-01
  2.7481869e-03
  1.2737797e-01
  8.2855946e-01
 -6.3876915e-01
 -3.0372635e-01
  5.8945292e-01
 -1.3237818e-01
  9.2904621e-01
  1.9479465e-02
 -3.2168373e-01
 -5.1630729e-01
 -2.2334296e-02
  4.8557937e-01
 -8.6789951e-02
  4.8718458e-01
  4.7352520e-01
 -7.0473820e-01
 -9.5104091e-03
 -1.6011281e-02
 -4.6838450e-01
 -1.6715483e-01
 -3.4257668e-01
 -3.7916192e-01
 -1.1490285e-01
 -1.8138622e-01
  2.6454824e-01
 -2.9298657e-01
  3.4226805e-01
 -8.8870806e-01
 -1.0613757e-01
 -3.7184185e-01
  3.9721507e-01
 -6.3548930e-02
 -1.4644776e-01
  5.6772375e-01
  1.1023474e-01
  3.1612411e-03
 -8.5469738e-02
 -1.5873800e-01
 -3.5925421e-01
  2.8197038e-01
  8.1694491e-02
 -4.1657407e-02
  1.3184841e-01
  8.5813113e-02
 -7.0997211e-03
 -8.5625269e-02
  4.9593765e-01
  3.4940667e-02
 -2.0973682e-01
 -1.1598581e-02
 -2.6663491e-01
 -2.1509610e-01
  4.7283062e-01
  4.7121033e-02
  4.5623656e-02
  1.2641640e-01
 -8.2014523e-02
  2.8669885e-01
  8.0091631e-01
 -3.6961934e-01
  5.7401408e-02
 -1.3723741e-01
 -2.1895411e+00
  5.8094699e-02
  5.7048750e-01
 -1.4043215e-01
  1.4650796e-01
  1.2614006e+00
 -9.7033657e-02
 -2.6343855e-01
 -1.4795905e-01
 -9.4930515e-02
  1.4751172e-01
  2.0748693e-01
 -4.9199048e-02
 -1.1832050e+00
 -2.6832786e-01
 -1.0348024e-01
  2.4363337e-02
 -2.3227932e-01
  5.6127995e-02
 -2.2460365e+00
 -2.1708159e-01
 -8.0070987e-02
 -7.6257282e-01
  1.2717092e-01
  8.8077940e-02
 -1.7877443e-01
 -2.7787423e-02
 -1.9319678e-02
 -2.1949415e-01
 -1.6817604e-01
  1.3838135e-01
  3.4617761e-01
 -1.7836708e-01
  3.2768974e-01
 -6.2401533e-01
  6.3459724e-01
  2.0668590e-01
  8.7723374e-02
 -4.4369110e-01
 -7.1754567e-02
  2.9405393e-02
  1.6214220e-01
 -1.0020826e+00
  2.3320270e-01
  2.4862171e-03
 -2.1020208e-01
 -2.6076102e-01
 -1.7480138e-01
 -3.3447126e-01
  4.2478874e-01
 -2.1292013e-01
  3.2243696e-01
 -5.5687702e-01
 -3.3762369e-01
 -5.5876523e-01
 -7.0626557e-01
 -3.5341692e-01
 -1.4496079e-01
 -5.8224838e-02
 -3.5293862e-01
  3.1177858e-01
 -3.1551325e-01
 -4.2661241e-01
 -2.7299973e-01
  2.8338635e-01
  3.5962639e-03
 -2.0860419e-01
 -1.0016974e-01
 -5.8170743e-02
  8.2110876e-01
  1.7826276e-01
 -6.8622881e-01
 -8.7759173e-01
  6.8520629e-01
  7.3468283e-02
 -2.2476824e-02
 -2.6985267e-01
  6.0712051e-02
 -7.5689472e-02
 -4.9996912e-02
  2.6259789e-01
  2.4054863e-01
 -3.1570241e-01
 -1.7074589e-01
 -6.0486978e-01
 -2.9881570e-01
  1.1656670e-01
  3.4911987e-01
 -1.2535793e-01
 -1.4581653e-01
 -1.7522015e-02
  1.6874718e-03
  7.7559970e-02
 -5.6834644e-01
  2.2244839e-02
  1.0010137e-02
 -9.8145254e-02
 -6.4109072e-02
  9.1725558e-02
  1.9459148e-01
  3.4012270e-01
  2.6097837e-01
  1.3221034e-01
 -2.8022841e-01
  1.3481607e-01
  3.3303088e-01
 -1.3548875e-01
  7.5622296e-01
  7.5647444e-02
 -1.1670043e-01
 -5.3888983e-01
  2.6562774e-01
  2.5476167e-01
  4.6301182e-02
  5.4685846e-02
  2.0295531e-01
  2.1512263e-01
 -4.3495235e-01
 -2.7772710e-01
  6.8888497e-01
 -1.4684524e-01
  4.9123351e-02
  2.6190343e-01
  1.2624182e-01
  4.0214637e-01
  5.1843688e-02
 -1.7902279e-01
  2.2780477e-01
 -2.3709466e-01
 -3.8387675e-02
 -2.4171129e-01
 -9.9745698e-02
 -2.0034054e-02
 -4.7271460e-02
  7.6366282e-01
  4.6143255e-01
  1.5190257e-01
 -3.3037952e-01
  5.8635962e-01
 -4.0980723e-02
 -8.7240517e-02
 -1.4651355e-01
  3.8217652e-01
 -5.1705807e-01
  1.0638928e-01
  1.6392858e-01
 -3.5957631e-01
  6.6632971e-02
  1.0984948e-01
 -8.7349094e-02
  3.0121936e-03
  6.6665792e-01
  5.0354749e-01
  2.6317966e-01
 -5.3822190e-01
 -3.7731457e-01
  3.0568427e-01
  3.5582113e-01
 -4.3516612e-01
  4.9771268e-02
 -3.0401564e-01
  1.5701051e-01
  3.6738843e-02
  1.4920728e-01
  2.3037122e-01
 -1.8584589e-02
  9.4947452e-03
  5.3153887e-02
  5.5514467e-01
  7.5274712e-01
  1.9975990e-01
 -8.1338264e-02
  6.5806769e-02
  1.4387314e-01
  3.7503004e-02
  4.9453828e-02
  4.1200134e-01
  2.9628766e-01
  1.2957297e-01
  6.0631096e-01
 -7.0816529e-01
  6.7234866e-02
  7.5423785e-02
  2.5597823e-01
 -6.3713342e-02
  4.8391944e-01
 -3.5533077e-01
  1.3693081e-02
  2.0152181e-01
 -1.8382837e-01
 -3.3154243e-01
 -6.7146972e-02
 -2.5375798e-01
 -1.4238944e+00
  7.9607867e-02
  6.6159511e-01
 -9.7247414e-02
 -2.0253561e-01
  7.1983337e-02
 -9.0113156e-02
  5.1747352e-02
 -2.2996992e-01
  3.6651976e+00
  1.6989225e-01
  2.9277292e-01
  8.8873494e-01
  1.2860756e-01
  8.8532394e-01
 -1.1200193e-01
 -4.4479346e-01
 -1.4374672e-01
  3.1888094e-02
 -4.0164389e-02
 -6.9898531e-02
 -4.5962796e-01
 -2.0576860e-01
  1.7827961e-01
 -1.7113073e-01
  9.5766924e-02
  3.6595583e-01
 -4.8817164e-01
 -1.7270003e-01
 -3.5925262e-02
  1.2473412e-01
 -4.1582000e-01
 -1.3059722e-01
 -2.8430356e-03
 -5.0175063e-02
 -2.5540081e-01
 -1.3408390e-01
 -2.2820832e-02
  6.6109984e-03
 -5.4425981e-02
 -1.4075047e-02
  3.8341429e-02
 -2.2763376e-01
  1.7866112e-01
 -1.0965034e-01
  5.8078326e-02
 -2.6868960e-01
 -6.0260467e-02
  4.1253287e-02
 -3.1215554e-01
 -7.7455644e-03
  1.4810415e-02
  9.4694048e-02
 -3.1676680e-01
 -2.7285887e-02
 -6.9677550e-01
  8.3265501e-01
 -1.0519293e-01
  1.0873713e+00
  1.4124645e-01
 -1.1773632e+00
  1.2228106e-01
 -9.3467098e-01
 -6.2110268e-02
  1.6478176e-01
  3.0423400e-01
  2.5428276e+00
  1.5848705e-01
 -4.0911213e-01
 -1.0003261e-02
 -1.0100114e-01
 -1.0394786e-01
 -1.3165060e-01
 -5.0370938e-01
 -1.5223452e-01
  2.3736859e-02
  3.5274234e-01
  5.8546329e-01
 -2.2776577e-01
 -1.9297910e-01
 -5.7038195e-02
 -1.4136529e-01
  1.2591736e-01
 -3.4868851e-01
 -1.3587472e-01
 -6.0771443e-02
 -6.6610709e-02
  1.2021361e-01
 -7.6888222e-01
  4.5025952e-02
 -4.1168697e-02
 -1.8268897e-01
 -2.8289962e-01
 -2.6708186e-01
  3.0581859e-01
  5.8457792e-01
 -1.7535888e-01
  4.3722388e-01
 -2.7567336e-01
  5.1392543e-01
  1.6071279e-01
  7.7885695e-02
  8.1727155e-02
 -6.8037862e-01
 -1.4296146e-01
 -5.9528640e-03
 -1.3377218e-01
  3.5846412e-01
 -9.2179425e-02
 -1.1827311e-01
  2.4743780e-01
  5.7498717e-01
  1.1597402e+00
 -9.8657556e-02
 -1.5529093e-01
 -4.6233690e-01
  1.1361390e-01
 -1.6821060e-02
 -2.4113063e-02
 -2.0410430e-01
  5.7546820e-02
  4.7891516e-02
  1.7874323e-01
  6.7269400e-02
 -2.4318418e-01
  1.9341078e-01
  6.1647379e-01
  4.2205015e-01
 -2.6180664e-01
 -8.4863991e-02
  4.0994444e-01
 -5.9747700e-02
 -5.8976895e-01
  1.1094619e-02
 -2.5918868e-01
 -2.4074238e-02
  2.1934384e-02
 -1.8129790e-01
  7.9119444e-02
  3.1192610e-02
 -3.2444198e-02
 -2.7503890e-01
 -3.8452095e-01
  1.0464788e-01
 -1.2979066e-01
  1.6120780e-01
  5.9520654e-02
  8.8032208e-02
  4.2388743e-01
 -7.3243660e-01
 -2.3299737e-01
 -3.0137977e-02
  7.6932615e-01
  7.2621718e-02
 -1.5940681e-01
  8.9157850e-02
  5.2504277e-01
  6.6852532e-02
  1.3412358e-01
 -7.0472598e-02
 -1.5329827e-01
  1.2792331e-01
  3.6112797e-01
  7.1880259e-02
 -7.4192576e-02
 -1.0147299e+00
 -9.1461465e-02
  2.5173929e-02
 -5.3960700e-02
  2.2808168e-02
 -6.2399238e-02
  1.5577305e-02
 -3.2924198e-02
  8.0665953e-02
 -2.5447580e-01
  1.3624765e-01
  2.6543120e-01
 -3.5200265e-01
  6.9524026e-03
 -2.7852795e-01
 -6.2653348e-02
 -1.0573531e-01
 -4.2726344e-01
 -9.2146017e-02
 -2.0802503e-02
 -6.9423266e-02
 -1.0399594e-01
 -1.0635971e-01
  8.7029137e-02
  2.9171601e-01
 -5.0495148e-02
 -1.2666267e-01
 -3.1430647e-01
 -5.3883832e-02
  1.0061857e-01
 -8.2346603e-02
 -7.5566120e-02
  5.2456272e-01
  1.8769625e-01
 -5.7252759e-01
 -1.2527797e-02
  2.9924229e-01
 -5.9317815e-01
  8.0282882e-02
  4.7865194e-01
  1.0663159e-01
 -2.3180161e-01
 -5.5613242e-02
  1.3224521e-02
  1.9165488e-01
  2.8455986e-02
 -1.7226672e-02
 -1.4035712e-01
 -8.5747339e-02
 -4.4754472e-01
  7.9054749e-03
  2.7268440e-01
  1.6829100e-01
 -2.3374532e-01
  8.4093469e-01
 -9.9147558e-01
 -3.6621556e-01
 -1.8336602e+00
  1.5494145e-02
 -3.3056855e-01
  3.9783177e-01
  4.1909501e-01
 -9.1050662e-02
  2.2705226e-01
 -9.4277591e-02
 -2.3852630e-01
  7.6375589e-02
  3.7074226e-01
  1.4876748e-02
 -1.4497435e-02
 -1.3361266e-01
  6.3283339e-02
 -1.3510741e-01
 -5.3023227e-02
  1.1267438e+00
 -7.7989942e-01
  1.7586082e-01
 -2.0230475e-01
 -4.6189576e-01
 -7.6550864e-02
  1.9981441e-01
 -2.6444024e-01
  4.7885265e-02
  6.3050345e-02
 -1.2031013e-01
  4.8313022e-01
  8.2583785e-02
 -5.0944376e-01
  6.7697561e-01
 -1.2940678e-01
  1.6708666e-01
  3.2655511e-02
 -1.8902370e-01
  9.5634408e-02
 -2.1580315e-01
 -3.0433375e-01
 -1.4035863e-01
  9.7407445e-02
 -1.7499353e-01
 -2.0874960e-02
 -3.2568455e-01
 -3.9889684e-01
  9.0360276e-02
 -5.1449323e-01
 -8.9017488e-02
  5.5994695e-01
  3.2478103e-01
 -4.0894830e-01
 -1.6288264e-01
  3.4991425e-01
 -7.7035451e-01
  2.6584735e-02
 -3.4962702e-01
  2.7825791e-01
 -1.9614157e-01
  1.2722223e-02
  5.3596154e-02
  1.1440930e-01
 -5.8721259e-02
 -5.0681908e-02
  4.8835706e-02
 -3.3183753e-01
  8.4979214e-02
  1.4648706e-01
  5.4706776e-01
 -6.5284505e-02
  1.2189817e-01
 -1.1831384e-01
 -1.6675964e-01
 -2.4496605e-01
  2.1990205e-01
 -1.0497919e-02
 -1.7694467e-01
  6.6792554e-01
  1.3626197e-01
  3.6789894e-02
  2.1075433e-01
  2.2525069e-01
 -4.0696615e-01
 -1.5115458e-01
  3.0967686e-01
 -3.9484209e-01
  4.6277177e-01
 -2.8009105e-01
 -4.0223423e-01
 -2.3123249e-02
  3.2274483e-03
 -2.6296321e-01
 -7.9033917e-01
  9.0566032e-02
 -3.2379039e-02
  1.9801880e-01
 -4.4135649e-02
  1.6974653e-01
 -2.1037799e-01
 -5.9090000e-02
 -4.9971530e-01
 -2.4579354e-02
 -6.6291255e-01
 -4.2159373e-01
 -1.2440929e-01
  5.5952568e-02
  2.3526264e-02
  5.5085748e-02
 -1.2315650e-01
  8.5043348e-03
 -1.9224611e-01
  3.6508080e-02
 -4.2830355e-02
  2.7762622e-01
 -5.0216538e-01
  8.7607183e-02
  3.2757181e-01
 -3.2768194e-02
 -1.6127096e-01
  1.0519280e-01
 -6.8223572e-01
  3.1782977e-02
 -2.1153788e-01
  8.5449249e-02
 -2.5452423e-01
 -6.2263649e-02
  9.1595061e-02
  4.1279513e-02
 -6.0316291e-02
 -3.9618769e-01
  9.9378191e-02
  5.3338331e-01
  2.2034024e-01
 -3.2566923e-01
  8.7111432e-04
  5.7448428e-02
 -1.3232222e-02
  2.0814830e-01
 -4.8433647e-02
 -2.0467488e-01
  3.4074521e-01
 -3.6133442e-02
 -6.2228221e-02
  1.1632052e-02
 -1.0264208e+00
  1.8678239e-01
 -3.4674007e-01
  1.6294671e-02
  5.4851361e-02
 -9.2108905e-02
  1.8050222e-02
 -3.0333450e-01
 -5.9740180e-01
 -1.4629839e-01
 -5.4711055e-02
 -3.3227867e-01
  3.6287460e-01
 -3.2573259e-01
 -2.2159385e-02
 -3.8237289e-01
 -1.2336954e-01
  2.1000619e-01
  2.7952233e-01
  7.8472480e-02
  1.8201745e-01
  3.4910258e-02
 -1.8496618e-01
  3.0191207e-02
 -1.3832733e-02
 -3.1955072e-01
  1.0588767e-01
 -1.8192834e-01
 -4.0973186e-01
  1.3859595e-01
  5.2239472e-01
 -2.0523611e-01
 -8.1471458e-02
  3.5426874e-02
 -9.2863403e-02
  3.6353663e-02
 -6.3407743e-01
  1.9759472e-02
 -3.5375956e-02
 -8.1291571e-02
 -7.9110614e-04
  2.3673335e-01
  1.0373757e-01
 -1.2931049e-01
  1.5167893e-01
 -2.5128540e-01
  4.6220675e-01
  8.4722564e-02
  1.2379945e-02
  1.9594060e-01
 -5.6736432e-02
  1.3580336e-02
  9.8239355e-02
  4.1343203e-01
  9.5576800e-02
 -2.9209343e-01
 -7.6824248e-02
 -1.7740332e-01
  2.3912178e-02
  4.5709270e-01
 -8.0243543e-02
  8.6718537e-02
  9.3868449e-02
  1.0394967e-01
 -3.9048243e-02
  8.7983318e-02
  2.1649161e-01
  8.2736588e-01
  1.2930390e-01
  3.4094310e-01
 -3.1785941e-01
  1.5506145e-02
 -2.5867453e-01
 -1.3408229e-01
  1.0535220e-02
 -3.0886656e-01
  4.9031701e-02
  1.9517930e-02
  2.3848945e-01
 -4.4546905e-01
 -2.3036240e-02
 -2.6875517e-01
  1.1983293e-01
  4.9842066e-01
  5.6282245e-02
 -4.6185470e-01
  2.8207498e-02
  6.0974911e-02
 -2.9536143e-01
  3.7453303e-01
 -7.7693630e-03
 -1.3246991e-02
  5.2908007e-02
  2.3594312e-01
  5.6134331e-01
  6.3333088e-03
 -1.1846849e-01
  2.0657323e-01
  8.7265395e-02
 -2.3978744e-03
 -2.9179844e-01
 -2.4583451e-01
 -5.2931875e-02
 -2.3681526e-01
  6.1883412e-02
  9.5157170e-01
 -1.9658186e-02
  1.8421535e-01
 -1.2923312e-02
  8.1879161e-02
 -1.6418099e-02
 -2.2752458e-01
  1.5629002e-01
  1.1534242e-01
 -3.8103297e-01
  1.1511114e-02
 -6.7291188e-01
  2.7190539e-01
 -3.4675881e-01
 -7.4503869e-02
  3.6987311e-01
  5.9697907e-02
 -1.1652599e-01
 -3.5520637e-01
  2.5254530e-01
 -1.2924050e+00
  2.4483095e-01
  1.4712138e-01
 -1.8315116e-01
  8.8181809e-02
  1.8832110e-01
  9.8021336e-02
  4.8297581e-01
  9.2845885e-03
  5.8146883e-02
  2.9384822e-01
 -9.8431066e-02
 -3.3426741e-01
 -1.9493683e-01
 -6.5317056e-03
  1.1240812e-02
 -6.8375814e-01
  2.2744323e-01
 -2.4369405e-01
  6.8607420e-02
 -2.4042500e-02
  3.1587198e-01
  1.0062955e-01
 -2.3034544e-01
 -2.6591003e+00
 -1.3831624e-01
  1.1256497e-01
  2.4620414e-02
 -2.5692612e-03
  5.6824155e-02
 -3.7931821e-01
  1.4364117e-02
  1.5532546e-01
  1.4813186e-01
  2.0014757e-01
 -4.4461650e-01
  6.0836834e-01
  1.6337147e-01
  7.2351001e-02
  3.3849120e-02
 -1.0135464e-01
 -4.6557841e-01
 -4.2581323e-01
 -2.2401989e-01
 -3.6498770e-01
 -4.9624318e-01
  1.7492503e-01
 -2.4193892e-01
 -3.7467234e-02
  2.6466379e-02
  6.0272133e-01
  3.3044243e-01
  1.9106115e-01
 -5.8436394e-01
  3.2876569e-01
  3.7460145e-01
 -3.3974195e-01
  6.7855909e-02
 -1.2115358e-01
 -1.1601533e+00
  4.7612745e-02
  1.2187079e-01
 -4.4822606e-01
  7.4831843e-01
  1.9189915e-01
 -8.4422333e-03
 -1.3137627e-01
  1.3700192e-01
  2.0435948e+00
  2.0294193e-02
  1.6802116e-01
 -5.9156775e-01
 -1.7092010e-01
 -9.1512255e-02
 -1.6222842e-02
  1.3355440e-01
  1.9901846e-01
 -7.0303105e-02
  1.3391468e-01
  2.5148267e-01
  2.4808556e-02
 -1.6707958e-01
  4.7893631e-03
  5.1758543e-02
  1.5746899e-01
  5.1099114e-02
 -4.1340686e-02
  5.1553790e-02
  1.2174878e-01
  5.6557874e-03
  5.3133243e-01
  4.4004962e-01
  7.2700500e-01
 -3.7193340e-01
 -1.8549782e-01
 -1.1851199e-01
  5.6818303e-02
 -5.2813543e-03
  2.3585573e-01
 -1.4331181e-01
  2.0734647e-01
 -1.9210041e-01
 -6.4186774e-02
 -9.1416471e-02
  1.2652367e-01
 -1.2892085e-01
 -6.4373881e-02
  4.1356555e-01
 -4.7036919e-01
  1.0123355e-02
  8.9164581e-03
 -3.1944435e-02
 -4.1970471e-01
 -2.4011227e-01
  2.5132158e-01
 -2.7596796e-01
 -1.8508135e-01
 -1.3858725e-01
  3.5320606e-02
 -1.8089233e-01
  7.6083019e-02
 -3.3546891e-02
  5.1616479e-02
  1.4793119e-01
  2.9146552e-02
  3.5417059e-01
 -1.1628642e-01
 -1.9539884e-01
  2.7417633e-01
  3.4724474e-01
  6.5765753e-03
  4.8219357e-02
  2.7347672e-01
 -4.6956469e-03
 -7.7512175e-02
 -1.5993518e-01
 -3.0464619e-01
 -1.0184374e-02
 -5.2862782e-02
  1.1085435e-01
  8.0307096e-02
  6.3841350e-02
  1.8213739e-01
  4.8676532e-02
 -1.5718876e-01
  2.7615601e-01
 -7.4682534e-02
 -3.1495178e-01
  2.7926776e-01
 -9.3578801e-02
 -5.5977088e-01
 -9.8844051e-02
 -4.4380456e-02
 -3.5327744e-01
  2.6186356e-01
 -3.3888616e-02
  5.9997324e-02
  6.8738365e-01
 -2.2332980e-01
 -1.7545959e-01
 -6.2929332e-02
 -3.8428567e-02
  5.4606009e-02
 -9.1941126e-02
 -3.1192273e-01
  4.2142370e-03
  2.4623851e-01
  8.8966066e-01
  4.3099529e-01
 -1.1701455e-01
  1.9612157e-01
  3.1278413e-02
 -2.4391314e-01
 -1.0428236e-01
  2.9069379e-02
 -4.3391120e-02
  1.1366446e-01
  1.8733376e-01
  1.0687710e-02
 -1.7525928e-01
  1.0381844e-01
 -2.1582091e-01
  3.0812208e-02
  3.7822518e-02
  1.0549603e-01
 -4.7391906e-02
  2.3621415e-01
  3.3488947e-01
 -4.3060683e-02
  4.2783031e-03
  3.1227145e-01
 -2.2715120e-01
 -3.3265498e-02
  9.7284369e-02
 -1.6864361e-01
 -1.2472032e-01
 -1.4019760e-01
  9.8633125e-02
 -6.9808969e-03
  5.6756109e-01
  6.6349141e-02
  1.2223115e+00
  1.0313784e-01
 -7.3976219e-02
 -1.5765947e+00
  4.8741803e-01
  1.0072283e-01
 -6.1399478e-01
 -1.3468368e-01
  5.5256426e-01
  3.4039766e-02
 -9.5626712e-02
  1.3981559e+00
  8.0633357e-02
  2.3420939e-01
  1.3166414e-01
 -2.1762082e-02
 -4.2112388e-02
 -1.4636347e-02
  1.0109912e-01
 -1.2314631e-01
  1.4000389e-01
 -8.6467735e-02
 -3.3471605e-01
  6.7141972e-02
  2.7210361e-01
  3.5556361e-02
  1.0184949e-01
 -8.3043939e-01
 -2.6828456e-01
 -1.1993864e+00
 -3.8936183e-01
 -1.2544464e-01
  4.9475860e-02
  1.4553405e-01
 -1.1458611e+00
 -8.3310120e-02
  2.0224021e-01
 -1.4718395e-01
 -5.7340086e-02
  1.6504009e-01
 -1.0474477e+00
 -2.2641848e-01
  3.2777056e-01
  1.4659838e-02
 -5.2154565e-01
  1.0767127e+00
 -2.4942089e-02
  3.2368630e-01
  1.7871889e+00
  4.1648847e-01
 -1.0937420e-01
 -1.1324283e-01
 -4.0186641e-01
  1.5487483e-01
  1.2948937e+00
 -5.7239616e-01
 -1.1457051e-01
  2.8667518e-01
 -5.6411946e-01
 -1.7451231e-01
  5.9101224e-01
  1.7206907e+00
  3.9602560e-01
  4.1432370e-02
 -3.0878985e-01
  2.2626019e-01
  1.2089466e-01
  5.7257157e-02
 -5.1278502e-01
 -1.3203139e+00
 -8.6539936e-01
  7.3201454e-01
  1.1165839e-01
 -1.5889205e-01
 -4.1366234e-01
 -1.3864461e-01
  1.5189809e-01
  6.2019646e-01
 -1.2321742e-02
 -1.2223765e-01
  1.7300777e-02
 -2.1280125e-01
 -5.2496010e-01
 -3.1401925e-02
 -4.5932144e-01
  1.9505519e-01
 -2.4556534e-02
  2.0013334e-01
 -2.2810984e-01
  2.3017098e-01
 -2.9625997e-01
 -7.9679288e-02
 -2.0079882e-01
 -2.7209675e-02
 -1.7039168e-01
 -8.5828512e-04
 -4.9122155e-01
 -8.3687998e-02
  4.7971296e-01
 -4.5209710e-02
 -1.7219443e-02
 -1.2823857e-01
 -1.1840301e-01
  2.5384885e-03
  2.9448193e-01
 -2.8509137e-01
  2.2231652e-03
  9.3861020e-01
 -2.1879205e-02
 -2.8783125e-01
 -1.1717496e-01
  4.8998478e-01
  3.7349939e-01
 -3.7800542e-01
 -2.3052073e-03
  4.7131342e-01
  2.6604974e-01
 -5.6461677e-02
  1.1171689e-01
 -2.4842972e-01
 -1.6699094e-01
  4.4930335e-02
 -4.9969498e-02
 -3.7299626e-02
 -1.9260259e-01
 -1.7601682e-01
 -3.1852406e-02
  7.3132418e-02
 -5.1581088e-02
  2.2814623e-01
  1.0151023e-01
  5.4720575e-01
 -1.3667093e-01
 -3.0976522e-01
  1.2177707e+00
 -1.7436112e-01
  3.7915245e-02
 -4.6214470e-01
  2.5277582e-01
 -1.5582933e-01
  5.9603244e-01
  1.3091928e-01
  5.5377010e-02
  2.3981290e-01
  1.9240537e-01
 -1.2193933e-01
 -2.3623271e-01
  2.8958216e-01
  5.0810164e-01
  1.9180136e-02
  7.7846277e-01
 -1.2870207e-01
  2.2571522e-01
  1.1451743e-02
  2.9563563e-02
  8.8689022e-02
 -1.2736376e-01
  1.1163793e-01
  1.1306410e+00
  1.0128078e+00
 -1.4518035e-03
 -3.4709129e-01
  8.0344737e-02
  2.9156534e-02
 -6.6737223e-01
 -4.7040409e-01
 -1.7496635e-01
  6.5228064e-03
 -1.7502159e-01
  2.0119572e-01
  5.1616007e-01
 -8.5063851e-01
  1.1790227e+00
  9.2983484e-02
 -1.9903933e-01
 -1.5015259e-01
  1.2781534e-01
 -1.2156416e-01
 -1.1802118e+00
 -3.9404161e-02
  1.9335428e-02
 -1.6109529e-01
  5.5835351e-02
 -1.5539629e-02
 -8.4408075e-03
 -2.0343790e+00
 -1.5940689e-02
  4.0728953e-01
  3.1109217e-01
  3.3521405e-01
  6.8724923e-02
 -2.9741174e-01
  9.9872655e-01
 -4.9069291e-01
  6.9460690e-02
  4.5489158e-02
  3.6534795e-01
 -8.8360645e-02
  1.1773030e-01
 -1.7771859e-02
 -1.3180837e-01
  6.9865912e-02
  1.0464722e-01
  4.3779895e-01
  3.4290746e-01
  2.0665737e-02
  5.2355375e-02
  2.7690223e-01
  2.2265179e-01
  3.6697370e-01
  6.3764781e-02
 -2.7856308e-01
 -1.4458136e-01
  1.2465330e-01
  4.9013034e-01
 -3.5845673e-01
 -2.3385359e-01
  6.9107793e-02
  1.4995204e-01
 -6.0798433e-03
  6.6612774e-01
  1.2124744e-01
  1.1636583e-01
 -1.1248281e-01
  1.3935040e-01
  1.3824991e-02
 -7.3287836e-03
  8.5131623e-02
  2.8877488e-01
  9.5324907e-03
 -1.1247268e-03
  2.6810152e-02
  1.5637186e-01
  3.4008067e-02
 -1.5216348e-01
 -2.5440574e-01
 -1.9912361e-03
 -9.2270905e-01
  5.2812558e-01
 -2.3619714e-01
 -5.2253485e-01
  4.9024370e-01
 -4.6877500e-01
 -1.8702134e-01
 -9.5586270e-02
  2.6582234e-02
  2.3246472e-01
  1.0474664e-01
  2.0625670e-01
 -5.9469245e-02
 -3.5324109e-01
  4.4939303e-01
 -2.0289266e-01
 -9.6195213e-02
 -1.1525881e-01
  1.3184882e+00
 -1.1666932e-03
  1.9708929e+00
  1.9401688e-02
  2.9322531e-02
  1.1966956e-01
  1.1740600e-01
  6.3511856e-02
  2.6760110e-01
  2.0872587e-02
 -6.4612395e-01
  1.6972472e-01
  1.4634986e-01
  1.1376570e-01
 -5.5534806e-02
 -1.0297865e+00
  3.0749077e-01
 -9.3106367e-02
  1.3001215e-01
 -3.1996954e-02
 -6.1254345e-02
  2.9321158e-02
  7.1563548e-01
 -1.1699340e+00
  3.7246965e-02
  8.5013390e-02
  1.4476071e-01
  1.0555433e+00
  3.1682754e-01
 -2.8324911e-01
 -6.5196162e-01
 -3.6182052e-01
  5.7745558e-01
 -1.4670970e-01
 -2.9720645e-02
  2.6825681e-01
  3.4295581e-02
  3.9459112e-01
 -4.0883731e-02
  1.3088931e-01
  7.0644966e-03
 -2.2665416e-03
  1.8329866e-01
 -7.4313277e-01
 -3.7787279e-01
  4.1003320e-01
  3.1041479e-01
 -5.6939089e-01
  1.4956968e-01
 -7.7613093e-02
  2.4440064e-01
 -4.8818383e-01
  1.2557297e-02
 -1.2631734e-01
  3.2617682e-01
 -1.2124243e-01
  6.8763918e-01
 -2.1539861e-01
 -1.0089845e-01
  1.1380808e-01
  1.1645614e-01
  1.1246631e-01
  1.4587219e-01
 -5.1847976e-01
  2.2325559e-01
 -4.1004929e-01
 -2.7353400e-01
  3.0943912e-01
  9.4209093e-01
  1.8760917e-01
  1.3139230e-01
 -1.2087792e-01
 -1.3012490e-01
  2.8608581e-01
 -1.9771878e-02
  3.4634495e-01
  1.2995288e-01
 -8.3308101e-02
  3.5314776e-02
 -2.3753314e-01
 -9.1969877e-02
 -9.2133588e-01
 -1.5940176e-01
 -5.2397016e-02
 -3.8248390e-01
 -1.7548850e-01
  6.6090965e-01
 -6.6653185e-02
 -5.9757832e-02
 -8.9231513e-02
  3.7343207e-01
 -1.1694205e+00
 -4.3486404e-01
  8.5449010e-02
  4.4816995e-01
 -3.1654432e-01
 -5.6616969e-02
 -1.7504393e-01
 -1.8417403e-02
 -5.3616333e-01
  4.7402877e-01
  2.7047725e-02
  3.3706471e-01
  7.5777680e-02
 -9.2218712e-02
  2.2660767e-01
  5.9178330e-02
  8.3371095e-02
  9.4783433e-02
 -4.9191865e-01
  7.3967926e-02
 -2.3863135e-01
  1.5295194e-01
  2.4902548e-01
 -6.0123749e-02
  7.5163454e-02
  3.9615047e-01
  3.6071241e-01
 -7.7815972e-02
 -1.1404452e-01
 -1.1440473e-01
 -4.3675992e-01
 -6.5637231e-01
 -6.1905140e-01
 -3.9276561e-01
 -2.1491437e-01
 -2.9089981e-01
 -6.7732088e-02
 -1.1352578e-01
 -1.0554166e-01
  8.6361462e-01
  2.6302585e-01
  1.3181461e-01
 -2.5927749e-01
  4.5796473e-02
  8.0187154e-01
 -1.3414209e-01
 -2.2040094e-01
 -4.2786612e-03
 -1.4772591e-01
  2.0765085e-02
  3.5607672e-01
 -9.6228883e-02
 -5.4670046e-03
 -1.3695808e-01
 -5.1921707e-02
  2.4299189e-01
 -1.4409509e-01
 -7.2717512e-01
  1.3650519e-01
  5.1519841e-01
  1.6775265e-02
  1.2999795e-01
 -5.4635072e-01
 -2.9035293e-02
 -2.9491177e-01
  2.5257215e-01
  2.1865796e-01
 -6.4697869e-02
 -7.5791469e-03
 -1.8260019e-02
  6.9294870e-02
 -6.9081712e-01
  2.1375488e-01
 -7.4196771e-02
 -1.9792619e-01
  1.6000777e-02
 -1.9371235e-01
  5.9396207e-01
  6.1434932e-02
 -6.7523405e-02
  4.7706696e-01
  2.3035553e-01
 -1.4614251e-01
 -1.0100845e-02
 -7.9957001e-02
  3.6730543e-01
  7.7255026e-02
  2.4585500e-02
  1.1913479e-02
 -3.2553074e-01
  9.7979225e-02
  1.1866791e-01
 -1.2039042e-01
 -2.9928693e-01
 -1.9507371e-01
 -1.1255167e-01
  3.0837753e-01
 -5.0828660e-01
 -2.4374734e-01
 -8.5609958e-02
  9.3617596e-02
  1.4664564e-01
 -5.2424324e-01
 -6.3953891e-02
 -1.7484181e-01
 -3.9680612e-01
  2.1837774e-01
  3.2278955e-01
 -7.5846985e-02
 -5.5360717e-01
 -9.7218029e-02
  4.4973621e-01
  9.5852710e-02
 -7.2092740e-03
 -9.1520436e-02
 -8.0408588e-02
 -6.0561031e-01
 -4.0561807e-01
  2.6734844e-01
  7.1410853e-01
  1.1905582e-01
 -1.0455622e-01
 -1.2010308e-02
 -2.6284003e-01
 -2.6021857e-02
 -2.0217887e-01
 -5.6450497e-03
  2.9340449e-01
 -3.7705538e-01
  1.1221489e-01
  4.3766256e-02
 -4.7769383e-01
  6.4821482e-02
 -1.6568268e-02
  2.1168618e-01
 -4.1526937e-01
  1.4950387e-01
 -4.2351544e-01
  7.7964798e-02
 -1.5976114e+00
 -1.2239426e-01
  4.9742338e-01
 -8.6171992e-02
  5.7444203e-01
  2.8552690e-01
  1.6741553e-01
 -1.0696255e-01
  1.7632218e-01
 -8.0938011e-02
 -1.9955525e-02
 -1.5621784e-01
 -2.4491617e-02
 -5.6134558e-01
 -7.9168171e-01
  1.1068866e-01
  9.8863430e-02
 -1.7212977e-01
  1.3685352e-01
  2.8322619e-01
 -4.0821478e-01
 -2.3696463e-01
 -2.9839990e-01
  7.7455610e-01
 -3.6595660e-01
 -3.7345473e-02
  3.2695705e-01
 -1.9894969e-01
 -2.5050771e-01
 -2.0233345e-01
  3.7786745e-02
  8.8040121e-02
 -3.2699928e-01
  7.7702540e-01
  1.5574977e-01
  6.8884343e-02
 -7.3731601e-02
 -1.0530003e-01
 -1.5989460e-02
 -4.6780732e-02
 -3.8046747e-01
 -1.8831097e-01
  3.3907568e-01
 -3.4933556e-02
  2.7104622e-01
  2.9774192e-01
 -2.9750931e-01
  2.3291974e-01
 -1.1343646e-02
  1.3735469e-01
  5.7354611e-01
  8.4957235e-02
  6.5138412e-01
  7.7570349e-02
  9.8035425e-02
 -7.0009671e-02
 -1.1341295e-02
  2.7058583e-01
  3.1746197e-01
 -7.7192158e-01
  6.5258133e-01
  5.7806507e-02
 -1.3688384e-03
  5.8789051e-01
 -1.4949925e-01
  1.3130429e-01
 -1.9457015e-01
 -4.0941173e-01
 -1.0811333e-01
  1.5164056e-01
 -2.9356667e-01
 -2.8766826e-01
 -1.3037336e-01
 -1.3100177e-01
 -1.5516855e-01
  1.0437533e-01
  5.1225317e-01
  9.1295138e-02
  4.1862676e-01
 -1.6017039e-01
 -2.3995574e-01
  3.7730840e-01
 -7.1845181e-02
 -1.7962258e-01
 -3.7022673e-02
 -5.6611798e-03
 -1.0775827e-01
 -6.4614467e-02
 -1.5820479e-01
  1.6901433e+00
 -1.1933634e-01
 -2.8485966e-01
 -6.5935296e-01
 -1.3033362e-01
  4.6573213e-01
  2.6519200e-01
  1.3907622e-01
  1.9804730e-01
  6.0766276e-02
 -2.6927661e-02
 -1.3756885e-01
 -3.8080115e-02
 -1.5799673e-01
  1.3630024e-01
  1.2211125e-01
  2.5314162e-02
 -1.4570501e-01
 -3.3336532e-01
 -5.0917518e-01
  2.5109893e-02
  1.4621085e-01
  1.6795252e-01
 -1.4775691e-02
  7.6557016e-01
  1.9904520e-01
 -3.2367286e-01
 -1.0341977e-01
  3.0426571e-01
 -4.5211855e-01
  3.9601144e-01
 -7.7000647e-03
  2.2914007e-01
 -1.9704635e-01
 -4.5158599e-02
  1.7601766e-01
  3.9521035e-02
  1.4250176e-01
 -4.1057430e-02
  1.0314097e-01
 -3.6816545e-02
 -1.5102467e-01
  2.2845586e-01
  1.9330898e-01
 -8.7684169e-02
  2.6143104e-01
 -8.5255951e-02
 -5.3606910e-01
  1.6556849e-01
  4.7970138e-02
 -2.5370291e-01
 -5.9308145e-02
 -1.8239425e-01
 -4.3488011e-02
 -1.6022767e-01
 -1.2961794e-01
  4.0642560e-02
  1.0699020e-01
  2.8901684e-01
 -2.2489736e-02
  2.4805674e-01
  3.9703777e-01
 -1.7731045e-01
 -1.8450537e-01
  5.1228250e-03
 -5.9565187e-01
 -4.8150480e-01
  2.1827878e-01
 -3.3372700e-01
 -7.9075772e-01
 -1.6923832e-02
  2.9788038e-01
  9.6965693e-02
 -2.7907306e-01
  3.6052263e-01
  1.3371842e-02
 -1.6206554e-01
  2.1753863e-02
 -1.0157170e-01
  1.0777044e-01
 -5.9647605e-02
 -1.8445051e-01
  1.3270114e-01
  6.1493088e-02
 -1.5882711e-01
 -4.2510056e-01
 -6.5772489e-02
  2.1743241e-01
 -3.1676274e-02
  1.5924415e-02
  1.7287730e-01
 -1.4310080e-01
  8.0951704e-03
  5.8832545e-02
  7.7065641e-01
  2.4526896e-02
 -5.8361184e-02
 -8.2431638e-01
  2.7463746e-01
 -4.0632060e-01
 -6.8929859e-02
 -7.9253301e-02
  7.5946152e-02
 -8.7194480e-02
 -3.3980779e-02
 -2.0456538e-01
 -2.6204333e-01
  4.0141807e+00
 -4.9356508e-01
  2.6572862e-01
  1.1045071e-01
 -1.8726678e-01
 -2.4511630e-02
  3.2533372e-03
  1.7845936e-01
  5.0805628e-01
  1.9692849e-01
 -9.9604592e-02
  4.8741601e-02
 -3.7022424e-01
 -4.8069589e-02
 -4.1044790e-02
 -2.7172288e-01
  5.6926675e-02
  1.4055514e-01
 -3.3237854e-01
  5.2591838e-02
  1.4672564e-01
 -9.0202874e-01
  3.6064103e-01
 -1.7693335e-01
  1.0729600e-01
  2.4056112e-02
 -1.4414115e-02
  1.6189824e-01
  3.9853898e-01
 -3.6778596e-01
 -9.3706027e-02
 -1.9402803e-01
  1.7845456e-01
 -3.7333837e-01
  6.6846007e-01
 -4.6235958e-01
  1.5259196e-01
 -1.1773330e-01
  1.0893395e-01
 -1.8429056e-01
  2.8343773e-01
 -2.9039744e-01
 -2.0353785e-01
  5.0955474e-01
  3.5266504e-01
  5.0674595e-02
 -1.5863992e-02
 -2.4908091e-01
 -2.0429683e-01
 -1.7239805e-01
 -8.0351688e-02
  1.3109209e-01
 -1.0772098e-02
 -2.5811419e-01
 -8.6511105e-02
  8.4717661e-02
 -4.9380922e-01
 -1.6342427e+00
  2.7995447e-02
  8.3480768e-02
  3.3738250e-01
  8.6398256e-01
  3.8390529e-01
  3.3493955e-02
  2.9102735e-02
 -3.0923715e-01
 -5.0194066e-02
 -9.6403748e-01
  1.1339483e-01
  1.8664221e-01
  3.2724747e-01
 -7.9775698e-02
  7.0550025e-02
 -2.2990666e-01
 -3.9028531e-01
  2.0980063e-01
 -2.0905895e-02
 -2.3688499e-02
 -6.0119610e-02
  5.1346887e-02
 -4.1732930e-02
 -7.0479251e-02
 -2.2398451e-02
  4.0065619e-01
 -5.7123154e-01
 -3.8932979e-02
 -3.9372183e-02
  1.0742067e-01
 -3.0444846e-01
  5.7870157e-02
  5.3196084e-01
 -1.9376445e-01
  4.3505309e-03
 -3.6426261e-01
 -2.7961540e-01
  3.4171787e-01
 -9.1184817e-02
 -2.2266099e-01
  5.1783856e-02
  8.6557176e-03
  2.0276748e-01
 -2.1595961e-01
  8.2617022e-02
 -1.9777544e-01
 -9.5703907e-02
 -1.2556446e-01
  1.4679953e-01
 -1.0826310e-01
 -3.9913528e-02
 -2.5423783e-01
 -6.7706682e-02
  1.0454000e-01
  1.1701067e-02
 -3.3045799e-02
 -4.6434484e-02
 -2.1202999e-01
  1.4467102e-01
 -2.2937876e-01
 -3.8684732e-03
  2.0260504e-01
 -3.1376028e-01
  4.7516357e-03
  1.0815627e-01
 -2.1240419e-02
 -4.1323200e-02
  3.8651641e-02
 -1.3857064e-01
 -3.9241049e-01
 -4.1825935e-02
  7.6568313e-02
  1.1390077e-01
  5.7895046e-02
  6.8690211e-02
 -4.4123325e-01
  1.5470514e-01
  2.6416326e-01
 -3.3064466e-02
  2.9951030e-01
  1.1343288e-01
  9.2383385e-02
 -1.6982989e-02
 -8.0198973e-02
 -8.0291234e-02
  1.3976996e-01
 -8.6197101e-02
 -6.8274975e-02
 -8.3006203e-02
 -1.1702180e-02
  2.1210968e-02
 -8.1029885e-02
  8.2711875e-01
 -4.4005267e-02
 -3.0019358e-01
 -1.8958060e-01
  1.7549208e-01
 -2.8082085e-01
  2.6194487e-02
 -2.0845717e-01
 -3.2434732e-01
 -6.6673422e-01
 -2.1814772e-01
  1.5112874e-01
  9.2442269e-03
  2.3761027e-01
 -1.0336713e-01
  3.2408051e-02
  2.8418666e-02
 -1.1494584e-01
  6.7928126e-03
  1.9904195e-01
 -3.5319910e-03
  2.9218462e-01
 -1.6103122e-01
 -2.1437894e-01
  1.1233692e-01
 -5.2206699e-02
  4.5482121e-02
 -8.1840828e-03
  1.3664183e-01
 -1.0304701e-01
  2.0754436e-01
 -7.0840647e-03
  5.0258689e-02
 -8.0028780e-02
 -4.5712009e-02
  1.1631184e+00
  5.0209224e-01
  3.0066782e-01
  7.2499436e-01
 -9.4320357e-01
  3.7135944e-01
 -9.7897567e-02
 -3.4886199e-01
 -9.5641613e-02
 -4.1803765e-01
  9.7972363e-01
  5.9260249e-01
  8.0100305e-02
  7.0558585e-02
 -4.1243631e-01
 -8.0949712e-01
 -1.6650508e-01
 -6.7232870e-02
  7.2687659e-03
 -1.4627557e-01
  4.2968664e-02
  4.9817374e-01
 -3.2372826e-01
 -2.3599179e-01
 -1.0702904e+00
 -8.5235924e-02
 -1.5826510e-01
  2.3121257e-01
  2.5367913e-01
  6.2284422e-01
 -5.7977747e-02
  2.4448106e-01
  1.2389714e-01
 -7.6647237e-02
  1.0775766e+00
  4.1771623e-01
  1.0031301e-01
  9.7026527e-01
  1.4872946e-01
  9.1205135e-02
  1.0204387e-01
 -7.9201229e-02
 -7.0638724e-02
  4.9397933e-01
 -1.1424657e-02
  2.4992865e-02
  7.9513985e-01
  9.5227346e-02
  2.7564975e-02
  3.1464052e-01
 -3.8265863e-01
 -4.3557295e-01
  3.2167116e-01
  8.1529212e-01
 -1.8739197e-01
 -1.2535031e-01
 -1.7180532e-02
 -8.2158941e-01
 -1.1238512e-01
  2.0005530e-01
  5.4178432e-02
 -1.3658477e-01
 -1.4572069e-01
 -1.6990790e-01
 -3.3147428e-02
 -8.2284713e-01
 -9.2128783e-02
  2.3437561e-01
  4.2771387e-01
  7.2303092e-01
  2.4736600e-01
 -2.5001159e-01
  9.0700276e-02
 -5.0355392e-03
 -1.5517371e+00
 -7.4442454e-02
  1.1564327e-01
 -4.0041158e-01
 -1.5355202e-02
  1.2669180e-01
  2.3780321e-01
  1.6123396e-01
  1.2291585e-01
  2.0883432e-02
 -2.7446198e-01
  1.3751452e-01
  2.2124255e-01
 -8.0805093e-02
  1.3037550e+00
 -8.4793054e-02
  2.3377949e-02
  4.5354385e-03
  5.3725666e-01
  1.5930152e-02
  1.8483460e-01
  2.0044026e-01
  5.7810519e-02
 -7.0748729e-01
  7.5642429e-03
 -7.9163715e-02
  2.1521366e+00
  3.0698264e-02
  6.6056661e-02
  3.5076374e-01
 -4.3848120e-02
  1.8873689e-01
  2.8198838e-01
 -2.8209138e-01
  2.6123253e-01
 -5.8327515e-02
  2.3340686e-01
  4.0282062e-01
  5.0649762e-01
  3.3807568e-02
 -4.0028756e-03
  1.4547279e-01
  2.7484536e-02
  6.8639137e-02
  3.7106037e-01
 -1.3470475e-01
 -6.8780351e-01
  6.5340996e-02
  6.5344226e-01
 -8.4259814e-01
  1.6255569e-01
 -1.9645551e-01
 -1.6755444e-01
 -3.0735353e-01
  2.8462112e-01
  7.1253821e-02
 -1.6089219e-01
  6.6154224e-01
  4.5953593e-01
 -9.6599603e-01
 -1.3810146e-01
  7.4065067e-02
  5.3277198e-02
 -7.9702489e-02
 -2.8902140e-01
 -4.8143845e-02
 -1.6433205e-02
  1.0128009e-01
  1.9160357e-01
 -1.0617077e-03
 -5.0957955e-02
  2.1522215e-01
 -1.6259234e-02
  2.2101728e-02
  1.7478421e-01
  7.9888290e-01
 -1.1528555e-01
 -5.1842526e-02
 -3.0649817e-01
  1.6927840e-01
 -2.0402150e-01
  1.3953430e-02
  3.7343860e-01
  1.4708441e-01
  2.7906057e-01
  3.1799145e-02
 -4.3818943e-02
 -1.0732500e-01
 -3.6204323e-01
  7.3839210e-02
 -2.0591889e-02
 -7.9148501e-01
  1.0586965e-01
 -5.2235987e-02
  1.1278377e-01
 -1.9837383e-02
 -8.4168687e-02
  1.6051286e-01
 -9.9876724e-02
 -1.9864854e-01
  3.3401012e-01
 -3.5098779e-01
 -3.4253675e-02
  4.5702200e-02
 -7.2681211e-02
 -9.6865401e-02
 -6.9299227e-01
  4.6100250e-01
  1.5878843e-01
 -2.7253744e-01
  3.1383592e-01
  1.9919237e-02
 -1.0813211e-01
 -3.5200432e-02
  8.1245162e-02
  3.5531723e-01
 -3.6584429e-02
 -7.5048357e-01
 -7.9329014e-02
  1.2347223e+00
  5.1529221e-02
 -1.7742928e-02
  1.8541303e-02
 -1.4294249e-01
  3.1620369e-03
  8.6573763e-03
 -2.5158548e-01
  1.6298811e-01
 -2.2117338e-01
  1.3920926e-01
  1.0951283e-01
 -2.7038735e-01
  8.6059228e-02
 -5.2272290e-01
 -7.3991157e-03
 -9.8573238e-02
 -1.4346972e-01
 -3.0492833e-03
  4.1315045e-02
  4.4368181e-02
  3.7917328e-01
  3.4701809e-01
 -4.0194267e-01
  5.8195363e-03
 -1.3451690e-03
  2.3348321e-01
  1.6160238e-01
  2.4112938e-01
 -3.3079112e-01
 -3.4635508e-01
 -4.0250987e-01
 -2.3133679e-01
 -2.0041713e-01
 -1.0278340e-01
  8.5234851e-02
 -6.2440597e-03
  1.3676199e-01
 -1.5245989e-01
 -1.4647132e-01
 -8.8636094e-01
 -1.9900215e+00
  5.0873395e-02
  9.0824440e-02
  1.5719494e-02
 -1.6013174e-01
  6.9742270e-02
  9.3054846e-02
 -6.0549444e-01
  2.4253413e-02
 -1.2015322e-01
 -6.5436035e-02
 -1.6574788e-01
 -1.7885327e-02
 -3.6545420e-01
  4.4672254e-01
 -8.0584621e-01
  1.9150348e-01
 -4.3521520e-02
  4.0821287e-01
  2.3880919e-02
  3.5759304e-02
 -1.4516805e+00
  8.7338156e-01
 -4.8061706e-02
  1.3667005e-01
  3.6288345e-01
 -3.7248996e-01
 -1.4794822e-01
 -1.4481917e-01
  1.2450971e-01
 -9.2607659e-01
  7.0471093e-03
 -1.0439410e+00
 -1.2730309e+00
 -1.9607222e-02
  1.1905862e-01
 -3.8994774e-01
  1.2174762e-01
  1.7155312e-01
  8.2894936e-03
 -8.1245440e-01
  1.9264357e-02
 -4.4652826e-01
  4.6657711e-02
 -4.8160121e-01
  8.8209337e-01
  3.2480443e-03
  5.2863044e-01
 -9.2962988e-02
 -2.2850958e-01
  5.4938328e-01
 -3.1064898e-02
 -4.7288212e-01
  1.8892162e-02
 -8.4445524e-01
 -6.0039345e-02
 -4.3793488e-02
  1.2483967e-01
 -8.8434674e-02
  3.7435424e-02
  6.9223434e-02
 -1.4058934e-01
 -7.5795197e-01
  1.3362256e-01
 -1.8806785e-01
  2.6282260e-01
 -3.2400970e+00
 -6.9345601e-02
  5.5336583e-02
  7.5006855e-01
 -2.5922221e-01
 -1.2379336e-02
  8.2922733e-01
 -1.7418154e-01
  1.0139179e-01
  1.1833426e+00
  2.5853789e-01
 -8.1503771e-02
  2.5478867e-01
 -6.9311805e-02
 -3.7873867e-01
  8.4551284e-03
  7.6171970e-01
  3.5868514e-01
  1.6744386e-01
  2.0959704e-01
  7.5625703e-02
 -6.9550395e-01
  6.7095175e-02
 -1.3296419e-01
 -2.2710985e-01
 -3.4553522e-01
 -2.8309721e-01
  3.7294170e-01
  6.0502028e-01
  2.4330632e-01
  3.3816463e-01
 -2.5946867e-01
 -3.3020622e-01
  4.6565052e-02
 -6.8449415e-02
  4.8069358e-01
 -4.5336308e-03
  4.1422269e-01
 -4.5499083e-02
 -3.6735190e-03
  6.3612038e-01
  1.9751132e+00
 -2.5537679e-01
 -1.5257645e-02
 -4.9606064e-01
  7.4304515e-01
 -1.4327925e+00
 -7.3106480e-01
 -2.2328083e-01
  6.1108106e-01
  3.0737021e+00
  1.1569330e-02
 -3.7336132e-01
  1.6052388e-01
  1.7250642e-02
 -9.2301415e-03
  2.1504223e-01
 -1.7740861e+00
 -8.9466572e-01
 -3.4287038e-01
  1.5481132e-02
  1.4179084e-02
  4.8602428e-02
  1.2104927e-01
  8.3775562e-01
 -4.7696106e-02
  2.4800943e-02
 -2.5552937e-01
 -5.9715569e-01
  3.5745206e-01
  5.9218019e-01
  7.1236390e-01
 -2.4637263e-01
 -2.9600090e-01
  7.1903580e-01
  1.2399037e+00
  7.3182643e-03
  3.0024016e-01
 -4.1823703e-01
 -4.6583256e-01
 -3.0609719e-02
  3.5330194e-01
  8.8354059e-02
 -6.6703099e-01
 -7.1204640e-02
 -3.3131257e-01
 -2.1518746e-01
 -2.3404579e+00
  4.0803045e-01
  8.7879479e-01
  2.8910117e+00
  1.1761153e-01
  3.5361353e-01
 -7.9172313e-01
  4.9295986e-01
 -3.1294368e-02
  1.6504161e-01
  3.4017514e-02
  5.8043104e-02
  2.8578794e-01
  4.5149124e-01
  4.1319910e-01
  4.8126826e-01
  8.1335701e-02
 -7.0105118e-01
  2.0531860e-01
  5.9987254e-02
 -5.6426033e-02
 -1.2096397e-01
 -9.7255492e-01
  1.4452016e+00
  3.0935156e-01
 -2.3086770e-02
 -8.8302024e-02
  2.9811460e-01
  2.0901971e-01
 -1.5841714e-01
  4.1730903e-02
 -4.6562868e-01
 -2.0848510e+00
  1.7514677e-01
 -3.1867812e+00
  1.3010731e-01
  1.5845604e-01
 -9.3953600e-03
  6.4465940e-02
 -5.0526416e-01
  2.8220761e-01
  7.9852261e-02
 -2.7097225e-01
  1.2256118e-01
  6.8936005e-02
  2.9443142e-01
 -3.2754198e-02
 -4.0276162e-03
  1.6952361e-01
 -3.8454890e-02
  1.3526813e+00
 -1.7634714e-02
  1.8769926e-01
 -1.2901612e-01
 -1.8984981e-01
 -1.2548437e+00
  8.9980513e-02
 -4.6481948e-02
  1.7214661e+00
  6.0913736e-01
 -9.5376655e-02
 -1.6718965e+00
  2.5409973e-01
  1.8160374e-01
 -1.8444189e-01
  7.5071949e-01
 -3.2723211e-03
 -2.2220060e-02
 -2.0460346e-01
  4.7094056e-01
  8.9653119e-02
  1.1664120e-02
 -1.0626208e-01
  2.5594421e-02
  5.3798038e-01
 -4.5139324e-02
  2.1003336e-01
  1.1561381e+00
 -3.8275328e-02
  2.2785571e-01
 -9.9090422e-03
 -1.0547294e-01
  4.2934604e-03
 -1.1257682e-01
 -2.1855554e-01
 -3.2187417e-01
 -3.2202899e-02
 -3.5525061e-02
  5.8261883e-02
  1.4060403e+00
 -3.3844486e-02
 -1.0638251e-01
 -1.4326462e-01
  2.1388152e-01
 -1.8375030e-01
 -6.6923216e-02
  3.3002207e-01
  3.8877270e-01
  1.6344917e-01
  4.6683645e-01
 -1.0517383e-01
  7.9678439e-02
 -1.4339961e-01
  3.1839284e-01
 -1.4787076e-01
 -2.3334548e-01
  9.2574912e-01
  2.5427493e-01
 -2.4170291e-01
  2.7661225e-01
 -5.6742657e-02
 -2.9387867e-01
  1.4905095e-02
  3.5883244e-02
  8.1252612e-02
  5.7723868e-01
  2.5102839e-02
 -4.9806207e-02
 -6.2169313e-01
 -1.5733047e-01
  7.1505539e-02
  7.3998116e-02
  3.7236768e-01
 -8.8709824e-02
  9.8396659e-02
  1.7560293e-01
 -3.9514822e-01
 -2.6426503e-01
  7.9933590e-01
 -1.2692790e-01
 -1.3178238e-01
 -1.7560409e-02
  2.0252489e-01
  4.8097542e-01
 -1.0895184e-01
 -1.2053359e-01
 -1.1991087e-01
  2.5368893e-01
 -1.2384574e-02
  1.2785764e-01
  1.4143415e-02
  1.2535512e-01
 -9.9401957e-01
 -8.5447937e-02
 -3.7782852e-02
  1.2279891e-01
 -4.2281237e-01
 -1.2614819e-01
 -1.7531103e-01
  2.9872984e-02
  3.9672396e-01
 -9.5568329e-02
 -1.6987942e-02
  7.5967791e-03
 -3.9687149e-02
 -1.8177061e-01
 -1.3167202e-01
  9.3320422e-03
  1.2742068e-01
  1.6474325e-02
 -3.1306401e-02
  3.5136256e-01
 -1.3379215e-01
 -2.0884827e-01
  1.7194110e-01
 -7.6408170e-02
 -1.4888489e-01
 -5.3969722e-02
  1.6141094e-01
  1.1435239e-01
  4.1921460e-04
  9.8070490e-01
 -8.5708231e-02
  1.9199836e-01
  1.7487256e-01
  1.2544085e-02
 -2.3791537e-01
 -3.5846823e-01
 -5.0341123e-01
  2.7520630e-01
 -1.5346904e-01
 -3.4884904e-02
 -2.1752249e-01
 -1.1062132e-01
  1.7237538e-02
  1.6291432e-01
 -5.3468078e-02
 -7.6170318e-02
 -2.0317653e-01
 -3.7345532e-01
  6.3588101e-01
  2.9071195e-02
  8.7481685e-02
  2.0810182e-01
 -7.3653564e-02
 -2.6005741e-02
  4.3168226e-01
  8.2469994e-01
  1.2266233e-01
  1.9566384e-01
 -1.0899940e-01
 -2.7837858e-01
 -7.3508956e-02
 -1.3066947e-01
 -2.6098630e-01
 -7.2397768e-02
 -1.0245342e-01
  1.5733023e-01
 -8.1643865e-02
  2.4090010e-01
  1.0063855e-01
  1.7936344e+00
  2.1436992e-03
  1.3949800e+00
  1.0641563e-01
  2.1032515e+00
 -9.1936074e-02
 -7.4369855e-02
  3.5530470e-02
  1.3907741e-01
  1.3857120e-01
 -1.8309289e-01
  2.7019861e-01
  1.2847352e-01
  2.9729089e-01
 -1.0260682e-01
  3.7191316e-02
  2.5529000e-01
  1.4013699e-01
  1.2077513e+00
 -2.9106719e-02
 -1.1148469e+00
  5.4905933e-01
 -3.0071178e-02
 -1.3944289e-02
  8.0201350e-02
 -3.9131176e-03
 -6.3940153e-02
  7.7177800e-02
 -5.9501223e-02
 -5.1321819e-02
  3.5993883e-01
  5.2536315e-01
  6.7122569e-03
 -3.2719737e-01
 -1.1400290e-01
  4.8358232e-01
  3.3747628e-01
 -1.0179155e-01
  5.4288214e-01
 -4.5461002e-01
 -3.0532265e-02
 -9.3296987e-01
 -1.4926708e-01
 -2.5991559e-01
  1.1147510e-01
 -6.2091064e-01
  2.9255581e-01
  3.2525250e-01
  7.6783717e-02
 -2.4165347e-01
  5.6953881e-02
 -4.5196527e-01
 -9.7380757e-02
 -2.4217332e-02
 -9.4272278e-02
  1.1867013e-02
  1.1787291e+00
 -3.5743192e-02
  1.9828360e-01
  2.6609393e-02
  8.4074932e-01
  3.9557755e-01
 -1.5147357e-01
 -6.1236739e-01
  8.5576689e-01
 -7.1512026e-01
  5.1809764e-01
  2.7494502e-01
 -1.9128898e-01
  5.5719070e-02
  6.4883620e-01
 -4.0207872e-01
  4.4780126e-01
  7.3081106e-02
 -2.3793053e-02
 -1.1567664e+00
  1.6100745e-01
  2.1576008e-01
  1.6434993e-01
 -9.4030440e-02
  2.3716472e-01
  2.8411502e-01
 -2.3882048e-01
  2.4644615e-01
 -4.5136404e-01
  1.2986374e-01
 -1.7978299e-01
  1.3015787e-01
 -3.1056821e-01
  5.9572481e-02
 -1.8333010e-01
 -9.0085357e-02
  3.6777323e-01
  1.4380465e-01
 -4.7732282e-01
 -3.5100017e-02
 -2.9265949e-01
  3.2256767e-01
  2.3560813e-01
  1.0545558e-01
  7.4142873e-02
 -2.4591742e-02
 -1.1622910e-01
 -5.9443188e-01
 -7.4680969e-02
  2.1403473e-02
  6.6397421e-02
 -1.9594154e-01
 -4.4912705e-01
 -5.4799020e-01
 -4.0157963e-02
 -1.4869377e-01
  8.0688560e-01
  2.9193801e-01
  5.4327130e-01
  4.4420472e-01
 -5.7361126e-01
 -1.5321562e-01
  5.4218289e-02
  3.2293344e-01
 -1.0967624e-01
  3.6146003e-03
 -6.5448314e-01
  4.2076641e-01
  4.7285810e-01
 -1.3385488e-01
  3.1997973e-01
 -8.2601145e-02
  6.4214401e-02
  1.4168850e-01
 -2.7942201e-01
 -4.1555576e-03
 -1.1437140e-01
 -1.4398751e-01
  4.0938597e-02
 -1.0041175e+00
  4.3546937e-02
  8.7207764e-02
  1.6068633e-01
  8.8659987e-02
 -6.9007486e-02
 -1.3843925e-02
 -7.2548532e-01
 -1.0834876e-01
 -4.1180968e-01
 -1.0598536e-01
 -1.0559676e+00
 -6.1271954e-01
  1.0102145e-01
  1.5471871e-02
  6.2482446e-02
  2.0037149e-01
  2.5376517e-01
 -1.3120960e-02
  1.3542293e-01
  4.1781075e-02
  1.5068835e-01
  3.4797180e-01
 -2.3009622e-01
  2.2133499e-02
  2.5526577e-01
  4.1661784e-01
 -6.8056067e-03
 -1.3987741e-01
 -3.2604811e-01
 -4.6881996e-02
  3.9933056e-02
 -2.2625910e-01
 -6.6054918e-02
  4.7036207e-01
  1.2025654e-01
 -6.7903064e-02
  8.4363045e-03
 -1.2216534e-01
 -3.5185704e-01
  1.2491827e-01
 -4.3887997e-01
  3.3872733e-01
 -1.7267051e-01
  2.8459185e-01
 -1.3374339e-01
 -3.0093732e-01
  9.8329008e-02
  7.1025300e-01
 -3.2698607e-01
 -3.3681761e-02
  4.7924215e-01
 -1.2427139e-01
  7.5246707e-02
 -5.3416904e-02
  3.9682485e-02
 -6.3492638e-01
 -7.2442718e-02
 -6.2069690e-01
 -5.5956408e-02
 -1.8139504e-01
 -4.8964816e-01
  1.0442211e-02
  3.3923557e-01
  3.5906999e-04
 -9.7171777e-01
 -2.9458028e-01
  3.5691570e-02
 -5.4992475e-02
  4.9834885e-03
 -6.3510671e-02
 -8.2318515e-02
 -2.5083351e-01
 -4.3243629e-01
  4.6695516e-01
  4.9149865e-01
 -3.9403725e-02
 -5.9884173e-01
 -1.9281048e-01
 -2.0111166e-01
  1.3483070e-02
 -2.1073392e-03
 -3.1531823e-01
  5.1672035e-01
  3.4517014e-01
  1.1073415e-01
 -1.6978753e-01
 -1.5629439e-01
 -2.6488608e-01
  1.0998607e-01
  9.0386942e-02
  2.3275879e-01
  3.7718937e-02
  4.4253029e-02
  7.9926759e-02
  2.2791889e-03
  2.9452136e-01
  2.0921321e-01
  8.2666412e-02
 -1.2131098e-01
  5.0518185e-01
  2.4334776e-01
 -1.1674056e-01
  1.0699744e-02
 -2.1112441e-01
 -1.2205703e-01
  9.6508950e-02
  4.8083016e-01
  7.4601650e-01
  6.4602487e-02
 -2.4364637e-01
  5.1881140e-03
 -2.2600093e-01
  2.5434026e-01
  2.3957524e-01
  2.2917370e-01
 -1.6079828e-01
  1.5657890e-01
 -9.8269403e-01
  1.4673926e-01
  5.7360381e-02
  2.6673469e-01
 -1.8349583e-01
  1.9139708e+00
 -2.1181186e-01
  2.1053603e-01
  2.2678521e-01
  6.0126579e-01
 -1.8790951e-01
 -1.6263616e-01
 -1.7492028e-02
 -1.7107058e-01
 -1.4126542e-01
  6.6836500e-01
 -1.3926262e-01
 -6.2104948e-02
 -1.7501397e-01
 -1.4012649e+00
 -8.7015741e-02
  1.5335853e-01
  4.4490802e-03
  1.1385211e+00
 -3.3018878e-01
  7.1899258e-02
 -1.6865633e-01
  2.6012009e-01
  3.8253702e-02
  2.1271925e-01
 -9.3358360e-02
  2.9342139e-01
 -1.2928687e-02
 -2.5841591e-01
  2.3238757e-01
 -9.1057643e-02
  6.4623535e-01
  3.4312636e-01
  4.6885636e-01
  9.4888359e-02
  4.7809902e-01
 -2.0135875e-01
  6.0505275e-02
  8.2304381e-02
 -7.1465969e-01
  3.5851818e-01
 -1.4850518e-01
 -2.7266830e-01
 -2.6268879e-01
 -4.1938595e-02
 -2.5942129e-01
 -1.1497823e+00
 -9.9723423e-01
  2.3267598e-01
  2.8766692e-01
 -2.6816595e-02
 -4.8729524e-01
 -6.9445878e-01
 -8.9360312e-02
 -4.1462085e-01
 -1.0777622e-01
  3.8434851e-01
 -3.2684371e-01
 -4.3006933e-01
 -1.2344901e-02
  5.9939042e-02
  1.7881857e-02
  5.5929206e-02
 -1.0022155e+00
 -2.6345914e-03
 -4.9424574e-01
 -9.8580092e-01
  2.6942810e-01
  1.0891508e+00
  8.6372721e-01
  7.1710593e-01
 -1.2218999e+00
 -5.2678013e-01
 -1.6652420e+00
 -8.2393266e-02
  5.6251502e-01
  1.3867874e+00
  3.2297918e-01
 -1.4819807e+00
 -1.4001098e-01
 -2.4980125e+00
 -1.9252751e-02
  8.3439565e-01
  1.1662102e+00
 -2.4082868e-01
 -1.5009117e+00
  2.0244424e-01
 -2.1490371e+00
  3.2705671e-01
 -5.4431289e-02
  2.9576370e-01
  2.5557321e-01
 -1.2461747e+00
  1.2771580e-03
 -7.5337207e-01
  1.6953429e-02
 -1.0869008e-01
  5.6092542e-01
  9.8015092e-02
  7.7006131e-01
  7.9859093e-02
 -7.6954955e-01
  2.4355029e-01
 -3.3750039e-01
  2.2758104e-01
  5.7941586e-02
 -7.5856797e-02
 -6.7032468e-01
  3.4442272e-02
  8.0176249e-02
  6.2886786e-01
  6.9931680e-01
 -7.4705817e-02
  3.1763364e-02
  1.0174572e-01
 -1.2802681e-01
 -3.6850071e-01
 -2.5811268e-02
  1.4371431e-01
 -2.4918206e-01
  1.3386543e-01
 -9.4435789e-02
 -9.8374508e-02
  5.9610859e-02
 -3.5715875e-01
 -5.2938932e-01
  1.7398591e-01
  4.7388488e-01
  8.4619649e-02
  9.4734713e-02
 -1.0649646e-01
  1.7791245e-02
 -2.3998562e-01
  2.7026546e-01
  2.2825705e-02
  1.1411073e-02
  1.5548916e-01
  5.6921303e-01
 -1.5350546e-01
  5.5005714e-02
  1.4560892e-01
 -4.7707269e-01
  2.3196515e-01
 -5.0932448e-04
 -4.6783286e-01
 -2.3429208e-01
 -2.2984645e-01
  2.2789384e-01
  9.0388590e-01
  6.4492002e-02
 -5.8559749e-02
 -1.8803212e-01
  6.7303166e-02
 -1.4785650e-01
  1.0293142e-01
 -3.3360028e-01
 -3.8590950e-01
  2.0822560e-02
 -2.9752442e-01
 -6.9303818e-02
 -1.0072379e-01
 -9.7653233e-02
  2.6655868e-02
  1.5197772e-01
  5.2346379e-02
  3.0957520e-01
  3.5837618e-01
  2.7884167e-01
  9.6885778e-02
  1.5802231e-01
 -2.1236432e+00
  7.8904796e-01
 -1.0675480e+00
  3.8521774e-02
  5.4884815e-01
 -7.2084516e-01
 -6.6724437e-01
 -3.5102259e-02
  5.0136411e-01
 -9.9431779e-03
 -1.5074478e-01
  5.2219248e-01
  1.0125385e-01
 -8.0272086e-02
 -6.7126200e-02
  1.1940641e-01
  1.3735475e-01
 -2.7678743e-01
  5.1616322e-02
  1.6185804e-01
  3.1547955e-01
  4.0203846e-01
  6.9650146e-03
  3.3214056e-01
 -9.9457920e-02
  1.2317345e-01
  6.9350675e-02
 -4.8900053e-01
  4.6751630e-01
 -1.4670335e-02
 -2.8237143e-01
  6.0305357e-01
  1.1566618e-01
 -1.6265538e-01
 -5.8088608e-02
 -1.9298912e+00
  5.6013558e-02
 -1.9687219e-03
 -6.0121544e-02
  1.0023990e-01
 -6.7381300e-02
 -2.8892186e-02
  1.0429189e+00
  8.1142157e-02
  1.6082241e-01
 -2.9715711e-01
 -8.1768014e-02
  1.5436903e-01
 -1.9044296e-01
  6.7045718e-02
  5.3587610e-01
 -1.7678146e-01
  2.6512983e-01
  6.0618680e-04
 -2.1939522e-02
  1.5387957e-01
  2.2318847e-01
  2.2434084e-02
  4.2041630e-01
  1.4235485e-01
  2.0783654e-01
  1.5423565e-01
 -1.3218924e-01
 -1.7183298e-01
  1.4196405e-01
 -5.0747502e-01
  1.3491175e-01
 -1.2966157e-01
  8.7481044e-02
 -7.0259221e-02
  1.7408939e-01
  2.0384814e-01
 -5.4465324e-01
  2.0537883e-01
  1.3542087e-01
  4.3901976e-02
  2.1557571e-01
  5.3510028e-01
 -5.6322432e-01
  1.4541529e-01
  1.2153444e-01
 -3.0240566e-01
  6.3068771e-01
  5.1314968e-01
 -3.7329957e-01
 -2.0563683e-01
 -4.4521842e-02
 -3.0120177e-02
 -4.4560438e-01
  8.9926504e-02
  3.0864215e-01
 -1.9153601e-01
  8.2327187e-02
 -9.6363634e-02
  2.2601992e-01
 -3.4495702e-01
 -2.1026821e-01
  9.1687497e-03
  1.2199717e-01
  1.7188375e-01
  4.6520910e-01
  2.7839888e-02
 -5.8307856e-02
  2.1468120e-02
  4.9671757e-01
  2.1390228e-02
  9.3653090e-02
  4.1808382e-01
  5.4500753e-01
 -1.4344822e-01
  9.6427649e-01
 -3.9302427e-01
  2.4845548e-01
  3.3881283e-01
  2.9915931e+00
  2.1480536e-01
  7.0761192e-01
  2.9625651e-01
  1.0821120e+00
  8.5471010e-01
  2.5183970e-01
  1.0271895e+00
 -9.6104014e-01
  9.7885042e-02
  9.2870778e-01
 -1.4725909e-01
  1.0227008e+00
  2.6692975e-01
 -4.0315228e+00
 -4.4971997e-01
  2.3284576e+00
  3.0422607e-01
 -4.3288410e-01
 -1.2650949e-02
  2.4249947e-01
 -6.5514475e-01
  2.5321394e-02
  1.1228828e-01
  1.3308861e+00
 -2.2428775e+00
 -1.4732445e+00
 -2.6703885e-01
 -1.2432970e+00
 -1.9898567e-01
  9.3293615e-02
 -2.3397356e-01
 -3.3834356e-01
 -2.9917261e-01
  6.9547050e-02
 -6.6565835e-01
 -2.7670699e-01
 -4.3674129e-01
 -1.9095439e-01
  9.8065442e-01
  2.6639295e-01
  1.4675549e-01
 -2.0707789e-01
 -2.0267288e-01
  5.4466313e-01
 -6.2165167e-02
 -1.7841688e-01
 -4.7178474e-01
  5.2044326e-01
 -2.7675238e-01
 -6.7595989e-02
  4.1288304e-01
  1.0860906e+00
  1.2279838e-02
  3.8063530e-02
  2.5479147e-01
  2.5520930e+00
 -8.6975954e-02
 -9.7689919e-02
  3.8290482e-03
  1.1967059e+00
  7.3598695e-01
  2.4959834e-01
 -1.0238684e-01
 -9.2644349e-02
 -6.0895372e-02
 -1.0142660e-01
  1.3327461e-01
 -7.0989996e-02
 -1.3148831e+00
 -6.1592318e-02
  1.5839700e-01
 -8.1052011e-01
  9.1807812e-02
 -4.0110764e-01
 -6.0149651e-02
  7.8387958e-01
 -2.9402124e-02
  1.0032388e+00
  1.6357806e+00
  2.9647233e-02
  5.4418755e-01
  4.6185079e-01
  2.1692924e+00
 -1.3451897e+00
  2.2804215e+00
  1.2040111e+00
 -1.5884140e-01
 -1.8579023e-01
  4.1949317e-01
 -6.5631799e-02
  2.5667214e+00
  7.4292284e-01
 -3.4763563e+00
 -6.3765508e-01
  3.0531373e+00
  9.8480262e-02
 -1.9265640e+00
  2.6935899e+00
  1.8604367e+00
 -1.7498251e+00
  1.2936802e-01
 -4.7198641e-01
  1.1162720e+00
  7.0016283e-01
  1.3079592e+00
  6.4194793e-01
  1.9219621e-01
 -1.4019050e-01
 -9.1867650e-01
 -1.2147175e-01
  3.7478632e-01
 -3.9975321e-01
 -4.1026059e-01
  9.8270267e-01
  5.6699002e-01
 -7.8541875e-02
  1.7363836e-01
 -3.6032271e-01
 -9.7972915e-02
  1.1983584e+00
  2.2440872e-01
 -9.1450922e-02
 -5.9039211e-01
  1.0357199e-02
  2.4161117e-02
  4.4563332e-01
  1.4057090e+00
 -5.3663349e-01
  1.0383653e-01
 -5.1691610e-01
 -3.8573682e-01
 -7.8714877e-02
  1.0329256e+00
  1.1598686e-02
  7.0525527e-01
 -3.3520252e-01
 -1.3973624e+00
  1.4950788e-01
 -1.7388819e-01
  1.6955074e+00
  1.3287952e-02
  6.5160543e-01
 -5.4299581e-01
  1.3389419e-01
  7.9448067e-02
  1.7704232e-01
  2.4643189e-01
 -1.1569109e+00
 -7.4982220e-01
 -6.5230602e-01
  1.6471954e-01
  4.0217713e-02
 -4.9452791e-01
  1.1564255e+00
  7.6932061e-01
  8.5483760e-01
  3.5081479e-01
 -2.0447016e+00
  1.2231377e-02
  1.1704443e+00
 -2.2630435e-01
 -1.5774531e+00
 -1.2421148e+00
  7.2334647e-02
  1.4249974e+00
  1.9062248e-01
 -7.7602524e-01
  4.1286507e-01
  2.8835618e-01
  5.6715167e-01
  1.3897683e-01
  2.9763635e-03
 -2.2385778e-01
  1.4197537e-01
  3.6077529e-02
  1.8964337e+00
  2.8735727e-01
 -1.3390721e-01
 -7.4676287e-01
  5.0296402e-01
  1.1774557e-01
  4.0845081e-02
 -4.9384338e-01
 -9.1858763e-01
  3.6360574e-01
 -6.4549035e-01
  4.8566155e-02
 -1.9397660e-01
  1.2448693e-02
 -1.9164012e-01
 -7.8001563e-03
  1.4907056e-01
 -4.5961883e-02
  7.7043998e-01
  1.4673064e-02
  1.1626244e-01
  5.9291530e-01
 -4.0962487e-01
  1.1166838e-01
  5.6891322e-01
 -9.4872486e-04
  4.7347569e-01
  1.4658807e-01
  4.0409547e-01
  2.4101934e-03
  4.8780006e-01
  4.9991998e-01
  2.7386978e-01
 -2.9707924e-02
 -6.5861538e-02
  5.9161842e-01
 -1.3005836e-01
 -1.3944335e-01
  7.7579665e-01
  6.6909599e-01
  4.2526931e-01
  5.4169044e-02
 -4.3752294e-02
  6.3791144e-01
  1.7459378e-01
 -9.6770100e-02
  1.5386774e-01
  3.6732841e-01
 -1.9330248e-01
  1.4132918e-01
  8.5107170e-02
 -2.6759282e-01
 -1.6679120e+00
 -3.3885205e-01
  2.6579127e-02
  1.6287710e-01
 -4.9410695e-01
 -3.6862232e-02
  8.4609830e-01
 -3.7985390e-01
  1.0273088e-03
  4.4132254e-01
  1.5754987e-01
 -4.1840327e-01
  3.6554357e-01
 -4.5619924e-02
 -2.4199094e-01
  5.9931062e-02
  1.9994678e-02
 -5.2249327e-02
  3.5246181e-01
 -6.3313591e-01
 -5.5649853e-01
 -8.6830467e-01
 -4.2626208e-01
 -1.8456101e-02
 -1.8181035e-02
  5.2940577e-01
 -1.1290246e-01
 -2.5100017e-01
 -3.7013400e-01
  1.8502198e-01
  4.3001109e-01
 -2.8284866e-01
 -1.9662656e-01
  2.8622797e-01
 -4.7208466e-02
 -8.9669980e-02
 -5.8132600e-02
  2.6099306e-01
  2.4900725e-01
 -2.4198426e-01
 -1.1929067e-02
  2.1854706e-01
 -4.1682687e-02
 -2.9967522e-02
 -4.5261681e-01
  3.2686332e-01
  9.2413396e-02
 -3.3696070e-02
  2.3261212e-01
  1.9740856e-01
 -6.8007582e-03
 -6.3650228e-02
 -8.5815273e-02
  4.5277628e-01
 -9.1970816e-02
 -1.7052148e-01
 -1.2689272e-01
 -1.5388891e-01
 -7.1614556e-02
  3.0965954e-01
  6.5383479e-02
  8.1565663e-02
  2.8099300e-02
 -5.0446099e-01
  2.6855126e-01
 -2.1791160e-01
  3.6122832e-02
  5.3169870e-01
  7.7302836e-02
  3.9621362e-01
  1.6506175e-02
 -1.7492574e-01
  3.2997718e-01
  2.1871237e-01
  1.0024207e-02
 -2.2869092e-01
 -3.6975822e-01
 -4.1220754e-01
 -4.0561780e-02
 -1.5163543e+00
  8.8751143e-01
  1.6235795e+00
 -1.4914927e-01
 -2.0279531e+00
 -2.3843661e-01
  1.3394626e+00
  1.4738263e-01
 -2.4835435e-01
  2.1292649e-02
  1.6297837e-01
  2.5897330e-01
 -1.8792431e-01
 -1.8156696e-03
  7.2978608e-02
  1.1233094e-01
 -7.0192122e-01
  8.7131798e-02
  3.5300133e-01
 -1.1545563e-01
  3.7364709e-01
  1.9153360e-02
 -1.6165659e+00
  7.3955154e-01
  3.1880949e-02
  1.2384921e-01
  7.3994175e-02
 -3.5049893e-02
  1.8596242e-01
 -2.3693210e-02
  1.4232973e+00
 -8.0849886e-02
 -8.8984787e-01
 -3.0960772e-02
 -2.7993360e-01
  5.0937921e-01
  3.3742422e-01
  1.2639027e+00
 -9.6571758e-02
  3.4188387e-01
  7.9655135e-01
 -5.7338234e-03
 -2.3954903e-01
 -2.1511659e-02
 -3.0254799e-01
  8.2229180e-03
 -1.5184723e-02
 -2.3057310e-01
  6.8744406e-02
  5.4214972e-01
 -1.8526293e-01
  6.3507462e-01
  3.2616782e-01
  2.1273104e-02
  3.1670686e-02
 -3.1467251e-02
 -1.4285080e-01
  5.7668835e-02
 -5.1355398e-01
 -4.8496345e-01
 -2.5404516e-01
  1.1435822e+00
  3.0331579e-01
 -2.0534477e-01
 -7.4612767e-02
 -1.0574938e-01
  5.4020745e-01
 -1.1950561e-01
  1.4157675e-01
 -3.9224714e-02
 -8.7926053e-02
 -9.3746983e-02
 -1.2890756e-01
 -9.8687373e-02
  2.8333899e-03
  7.1336463e-02
 -3.0879840e-01
  9.5385760e-01
  4.7759797e-02
 -1.0389987e+00
  2.0044091e-01
  5.8236784e-01
  9.4216140e-03
 -1.0617482e-01
 -3.1889182e-01
 -6.1566401e-02
  3.6456417e-02
 -9.6583813e-02
 -5.8370885e-02
 -7.0869917e-01
  1.2103936e-01
  5.3871906e-01
 -2.8613186e-01
  4.6033155e-02
 -3.7671429e-01
 -4.7604609e-02
  1.8736587e-01
  6.7333139e-02
 -1.5190366e-01
 -7.3344010e-01
 -1.3484226e-01
  5.9487078e-02
  5.3261068e-02
 -2.2285981e-02
  5.0522394e-02
  5.2381624e-02
  7.6968604e-01
  2.8623572e-01
 -5.2847445e-02
 -4.9771240e-01
  1.4817068e-01
  1.1264925e-01
  1.8315366e-01
  2.9512072e-01
 -7.8156941e-02
 -7.1502016e-03
  1.6920339e-02
 -1.4566233e+00
 -1.3539619e+00
  3.3479354e-01
 -1.5392566e-01
 -1.4597963e-01
  3.6903456e-02
  5.9012145e-01
  1.0417724e-01
  3.9352484e-02
  1.4932932e-02
 -2.4953425e-01
  1.8267527e-02
  1.8290162e-01
  1.5926516e-01
 -1.6914377e-01
 -9.3408525e-02
 -1.6629718e-01
 -3.7014806e-01
  2.8238097e-02
 -7.1920878e-03
  1.8028632e-01
 -7.9104140e-02
 -1.1335165e-02
 -1.8302776e-01
 -4.7898382e-02
 -5.7342112e-01
 -1.5588829e-01
  6.4916140e-03
  7.3740825e-02
 -3.1782929e-02
 -2.1701317e-02
 -1.1621263e-01
  1.3216352e-01
 -6.5006651e-02
  1.0272193e-02
 -3.6961038e-02
  4.4809148e-02
  1.3843270e-01
 -4.3143788e-01
 -5.8121290e-03
 -2.7359921e-02
 -9.3453385e-02
 -7.6378934e-02
 -2.4995780e-02
 -5.3456771e-01
 -3.8271224e-01
 -3.7531269e-01
  8.8941483e-03
 -3.0539507e-01
  3.5301968e-02
  4.8119489e-02
 -1.6105339e-01
 -1.4769641e-01
  9.1091022e-02
  2.5853786e-01
  2.9721705e-02
  3.4287745e-01
 -1.6068929e-01
  9.4726324e-02
 -2.7651763e-01
 -1.7376786e-01
 -3.3648247e-01
  8.5627116e-02
 -3.9679146e-01
 -1.4971340e-01
 -3.2329360e-01
  2.8962333e-02
  1.6699210e-01
 -1.1494977e-01
  2.7035680e-01
  1.9070897e-02
  2.7545893e-01
  1.8564990e-01
  2.5834888e-01
 -6.9403219e-01
  9.2925407e-02
  6.3955449e-02
  1.7480886e-02
  3.7673166e-01
  4.2116649e-02
 -4.8146531e-02
 -2.2901337e-01
  7.9612203e-02
 -4.9744684e-02
  5.7222503e-01
 -1.7103428e-01
  1.5138301e-01
 -1.0485551e+00
  2.0162529e-01
 -3.5013586e-01
  2.7778631e-01
 -1.8305836e-04
  1.2803482e-01
  7.0249206e-01
 -2.6689148e-01
 -3.4831285e-02
 -3.2171476e-01
  3.8056484e-01
 -1.5413561e-01
  2.4065933e-01
  2.7551617e-02
 -8.3056338e-02
  5.1657323e-02
  1.1287255e-01
 -2.0345911e-01
  4.2625237e-01
 -8.8831961e-02
  1.0221479e-01
  1.8212414e-01
 -3.1469783e-01
  2.8038904e-01
 -2.4022421e-01
 -1.5541013e-01
  6.5166906e-02
 -3.2082874e-01
  7.1767300e-02
 -9.1596358e-02
 -5.7496965e-02
 -3.5660625e-01
  6.4322239e-01
 -7.1792144e-01
  1.1835694e-01
  1.2079525e-01
  7.7382013e-02
  7.4664366e-01
 -1.0180929e-01
  2.0214650e-01
 -2.6189430e-02
  4.8974648e-02
 -5.0768816e-01
  9.5367748e-01
  3.1525987e-01
 -3.0974353e-02
  1.1089597e-02
 -1.9610950e-01
  3.0093670e-01
 -1.1477792e-01
 -4.0472362e-02
 -9.7231895e-02
 -2.2775409e-01
  4.2328414e-01
  1.4701465e-01
  1.6740949e-01
 -3.4781671e-01
  7.5546302e-02
 -6.3581057e-02
 -2.5509462e-01
  3.3950068e-02
  6.1414959e-03
 -2.1911740e+00
  1.7037421e-01
  1.5080739e-02
 -3.1513523e-02
 -1.0841168e-02
  1.6447920e-02
  8.1151359e-02
 -7.5287932e-01
  3.0665886e-02
 -4.3821916e-01
 -7.4317537e-02
  6.0767610e-02
  9.1528125e-02
 -2.7440384e-01
 -1.0512325e-02
  1.1568785e-01
  2.0825611e-01
 -4.7729935e-02
 -5.5439895e-01
 -8.2880944e-02
  1.6959025e-02
 -3.6885649e-01
  6.3848957e-02
 -5.4792947e-01
 -7.4495591e-02
 -1.4450900e-01
 -2.4024908e-01
 -9.3473010e-02
  5.6774330e-01
  1.2246360e-01
 -2.3459454e-01
 -8.5049868e-04
 -1.3196239e-01
  4.8368398e-02
 -5.9371084e-02
 -7.7532643e-01
  1.9834256e-01
  5.0241911e-01
  2.4857920e-02
 -1.4005740e-01
  1.7426349e-02
  2.0134047e-01
  3.3516463e-02
 -3.1871489e-01
 -1.5577488e-01
  1.0482101e+00
 -2.8779320e-02
 -6.0704712e-02
  2.7820963e-01
  1.2829101e+00
 -1.8848570e-01
 -7.6629795e-02
  3.8905010e-02
 -2.7947283e-01
  4.9142390e-02
  1.1635014e-01
 -1.3348261e-01
 -1.5422732e-01
  2.8534317e-01
 -3.0312467e-01
  6.1789382e-02
 -1.4958157e-01
 -6.2009200e-02
  8.1955865e-02
  7.5029157e-02
 -6.7009248e-02
 -4.8456930e-02
  6.5686244e-01
  2.5664714e-01
 -2.3342174e-02
 -4.5963987e-03
 -1.2687705e-01
 -3.2898414e-01
 -2.5004983e-01
 -1.7807090e-01
 -1.4563747e-01
  2.1636695e-01
 -4.7268856e-02
  5.0218970e-01
 -1.6699678e-01
  8.1128669e-01
  5.3155847e-02
 -7.0689750e-01
  9.1796769e-03
 -4.0554202e-01
 -1.3476689e+00
  9.5427677e-02
  3.7822872e-01
  3.0079573e-01
 -3.7681049e-01
  3.4287691e-01
  6.0213822e-01
  5.5513542e-02
  9.8465927e-02
  4.0157917e-01
 -2.5424531e-01
  2.0126270e-01
  3.8465890e-01
 -9.9357925e-03
  9.3169129e-01
  1.1586186e-02
  3.1115106e-01
 -5.4996562e-01
  3.7441168e-02
 -8.2224481e-02
 -1.5579058e-01
 -3.7474591e-02
  1.9388855e-01
 -2.5156984e+00
  5.0613040e-01
 -3.0208534e-01
 -1.3920435e-01
  1.0670462e-01
  8.5013640e-01
 -1.5805484e-01
 -3.0905055e-02
  1.5293539e+00
 -8.5749224e-02
  5.3131953e-02
  9.2800692e-02
  2.9641265e-02
  9.0637609e-02
  7.8297541e-02
  3.0012047e-02
  3.3262444e-01
  1.4510852e-01
  6.5513420e-01
  4.0217664e-02
 -8.0084157e-01
 -1.3395156e-01
 -3.0912852e-01
  6.1440393e-02
 -6.8276966e-01
 -2.4400021e-01
 -3.5127094e-01
  1.8151848e-01
  3.8652378e-01
  5.4366387e-02
 -1.7054515e+00
  1.0567161e+00
 -1.2531073e-01
  1.2627167e-01
  1.5456035e+00
 -1.8762812e-01
 -4.5855895e-01
 -6.3731271e-01
  9.2082167e-01
 -2.3637845e-01
 -5.3206438e-01
 -3.1168097e-01
  1.9389446e-01
 -5.1276171e-01
 -4.3745872e-01
  3.2313219e-01
 -1.3584037e+00
  5.3644472e-01
 -2.4819690e-01
 -4.6272385e-01
 -5.1596862e-01
 -8.4819633e-01
  1.0357569e+00
  7.1570688e-01
 -3.2242107e-01
 -3.4781983e-01
 -2.4228646e-01
  1.1294210e-01
  2.7280951e-01
 -1.1961915e-02
 -2.8334621e-01
 -1.7446126e+00
 -6.3726580e-01
  9.9362761e-01
 -1.4260713e+00
  2.4755113e+00
  2.8255686e-01
  1.2690833e-01
  1.9864339e-01
  3.7182674e-01
 -2.0747185e+00
 -1.1598836e+00
  9.8368055e-01
 -5.3425550e-01
 -4.4827074e-02
 -8.7590471e-02
  5.7091620e-02
  7.2119945e-01
 -5.8132610e-03
  1.1325866e+00
 -1.2150510e-01
  8.4119362e-01
  1.1257309e-01
 -2.1202269e-01
 -1.6772240e+00
  1.6032663e-01
  1.9248270e+00
  2.5017110e-01
  1.5430304e-01
  9.0975210e-02
 -1.9618382e-01
 -1.2685578e+00
  6.8654105e-02
  5.9718990e-01
  1.4383575e-01
 -3.8598768e-02
  1.0823710e-03
 -3.4763852e-01
 -6.1453428e-02
  8.1591476e-03
  2.2623320e-01
  7.8249358e-02
 -3.5826439e-01
 -1.7229609e-01
  3.5563728e-01
 -4.0447768e-02
  5.3920126e-01
 -4.3819135e-01
  4.4240287e-01
 -3.0961188e-03
 -7.3446876e-01
  2.3402610e-01
  2.4464254e-01
 -1.1377093e-01
  1.7430902e-02
 -6.2767640e-03
 -2.5458187e-01
  7.9979107e-02
 -1.1378814e-02
  3.5482642e-01
 -7.2577812e-02
  4.9073514e-01
 -9.3074441e-02
 -2.4935326e-01
 -5.6626189e-01
  1.4167260e-01
 -7.7167459e-02
 -1.1680783e-01
  1.1256480e-01
  3.6400029e-01
 -1.9733544e-01
  1.0740762e+00
  7.7663988e-02
 -2.4347818e-01
  2.5515530e-01
 -1.7815468e-01
  4.9884215e-02
 -3.3806354e-01
 -1.8979549e-01
  1.2492706e-01
 -1.9381197e-02
  1.5843198e-02
 -6.3334003e-02
  2.9620796e-02
 -1.2938558e+00
 -2.9271099e-01
 -3.2633923e-02
 -5.5952102e-01
 -2.5083962e-01
 -1.6668147e-01
  2.5641394e-01
  1.2615108e-01
  1.3881540e+00
 -3.2536548e-02
 -4.2620468e-01
 -1.8687129e-01
 -1.7222197e-01
  4.3564191e-01
 -2.3946431e-01
 -9.5218398e-05
  6.3925721e-02
 -8.2896493e-02
  1.1828846e-01
  3.3376324e-01
  1.6456816e-01
 -1.3849409e+00
  7.8515857e-03
  3.3347841e-02
 -1.0145484e+00
  1.2176391e+00
 -1.7343888e-01
  1.7477626e-01
 -1.3597059e+00
 -2.5724852e-01
  4.0774480e-03
 -9.6859530e-02
  5.8520472e-01
  5.2609205e-01
  3.9781284e-01
 -1.0497425e-01
 -8.4718519e-01
 -1.0931354e-01
 -2.7195662e-01
  2.6544029e-02
  4.5461911e-01
  8.9172944e-02
 -3.6253162e-02
 -6.0643531e-02
  5.9879482e-01
  7.5446218e-02
 -6.1406904e-01
  6.7383349e-01
  2.2356939e-02
  5.1527731e-02
 -1.5019543e-01
 -3.3342801e-02
 -4.1259050e-02
 -1.0956835e+00
 -4.0335274e-01
  5.0388432e-01
 -6.1922934e-02
 -3.3757400e-02
 -2.2467040e-01
  9.3810290e-02
 -1.3462651e-01
 -1.2717539e-02
  1.8953212e-02
 -1.6893174e-01
 -2.5322565e-01
  4.6421659e-01
 -1.2491063e-01
  1.0119136e-01
 -1.2538584e-01
  2.8454843e-01
  6.0423940e-02
 -2.3298849e-01
 -7.2331452e-01
  4.8764031e-02
 -4.4584265e-01
 -5.9176772e-03
 -3.2857266e-01
  2.6093143e-01
 -1.2085395e-01
 -7.1463481e-02
  9.5212571e-02
  3.9197385e-02
  2.5616631e-01
 -1.7666708e-01
 -2.5911959e-02
  1.9977571e-01
 -6.4488888e-02
 -2.7517676e-02
  4.1619799e-01
  1.8692663e-01
 -3.3943525e-01
 -9.5714286e-02
 -3.5850531e-01
  1.7979240e-01
 -2.0207389e-01
  2.2830166e-01
  7.5894868e-01
 -7.1536565e-01
 -2.5941676e-01
  2.5750422e-01
 -7.6266789e-01
  5.8502167e-02
 -5.6000326e-02
 -5.2346464e-02
 -9.7577877e-02
 -3.7862545e-01
 -4.3674629e-02
 -4.1123506e-02
 -1.2572397e-01
 -4.7385797e-02
  4.4201162e-02
 -2.1897973e-01
 -1.1998742e-01
 -6.9340551e-01
 -8.0881894e-02
  6.2963396e-02
 -3.8852856e-01
  3.5643178e-01
  6.2389910e-01
 -2.9840758e-02
 -3.0716556e-01
  1.9938144e-01
 -4.9762174e-01
 -2.5931478e-02
 -2.9309466e-01
  5.0102759e-02
  1.5891154e-01
  1.2497392e-01
  1.2786099e-01
 -4.4226485e-01
 -1.7023771e-01
  2.8667174e-02
 -3.0231237e-01
 -4.2047817e-03
  3.4471416e-01
 -1.5559116e-01
  4.8184912e-03
  4.2048670e-02
 -3.8877252e-01
  1.1012898e-01
  3.8224334e-01
  4.3428842e-02
 -6.3032232e-02
 -1.1026167e+00
 -2.5019336e-01
  4.6488013e-02
 -7.0103538e-01
  9.5118858e-02
 -2.1378869e-01
 -2.7727485e-01
  3.7118383e-02
 -2.0330949e-01
 -2.0174038e-01
 -3.0191374e-01
  5.8755457e-02
 -2.2832199e-04
  1.4255551e-01
  3.3633074e-01
  1.3510621e-01
 -5.6981319e-01
  7.8430466e-02
  3.4479707e-02
 -1.3386509e-01
  1.6329345e-01
  3.5882628e-01
  1.6511008e-01
  3.6149186e-01
 -4.5215926e-01
  7.6293208e-02
 -4.8407692e-01
  6.1445091e-02
  2.5619863e-02
 -2.7016592e-01
  1.8510492e-01
 -9.6714665e-04
 -6.4484969e-02
 -8.3078437e-02
 -5.3645756e-02
  1.3375778e-02
 -5.1980406e-01
 -8.6167399e-03
 -3.3945975e-01
 -4.9504314e-02
 -5.5310225e-01
  2.9253805e-01
 -3.1962857e-01
  1.9697332e-01
  3.3767570e-02
  6.1714523e-02
  2.2800373e-01
  8.2296714e-02
  3.4278357e-01
 -1.1674242e-01
  3.4965143e-02
  2.0084502e-01
 -1.8534584e-01
 -1.6724330e-01
 -4.7513977e-02
  1.7649027e+00
 -2.6309699e-01
  2.6556315e+00
  3.6036575e-01
 -8.3303519e-02
  6.5840699e-02
 -7.5719193e-02
 -9.6994363e-02
  2.1210419e-01
 -2.5802189e-01
 -1.0313141e-01
  7.3611043e-02
  1.6625573e-01
  2.9585978e-01
  7.0273972e-01
 -2.9465097e-01
  4.7747111e-01
  1.1514735e-01
 -9.6598223e-02
 -1.8908659e-01
 -1.7601979e-01
  1.9634441e-02
 -6.8820947e-01
 -5.3703284e-01
  3.0918577e-01
  6.8894071e-03
  2.0387089e-03
 -2.3477735e-01
  7.3051177e-02
 -2.6552436e-01
 -5.8776695e-01
 -8.0298729e-02
  1.2589245e+00
  9.4466895e-02
  4.5893031e-01
  6.9892012e-02
 -2.7199209e-01
 -7.6363705e-02
  1.3844721e-01
 -5.6659477e-04
 -8.4736452e-02
 -1.9282517e-01
 -4.4428411e-01
  3.6337227e-01
 -1.5221231e-01
 -2.0723611e-02
  8.1839710e-02
  4.9175534e-01
  2.9223397e-01
  2.2724670e-01
  1.0641082e-01
  1.4348409e-01
 -5.9222292e-02
 -3.0141246e-01
 -2.1582328e-01
 -5.8660823e-01
 -9.8882072e-02
  1.0772269e-02
 -4.5357397e-01
 -5.6208312e-03
 -8.2406867e-03
  2.6299590e-01
  1.2560972e-03
 -1.1257930e-01
 -1.2920188e-02
  4.7489598e-01
  1.9594345e-02
 -1.6228338e-01
  5.9220001e-02
 -1.0952416e-04
 -8.2410580e-01
 -2.6925501e-01
 -1.2652834e-01
 -2.9555092e-02
 -4.3557849e-02
  2.6635239e-01
 -5.9869224e-01
  7.4188995e-01
 -2.6980889e-01
 -2.3660554e-01
  5.4606754e-01
  1.6991863e+00
  2.5026029e-01
 -1.1183081e-01
 -5.0172061e-01
 -3.3627623e-01
  2.9602638e-02
  4.3940008e-01
  2.9322481e-01
 -2.0515090e-01
 -1.8471064e-01
  7.1959472e-01
 -2.7059460e-01
  1.5950455e-01
  1.1519277e-01
 -2.8941226e-01
  1.2728105e-01
 -1.1822173e-01
  3.1139416e-01
 -2.5654325e-02
 -1.2329254e-01
 -4.9437311e-01
 -3.2676477e-02
 -1.0506882e-01
  1.0025217e-01
  3.3879023e-02
 -3.6254689e-01
  3.2103020e-01
 -1.1410828e-01
  6.7534208e-02
 -5.3013551e-01
 -7.7211964e-01
 -2.9875493e-01
 -2.5016325e+00
  3.9485376e-02
 -3.1579781e-01
  1.2120024e-01
  1.0420734e-01
  2.3800068e-01
  1.3002545e-02
  1.3396562e+00
 -1.0602466e-01
 -8.6011820e-02
  7.6854631e-02
 -6.3010091e-01
  1.4530253e-01
 -9.6611428e-01
  9.6726060e-01
 -5.1678711e-01
  3.2265805e-02
  3.9943463e-01
  4.3498391e-01
 -2.6639920e-01
  9.2269547e-02
  1.5458485e-01
  7.4515387e-02
 -1.0195962e-01
 -2.8397119e-01
  1.4732173e-01
 -5.2242693e-03
 -9.9967279e-02
 -7.2915232e-01
  1.0707799e-01
  1.7965591e-01
 -9.9999100e-02
 -5.7869279e-01
 -1.1900099e-01
 -1.9251075e-01
 -5.5311680e-02
  1.5173010e+00
  1.6163337e-01
  7.3847450e-02
  6.8620376e-02
  3.7485483e-01
 -2.7805263e-02
 -5.9088528e-02
  9.2930116e-02
 -5.8328565e-02
  8.1868935e-03
  1.5967286e-01
  8.5077837e-02
 -7.2530627e-02
 -4.7676536e-01
 -9.2016853e-02
  9.5145628e-02
 -3.7938178e-01
 -9.3910210e-02
  1.6880143e-02
 -9.4638266e-02
  1.7181942e-01
 -4.5441024e-02
  2.9614413e-01
 -5.2760720e-01
  2.0563047e-01
 -9.9193782e-04
 -5.4051042e-01
  4.7831166e-01
 -3.1992179e-01
 -8.6828224e-02
 -3.0847225e-02
  1.5124215e-01
 -8.8663369e-02
  3.9363283e-01
 -2.1603914e-01
  5.8551753e-01
 -1.6977963e-01
 -3.5835873e-02
 -2.2670792e-02
  1.1901310e-01
  1.2512615e-01
  3.0623269e-01
  3.4893894e-01
  9.7344398e-02
  2.4555676e-01
  9.7543526e-01
 -2.4100795e-01
  1.8142760e-01
  9.6651157e-03
  1.2411000e-01
  1.4178777e-01
 -2.4280313e-01
  9.2334852e-02
  1.4318210e-01
 -6.5002078e-03
 -6.0023117e-01
  2.9144111e-01
  3.3955646e-01
 -3.5999019e-03
  2.0278450e-02
  5.7606976e-02
 -3.4275371e-01
  1.4672360e-01
  8.1019855e-01
  2.5216526e-01
 -4.6609517e-02
 -5.2509174e-02
  1.8408649e-01
  1.7868231e-01
  3.3913210e-01
  1.1298178e+00
 -1.0654035e-01
  3.5869725e-02
  7.5645924e-01
  2.3368008e-02
  3.4134912e-01
 -2.6538458e-01
  2.1110420e+00
  8.4608763e-02
 -1.0705125e-01
 -2.2157259e-01
 -1.4804401e-01
 -6.2117752e-02
 -2.5085238e-01
 -1.3708407e-01
  3.8345701e-01
  2.5368784e-02
 -1.0245876e-01
 -3.1109890e-01
  4.4128429e-02
  9.6816555e-02
  1.0444075e-01
 -1.9699568e-01
 -9.3725994e-03
  1.6159314e-01
  2.5172013e-01
  1.5473329e-02
 -1.4297705e+00
 -4.1134876e-01
 -5.8456796e-01
  7.5724974e-02
  2.9042578e-01
 -2.4851541e-01
  1.9845197e-01
  8.4191464e-02
 -2.6430205e-01
  3.3389043e-02
 -1.2052561e-01
  2.1259461e-01
 -1.9469996e-01
  2.2189816e-02
 -3.2537214e-02
 -3.3632085e-01
  4.6084300e-01
 -2.6301268e-01
 -1.8877442e-01
  6.0514957e-02
 -2.5413981e-01
  4.0066859e-01
 -2.2101587e-01
 -6.0247415e-01
 -7.8165494e-02
 -7.6130540e-03
 -6.1297573e-02
 -3.3017606e-01
  6.9738507e-02
 -1.1466267e-01
  8.2649773e-01
  6.0471468e-02
  1.1062916e-01
 -2.1870531e-01
  2.8945282e-01
  1.2100280e-01
 -2.8768900e-01
 -3.6974937e-01
 -4.6131007e-02
 -7.4562386e-02
  1.0827903e-01
 -1.2723459e-01
  2.5140524e-02
 -8.7786488e-02
  4.1354367e-01
  4.1459778e-01
 -5.1797736e-01
 -7.9180837e-02
 -1.1156224e-02
  4.5194131e-01
  5.1831957e-02
 -5.9409522e-02
 -5.0505910e-02
 -3.4552735e-01
 -5.0007295e-02
  1.9824828e-01
 -1.0278211e-01
  3.0276168e-02
  6.2591916e-01
  4.5840138e-01
  2.1579441e-02
  3.5078455e-02
  1.3228358e-01
 -5.4275823e-01
 -6.0909122e-01
 -2.3385212e+00
  1.0277860e+00
  1.1881203e-01
 -1.1120791e-01
 -5.9339684e-02
  1.1821082e-01
  1.2405542e-01
  1.3334230e-01
 -1.3576815e-01
  2.1928991e-01
 -3.3027166e-01
  2.6173425e-01
 -2.4853571e-01
  4.4973101e-02
 -2.8068697e-01
 -9.9024087e-02
  9.3583964e-02
  2.6182416e-01
 -6.1870530e-02
 -3.1014819e-02
 -5.9701318e-01
 -1.3588344e-01
  1.8045205e-01
  2.8039137e-01
  3.4359893e-01
 -5.6191616e-02
  2.3433782e-01
 -5.1385194e-01
  1.3469057e-01
  1.7656584e-01
  2.9026747e-01
  3.1361829e-02
 -3.1039335e-02
  6.4070754e-02
  1.2459257e-02
 -2.9554653e-01
 -7.0383854e-02
  1.0703468e-01
 -6.0883957e-01
  4.2657491e-02
 -1.4222144e+00
 -1.4859514e-01
 -4.5370969e-01
  4.4257879e-02
 -1.0274518e+00
  2.8785428e-01
 -9.0603620e-02
 -7.6170325e-02
  1.1059128e+00
 -8.8066548e-02
 -5.6282276e-01
  1.3625036e-01
  2.2137385e-02
  2.3198500e-01
 -7.5677358e-02
  2.8643462e-01
  2.6518526e+00
  6.6922940e-02
  3.3423033e-02
  6.3673265e-02
